tree
version=v4
num_class=1
num_tree_per_iteration=1
label_index=0
max_feature_idx=16
objective=binary sigmoid:1
feature_names=grid_position qualifying_lap_time air_temperature humidity rainfall track_temperature wind_speed team_name driver_name circuit country_code driver_form_last3 team_form_last3 qualifying_gap_to_pole teammate_grid_delta track_type overtaking_difficulty
feature_infos=[-1.5689550340233149:1.7616454603767115] [-1.5713688324132995:2.9249117729279916] [-1.5014840587447127:1.9449854495670322] [-2.534269621059317:1.754756777172352] [-0.24138953324822499:4.2083077220841059] [-1.9542750333652867:2.0202975449173817] [-1.2810175668685091:2.7366113558976073] [0:11] [0:20] [0:13] [0:14] [-1.7865603513824964:2.12001547007756] [-1.7964355588604486:2.1183676779152125] [-0.47581645781185183:5.0653582496360379] [-2.8472895021134539:2.5945817408316518] [0:1] [-0.42255168186622932:2.6959987589493242]
tree_sizes=763 772 772 1080 1081 970 972 972 1076 1191 1077 1177 1083 1183 1083 1086 1081 1079 1083 1086 1088 1193 1190 1197 1193 974 968 1291 1196 1097 1092 988 1082 1199 1299 1202 1197 886 1090 1205 1310 1092 1203 987 1314 1195 1204 1209 1312 1093 1091 1192 982 1292 880 1298 1303 1087 885 1096 1207 983 1306 1300 987 1093 993 1206 1210 1435 1211 891 1196 1102 1099 1201 993 1310 1098 1316 1207 1313 991 1104 1209 1093 1106 1094 1103 1314 1209 1103 992 1314 993 1211 1319 1097 1216 1098

Tree=0
num_leaves=6
num_cat=0
split_feature=0 13 12 6 12
split_gain=80.4189 16.1957 15.7599 8.25737 0.920695
threshold=-0.60483383827593873 -0.41349980280289766 -0.83552930983369522 1.0000000180025095e-35 0.30332254086467875
decision_type=2 2 2 2 2
left_child=1 -1 -2 -3 -4
right_child=2 3 4 -5 -6
leaf_value=-0.56126842385938303 -0.83743464209140017 -0.68341886653892903 -1.0067582736318448 -0.87397355711902081 -1.049870194577567
leaf_weight=4.7073098570108405 4.707309857010844 4.0933129191398603 6.9586319625377682 5.1166411489248276 17.191914260387421
leaf_count=23 23 20 34 25 84
internal_value=-0.909602 -0.71216 -1.00482 -0.789283 -1.03745
internal_weight=42.7751 13.9173 28.8579 9.20995 24.1505
internal_count=209 68 141 45 118
is_linear=0
shrinkage=1


Tree=1
num_leaves=6
num_cat=0
split_feature=0 12 13 6 12
split_gain=62.6245 13.7194 10.1958 5.71641 0.891395
threshold=-0.60483383827593873 -0.83552930983369522 -0.41349980280289766 1.0000000180025095e-35 0.30332254086467875
decision_type=2 2 2 2 2
left_child=2 -2 -1 -4 -3
right_child=1 4 3 -5 -6
leaf_value=0.27528946067068855 0.062946397492550335 -0.091521489470639261 0.18592562804437401 0.031564340828378598 -0.13499831504035406
leaf_weight=5.3199122548103324 4.8489941060543087 6.6639010310173061 4.4587862491607648 5.1935054361820221 16.131313383579254
leaf_count=23 23 34 20 25 84
internal_value=-0.000584647 -0.0897969 0.164134 0.10287 -0.122288
internal_weight=42.6164 27.6442 14.9722 9.65229 22.7952
internal_count=209 141 68 45 118
is_linear=0
shrinkage=0.1


Tree=2
num_leaves=6
num_cat=0
split_feature=0 11 12 6 11
split_gain=50.2057 12.4541 8.17154 0.228513 0.00305501
threshold=-0.60483383827593873 -0.54355895364520546 -0.83552930983369522 0.65950860855906546 0.3087848619460794
decision_type=2 2 2 2 2
left_child=2 -2 -1 4 -3
right_child=1 3 -4 -5 -6
leaf_value=0.21585073924601506 0.029394204011773856 -0.13379031996227525 0.071026570355236768 -0.10352403454133506 -0.13057864705665342
leaf_weight=7.572493463754653 7.0015618503093746 3.9502014666795757 8.0247294008731824 3.6195428371429434 11.836349844932554
leaf_count=32 34 21 36 20 66
internal_value=-0.000916091 -0.0849366 0.141339 -0.126186 -0.131382
internal_weight=42.0049 26.4077 15.5972 19.4061 15.7866
internal_count=209 141 68 107 87
is_linear=0
shrinkage=0.1


Tree=3
num_leaves=9
num_cat=0
split_feature=0 11 13 6 8 12 6 5
split_gain=40.778 11.1915 6.57857 4.102 0.23442 0.0015853 5.45835e-05 3.47863e-09
threshold=-0.60483383827593873 -0.54355895364520546 -0.41349980280289766 1.0000000180025095e-35 4.5000000000000009 0.37450078153332728 0.18793410822008549 0.080193462077836578
decision_type=2 2 2 2 2 2 2 2
left_child=2 -2 -1 -4 -3 -6 7 -7
right_child=1 4 3 -5 5 6 -8 -9
leaf_value=0.20942544071444119 0.026124267215164632 -0.09845556233301675 0.14306091362862736 0.016505428114038354 -0.12937998879939736 -0.12683543069021169 -0.12731636932444576 -0.12683113553004086
leaf_weight=5.7352603822946575 7.0854118764400509 3.4030222743749645 4.8162057995796186 5.4699015021324158 3.6696126312017432 4.3371128439903242 3.3700791895389557 3.3359316140413284
leaf_count=23 34 20 20 25 21 26 20 20
internal_value=-0.00113002 -0.0804322 0.12361 0.0757618 -0.122108 -0.127579 -0.126981 -0.126834
internal_weight=41.2225 25.2012 16.0214 10.2861 18.1158 14.7127 11.0431 7.67304
internal_count=209 141 68 45 107 87 66 46
is_linear=0
shrinkage=0.1


Tree=4
num_leaves=9
num_cat=0
split_feature=0 12 0 14 14 12 12 1
split_gain=33.8337 13.0565 6.68962 3.11856 1.25468 0.021663 7.36006e-05 1.76051e-05
threshold=-0.95542336400225736 -1.0490640318396405 -0.42953907541277958 -0.65542469592723063 1.0073692949726627 1.0000000180025095e-35 0.65921374420792078 0.093379592186305746
decision_type=2 2 2 2 2 2 2 2
left_child=3 -2 -3 -1 5 -4 -7 -8
right_child=1 2 4 -5 -6 6 7 -9
leaf_value=0.094051049428460709 0.12034822184237633 0.0066894660228331267 -0.13279458727090529 0.20048977789362593 -0.06617495821921919 -0.1244200918807515 -0.12372386599307146 -0.124030830434746
leaf_weight=5.4243420213460922 3.6101169139146831 6.2929555028677013 3.7808899283409145 5.5888022333383542 4.5487904697656623 3.1522574573755247 4.6491572111845016 3.123691737651825
leaf_count=23 16 30 21 23 26 20 30 20
internal_value=-0.00126253 -0.0576647 -0.0828195 0.148065 -0.112073 -0.12627 -0.124013 -0.123847
internal_weight=40.171 29.1579 25.5477 11.0131 19.2548 14.706 10.9251 7.77285
internal_count=209 163 147 46 117 91 70 50
is_linear=0
shrinkage=0.1


Tree=5
num_leaves=8
num_cat=0
split_feature=12 10 0 10 2 0 8
split_gain=28.0392 17.2262 12.187 1.2671 1.06264 0.0351579 4.12327e-05
threshold=0.30332254086467875 9.5000000000000018 -0.60483383827593873 6.5000000000000009 0.85723984756365346 0.096345213176698252 13.500000000000002
decision_type=2 2 2 2 2 2 2
left_child=1 2 -1 -4 5 -2 -7
right_child=4 -3 3 -5 -6 6 -8
leaf_value=0.094888775451277441 -0.13352170432296964 0.19275720447422282 -0.10936368179639835 -0.031362702346336833 -0.064690711154579875 -0.12153554985132423 -0.12106401683004178
leaf_weight=8.3712497651577014 3.4473787546157819 7.3578203320503226 4.7653803080320376 3.699383333325386 3.952883929014205 4.2261550724506378 3.3044902980327606
leaf_count=35 20 31 28 19 24 29 23
internal_value=-0.00138709 0.0651169 0.00933448 -0.0752747 -0.109149 -0.125158 -0.121329
internal_weight=39.1247 24.1938 16.836 8.46476 14.9309 10.978 7.53065
internal_count=209 113 82 47 96 72 52
is_linear=0
shrinkage=0.1


Tree=6
num_leaves=8
num_cat=0
split_feature=12 10 0 10 7 13 2
split_gain=23.8649 13.9242 9.98384 1.17224 1.12502 0.0214908 8.86688e-05
threshold=0.30332254086467875 9.5000000000000018 -0.60483383827593873 6.5000000000000009 6.5000000000000009 -0.29035022266615818 0.55469852374034156
decision_type=2 2 2 2 2 2 2
left_child=1 2 -1 -4 5 -2 -7
right_child=4 -3 3 -5 -6 6 -8
leaf_value=0.084439221254188124 -0.12900931860485676 0.17377889038204053 -0.10499510184458936 -0.028647626805621124 -0.057678438105884758 -0.11880496269724704 -0.1195123516988448
leaf_weight=8.4611244052648562 3.1840441673994055 7.344860076904296 4.4820406734943408 3.6478100121021271 3.664521411061286 3.8619980663061133 3.2742547243833542
leaf_count=35 20 31 28 19 23 29 24
internal_value=-0.00149087 0.0591473 0.00839959 -0.0707385 -0.105277 -0.122178 -0.11913
internal_weight=37.9207 23.9358 16.591 8.12985 13.9848 10.3203 7.13625
internal_count=209 113 82 47 96 73 53
is_linear=0
shrinkage=0.1


Tree=7
num_leaves=8
num_cat=0
split_feature=12 10 0 2 10 0 8
split_gain=20.3987 11.4798 8.20947 1.16921 1.08524 0.0199485 4.85497e-05
threshold=0.30332254086467875 9.5000000000000018 -0.60483383827593873 0.85723984756365346 6.5000000000000009 0.096345213176698252 13.500000000000002
decision_type=2 2 2 2 2 2 2
left_child=1 2 -1 5 -4 -2 -7
right_child=3 -3 4 -5 -6 6 -8
leaf_value=0.075511560538823075 -0.12685993648870869 0.15891193426239325 -0.10092091653402963 -0.053284826111432364 -0.026143097325792453 -0.11724931187581576 -0.11669630477244275
leaf_weight=8.5122138261795062 3.0154729038476926 7.2340295612812033 4.2108106762170818 3.6136110574007025 3.6001526266336441 3.6357062831521034 2.8180530220270157
leaf_count=35 20 31 28 24 19 29 23
internal_value=-0.00155479 0.05405 0.00757772 -0.101678 -0.0664551 -0.120145 -0.117008
internal_weight=36.64 23.5572 16.3232 13.0828 7.81096 9.46923 6.45376
internal_count=209 113 82 96 47 72 52
is_linear=0
shrinkage=0.1


Tree=8
num_leaves=9
num_cat=0
split_feature=12 10 0 2 9 0 6 8
split_gain=17.484 9.60233 6.93086 2.02525 0.837611 0.0332936 0.0001139 3.88524e-05
threshold=0.30332254086467875 9.5000000000000018 -0.42953907541277958 0.91489559714774871 7.5000000000000009 -0.25424431254962027 0.18793410822008549 13.500000000000002
decision_type=2 2 2 2 2 2 2 2
left_child=1 2 4 5 -1 -2 7 -7
right_child=3 -3 -4 -5 -6 6 -8 -9
leaf_value=0.026525608585972395 -0.12861182658176895 0.14683000106794614 -0.077705245025678951 -0.017471943171781325 0.084601201677795557 -0.11526796253275406 -0.11583626992675455 -0.11469538591482763
leaf_weight=4.5911912918090838 2.5312012284994116 7.0553860813379279 6.0430239737033871 2.475796326994895 5.4095674306154251 2.5246904268860808 2.4690283834934235 2.2334858775138855
leaf_count=20 16 31 39 17 23 22 21 20
internal_value=-0.00159003 0.0496039 0.00684785 -0.0982482 0.0579396 -0.118742 -0.115285 -0.114999
internal_weight=35.3334 23.0992 16.0438 12.2342 10.0008 9.75841 7.2272 4.75818
internal_count=209 113 82 96 43 79 63 42
is_linear=0
shrinkage=0.1


Tree=9
num_leaves=10
num_cat=0
split_feature=0 11 13 6 14 0 12 2 11
split_gain=15.3788 8.33104 4.07458 2.0449 1.75757 0.779319 0.0220498 0.000712161 0.000130527
threshold=-0.60483383827593873 -1.1117881640393954 -0.41349980280289766 1.0000000180025095e-35 1.1585323850544713 -0.25424431254962027 -0.19492514381585987 0.70720235836896916 0.85925690951545108
decision_type=2 2 2 2 2 2 2 2 2
left_child=2 -2 -1 -4 5 -3 -7 8 -8
right_child=1 4 3 -5 -6 6 7 -9 -10
leaf_value=0.14875207599068266 0.10138588579092388 -0.05887014610955868 0.084959040469743896 -0.0039084808903357068 -0.015896363622112383 -0.12525494118097699 -0.11427740313170923 -0.11576188985195666 -0.11330097503376826
leaf_weight=4.8485068231821051 2.6753691583871868 2.9790500402450588 4.8737706094980222 5.5242124795913696 2.7242724746465674 2.4036983102560052 2.387888796627518 2.4500790536403656 3.2086949869990349
leaf_count=23 11 21 20 25 19 16 22 21 31
internal_value=-0.00161008 -0.062062 0.0730467 0.0377457 -0.0891322 -0.103989 -0.116851 -0.11434 -0.113718
internal_weight=34.0755 18.8291 15.2465 10.398 16.1537 13.4294 10.4504 8.04666 5.59658
internal_count=209 141 68 45 130 111 90 74 53
is_linear=0
shrinkage=0.1


Tree=10
num_leaves=9
num_cat=0
split_feature=12 10 0 2 1 0 14 9
split_gain=13.6455 7.1307 4.86362 1.90483 0.729006 0.027314 0.000176293 1.14413e-05
threshold=0.30332254086467875 9.5000000000000018 -0.42953907541277958 0.91489559714774871 -0.029944536545376686 -0.25424431254962027 0.5538800247272373 7.5000000000000009
decision_type=2 2 2 2 2 2 2 2
left_child=1 2 4 5 -1 -2 7 -7
right_child=3 -3 -4 -5 -6 6 -8 -9
leaf_value=0.073787482759333264 -0.1251094323078086 0.13074673331492601 -0.069265656133693773 -0.013863257833145258 0.019523317069281745 -0.11182110601160536 -0.11311735003313067 -0.11215571723494973
leaf_weight=5.230913430452345 2.3122031465172759 6.5784021317958823 5.4779418036341694 2.3384725451469413 4.7003834098577499 2.1726326569914809 2.0328321531414986 1.929258659482002
leaf_count=23 16 31 39 17 20 23 20 20
internal_value=-0.00160361 0.0435888 0.00637992 -0.093735 0.0481048 -0.115847 -0.112356 -0.111978
internal_weight=32.773 21.9876 15.4092 10.7854 9.9313 8.44693 6.13472 4.10189
internal_count=209 113 82 96 43 79 63 43
is_linear=0
shrinkage=0.1


Tree=11
num_leaves=10
num_cat=0
split_feature=12 7 0 6 2 9 0 14 9
split_gain=11.7529 6.24046 4.69349 3.02545 1.84323 1.63694 0.019465 0.000126294 8.18242e-06
threshold=0.30332254086467875 9.5000000000000018 -0.42953907541277958 0.12327503684726322 0.91489559714774871 6.5000000000000009 -0.25424431254962027 0.5538800247272373 7.5000000000000009
decision_type=2 2 2 2 2 2 2 2 2
left_child=1 2 5 -4 6 -1 -2 8 -8
right_child=4 -3 3 -5 -6 -7 7 -9 -10
leaf_value=0.0056218325544462383 -0.12225559998567491 0.14706152475051681 -0.12434128258125615 0.015380463325452579 -0.012570101131061726 0.084425625066595705 -0.11057070591585033 -0.11171743840367679 -0.11086658042101652
leaf_weight=4.4369234740734154 2.1384787634015083 4.3554998040199271 3.1898975074291256 3.0140907019376755 2.3220459818840027 6.4940858334302902 1.9869701340794548 1.8612479865550993 1.764922074973583
leaf_count=20 16 22 24 19 17 28 23 20 20
internal_value=-0.00159913 0.0401787 0.0130104 -0.0564601 -0.0907252 0.052439 -0.114137 -0.111044 -0.11071
internal_weight=31.5642 21.4905 17.135 6.20399 10.0737 10.931 7.75162 5.61314 3.75189
internal_count=209 113 91 43 96 48 79 63 43
is_linear=0
shrinkage=0.1


Tree=12
num_leaves=9
num_cat=0
split_feature=0 11 13 6 2 12 2 8
split_gain=10.2563 5.3084 3.44361 2.46766 0.485969 0.00641451 0.00256369 2.34844e-05
threshold=-0.60483383827593873 -0.54355895364520546 -0.41349980280289766 -0.43541815105753529 -1.1440537736948428 0.30332254086467875 0.85723984756365346 13.500000000000002
decision_type=2 2 2 2 2 2 2 2
left_child=2 -2 -1 -4 -3 -6 7 -7
right_child=1 4 3 -5 5 6 -8 -9
leaf_value=0.13742912385889042 0.014650182209521162 -0.055424495087478071 0.08429437690201555 -0.015467454827900433 -0.11778022947165825 -0.10995484542430972 -0.11411650772721378 -0.10946086721486435
leaf_weight=4.1294158399105063 6.4365379586815878 1.8059164062142397 4.468700870871543 5.5699531733989742 1.9942482486367161 2.2976598665118222 2.0346247479319572 1.6561097279191015
leaf_count=23 34 21 19 26 18 28 19 21
internal_value=-0.00160383 -0.0558875 0.0605612 0.0289415 -0.10227 -0.112868 -0.111232 -0.109748
internal_weight=30.3932 16.2251 14.1681 10.0387 9.78856 7.98264 5.98839 3.95377
internal_count=209 141 68 45 107 86 68 49
is_linear=0
shrinkage=0.1


Tree=13
num_leaves=10
num_cat=0
split_feature=12 7 0 6 2 9 0 14 10
split_gain=9.08634 5.32066 3.42437 2.69254 1.76319 1.36711 0.0179233 6.72352e-05 8.0875e-06
threshold=0.30332254086467875 9.5000000000000018 -0.42953907541277958 0.12327503684726322 0.91489559714774871 6.5000000000000009 -0.42953907541277958 0.5538800247272373 7.5000000000000009
decision_type=2 2 2 2 2 2 2 2 2
left_child=1 2 5 -4 6 -1 -2 8 -8
right_child=4 -3 3 -5 -6 -7 7 -9 -10
leaf_value=0.00060135447926069571 -0.12083868843991473 0.13990670833081406 -0.12127900626927664 0.014570393889239509 -0.0082563204747178771 0.073295076919723479 -0.10855038341157773 -0.10948045045421634 -0.10886201218852823
leaf_weight=4.3563301414251381 1.7013501599431036 3.9104394167661658 2.8358457759022739 3.0049351006746292 2.1749313697218895 6.3700087517499924 1.884191825985907 1.5684694051742551 1.492444075644016
leaf_count=20 13 22 24 19 17 28 26 20 20
internal_value=-0.00156325 0.0349876 0.0102229 -0.0513879 -0.0864108 0.0437717 -0.111985 -0.108939 -0.108688
internal_weight=29.2989 20.4776 16.5671 5.84078 8.82139 10.7263 6.64646 4.94511 3.37664
internal_count=209 113 91 43 96 48 79 66 46
is_linear=0
shrinkage=0.1


Tree=14
num_leaves=9
num_cat=0
split_feature=12 10 0 2 5 0 2 2
split_gain=7.83992 4.81068 2.58716 2.42424 1.12225 0.0120054 0.000411574 1.40812e-05
threshold=0.30332254086467875 9.5000000000000018 -0.60483383827593873 1.1228539604246903 1.0000000180025095e-35 -0.42953907541277958 0.70720235836896916 -0.60967746972807568
decision_type=2 2 2 2 2 2 2 2
left_child=1 2 -1 5 -4 -2 7 -7
right_child=3 -3 4 -5 -6 6 -8 -9
leaf_value=0.038914807141622904 -0.11851431634102567 0.11198691946749749 -0.005841504566587421 0.024181275511774666 -0.090661953946407553 -0.10807923347374566 -0.10987911865978468 -0.10767713607265512
leaf_weight=8.2315940260887164 1.5680795684456823 5.493369683623313 3.2607653811574009 1.6654090806841848 2.9904239401221275 1.9313063025474542 1.49384518712759 1.5862251445651043
leaf_count=35 13 31 24 12 23 28 19 24
internal_value=-0.00155536 0.0323061 0.00208285 -0.0835969 -0.0464176 -0.110878 -0.108488 -0.107898
internal_weight=28.221 19.9762 14.4828 8.24487 6.25119 6.57946 5.01138 3.51753
internal_count=209 113 82 96 47 84 71 52
is_linear=0
shrinkage=0.1


Tree=15
num_leaves=9
num_cat=0
split_feature=0 12 14 10 6 6 0 2
split_gain=6.89978 4.20149 2.4331 2.40173 2.73918 0.341514 0.00415217 0.000392457
threshold=-0.95542336400225736 0.30332254086467875 -0.65542469592723063 5.5000000000000009 0.063884238970637927 -0.91030949146830442 1.0000000180025095e-35 0.55469852374034156
decision_type=2 2 2 2 2 2 2 2
left_child=2 3 -1 -2 -5 -3 -7 -8
right_child=1 5 -4 4 -6 6 7 -9
leaf_value=0.02150713270788164 -0.066052594674825535 -0.056542990089719691 0.12774941985719759 -0.023552257459842577 0.094045016895107664 -0.11407498478930325 -0.10707951986172282 -0.10915090893400672
leaf_weight=4.5112590491771698 3.6760486736893672 1.565800499171021 4.1280729100108164 4.2164554297924042 3.7355636805295944 1.5125920400023423 2.3391601778566842 1.5020088031888006
leaf_count=23 24 17 23 26 21 16 38 21
internal_value=-0.00154232 -0.0359245 0.0722722 0.000790463 0.0316906 -0.0976226 -0.109637 -0.107889
internal_weight=27.187 18.5476 8.63933 11.6281 7.95202 6.91956 5.35376 3.84117
internal_count=209 163 46 71 47 92 75 59
is_linear=0
shrinkage=0.1


Tree=16
num_leaves=9
num_cat=0
split_feature=0 7 6 13 13 12 12 2
split_gain=6.22609 3.73213 2.32326 2.28596 0.837372 0.192816 0.00403128 0.00155187
threshold=-0.60483383827593873 7.5000000000000009 0.18793410822008549 -0.40904861315940083 -0.35136861402909142 -0.55081634715910166 0.17876061969454413 0.81430131476887768
decision_type=2 2 2 2 2 2 2 2
left_child=3 2 5 -1 -5 -2 -7 -8
right_child=1 -3 -4 4 -6 6 7 -9
leaf_value=0.11139369227663305 -0.15104839076505938 0.02464233646150691 -0.01142412713322632 -0.01040215624232615 0.051183614752225229 -0.11482759570475279 -0.10640814898477856 -0.11086414077733125
leaf_weight=3.9821648374199858 1.5660609528422345 4.5928835719823828 2.8427866958081722 4.4530861154198638 4.3786965236067799 1.4176880791783322 1.7404702156782152 1.4185975380241869
leaf_count=26 10 35 32 21 21 16 31 17
internal_value=-0.00150519 -0.048688 -0.0861699 0.0484928 0.0201314 -0.120761 -0.110397 -0.108409
internal_weight=26.3924 13.5785 8.9856 12.8139 8.83178 6.14282 4.57676 3.15907
internal_count=209 141 106 68 42 74 64 48
is_linear=0
shrinkage=0.1


Tree=17
num_leaves=9
num_cat=0
split_feature=12 7 0 6 14 2 0 10
split_gain=5.71646 4.10543 2.77117 2.11773 1.27982 0.947189 0.00848 3.57624e-05
threshold=0.51685726287062395 9.5000000000000018 -0.42953907541277958 0.12327503684726322 -0.65542469592723063 0.91489559714774871 -0.42953907541277958 8.5000000000000018
decision_type=2 2 2 2 2 2 2 2
left_child=1 2 4 -4 -1 6 -2 -8
right_child=5 -3 3 -5 -6 -7 7 -9
leaf_value=-0.0081977389662026123 -0.11570520155291904 0.12946370572949906 -0.11587943134587238 0.0053698959927726995 0.063178595082197864 -0.020213048727254136 -0.10599329746202164 -0.10669064607734594
leaf_weight=4.1150645166635513 1.3536351844668386 3.1559587866067877 2.6787567883729961 3.1162445321679115 6.4490964040160232 1.6324622109532354 2.0061406902968879 1.1609996668994425
leaf_count=19 13 22 30 22 30 15 38 20
internal_value=-0.00146138 0.0250377 0.00489217 -0.050678 0.0353753 -0.0855038 -0.10908 -0.106249
internal_weight=25.6684 19.5151 16.3592 5.795 10.5642 6.15324 4.52078 3.16714
internal_count=209 123 101 52 49 86 71 58
is_linear=0
shrinkage=0.1


Tree=18
num_leaves=9
num_cat=0
split_feature=12 10 0 14 13 3 2 13
split_gain=4.95602 3.56725 1.93733 1.83003 1.04284 0.829618 0.00265274 0.000262388
threshold=0.51685726287062395 9.5000000000000018 -0.42953907541277958 1.0073692949726627 -0.33328565610238697 -0.23751893065283078 0.85723984756365346 -0.22209864813254254
decision_type=2 2 2 2 2 2 2 2
left_child=1 2 5 -4 -2 -1 7 -6
right_child=4 -3 3 -5 6 -7 -8 -9
leaf_value=-0.0086654472345966179 -0.01077563682725504 0.099717976686004156 -0.11137243616473531 0.014042000842556661 -0.10742200025452216 0.050093614848299842 -0.11155505356521681 -0.1054612815854436
leaf_weight=4.3116428107023239 1.4855300374329088 4.6078190058469763 2.5500342398881939 2.1398220062255859 1.1874515004456041 5.42768692225218 1.4600846394896505 1.6050693802535527
leaf_count=19 15 31 33 15 21 25 17 33
internal_value=-0.00143943 0.0231158 -0.0013463 -0.0541501 -0.0829047 0.0240807 -0.108101 -0.106295
internal_weight=24.7751 19.037 14.4292 4.68986 5.73814 9.73933 4.25261 2.79252
internal_count=209 123 92 48 86 44 71 54
is_linear=0
shrinkage=0.1


Tree=19
num_leaves=9
num_cat=0
split_feature=12 10 1 0 2 0 3 10
split_gain=4.29666 3.08529 1.92263 1.72697 1.33775 0.0050877 0.000109908 1.54889e-05
threshold=0.51685726287062395 9.5000000000000018 -0.43696508667117512 -0.42953907541277958 1.1228539604246903 -0.42953907541277958 -0.32331832602027027 7.5000000000000009
decision_type=2 2 2 2 2 2 2 2
left_child=1 2 -1 -4 5 -2 -7 -8
right_child=4 -3 3 -5 -6 6 7 -9
leaf_value=0.052660855708503811 -0.11323242721991023 0.094693347298825836 0.0032046855752231687 -0.08655654598907464 0.01106366758445677 -0.10626117330390202 -0.10470019785182516 -0.1052814339156565
leaf_weight=4.5059515200555351 1.1857831887900827 4.3791330456733695 6.5007441788911846 3.1977978870272628 1.2318647876381872 1.1003881655633447 0.89749577641487055 0.93726168572902679
leaf_count=29 13 31 29 34 11 21 21 20
internal_value=-0.00142914 0.0213093 -0.00131439 -0.0263913 -0.0803717 -0.107704 -0.105471 -0.104997
internal_weight=23.9364 18.5836 14.2045 9.69854 5.35279 4.12093 2.93515 1.83476
internal_count=209 123 92 63 86 75 62 41
is_linear=0
shrinkage=0.1


Tree=20
num_leaves=9
num_cat=0
split_feature=0 7 6 13 6 11 2 12
split_gain=3.82235 2.94166 2.32942 1.85056 1.39069 0.158348 0.00178513 0.000104525
threshold=-0.60483383827593873 7.5000000000000009 0.18793410822008549 -0.40904861315940083 -0.43541815105753529 -0.33047299974738426 0.91489559714774871 0.65921374420792078
decision_type=2 2 2 2 2 2 2 2
left_child=3 2 5 -1 -5 -2 7 -7
right_child=1 -3 -4 4 -6 6 -8 -9
leaf_value=0.10193850887314743 -0.14390862062151469 0.024236469127094928 -0.00074471528699498286 0.057487338623159245 -0.024146055640723068 -0.10560258531086092 -0.10993592275844517 -0.10412311597362718
leaf_weight=3.3222311586141577 1.8492864705622194 4.1941086500883102 2.4179684147238731 3.895697370171546 4.4944965690374401 0.96191136166453206 1.0926482863724229 0.94833040609955788
leaf_count=26 15 35 32 18 24 20 14 25
internal_value=-0.00140793 -0.0424557 -0.0809301 0.0387701 0.0137576 -0.120889 -0.106712 -0.104868
internal_weight=23.1767 11.4643 7.27014 11.7124 8.39019 4.85218 3.00289 1.91024
internal_count=209 141 106 68 42 74 59 45
is_linear=0
shrinkage=0.1


Tree=21
num_leaves=10
num_cat=0
split_feature=12 10 1 14 0 2 0 3 10
split_gain=3.53607 2.61331 1.49802 2.35936 3.75178 1.27551 0.00347639 0.000106924 2.54601e-05
threshold=0.51685726287062395 9.5000000000000018 -0.43696508667117512 -0.65542469592723063 -0.42953907541277958 1.1228539604246903 -0.42953907541277958 -0.40747192465760301 7.5000000000000009
decision_type=2 2 2 2 2 2 2 2 2
left_child=1 2 -1 -4 -5 6 -2 -8 -9
right_child=5 -3 3 4 -6 -7 7 8 -10
leaf_value=0.046815692151001204 -0.11157601117865013 0.090147287942815568 -0.1024998024652297 0.071904844715029601 -0.080720514763584633 0.012985246269281143 -0.10571006736522962 -0.10392740977596059 -0.10469264797098723
leaf_weight=4.3676257245242622 1.0613893717527392 4.021534487605094 2.7221421040594604 3.8523311465978649 2.7677142322063411 1.1782110929489134 0.82571318373084102 0.82918681204318889 0.91405651345849037
leaf_count=29 13 31 13 18 32 11 17 23 22
internal_value=-0.00136238 0.0192639 -0.00152851 -0.0241302 0.0080951 -0.0774209 -0.106762 -0.104773 -0.104329
internal_weight=22.5399 17.7313 13.7098 9.34219 6.62005 4.80856 3.63035 2.56896 1.74324
internal_count=209 123 92 63 50 86 75 62 45
is_linear=0
shrinkage=0.1


Tree=22
num_leaves=10
num_cat=0
split_feature=12 10 1 14 0 2 0 3 10
split_gain=3.0681 2.2547 1.22475 1.91335 2.81818 1.20851 0.00252781 7.83487e-05 1.866e-05
threshold=0.51685726287062395 9.5000000000000018 -0.43696508667117512 -0.65542469592723063 -0.60483383827593873 1.1228539604246903 -0.42953907541277958 -0.40747192465760301 7.5000000000000009
decision_type=2 2 2 2 2 2 2 2 2
left_child=1 2 -1 -4 -5 6 -2 -8 -9
right_child=5 -3 3 4 -6 -7 7 8 -10
leaf_value=0.042110686632605698 -0.11037231357643298 0.085503598702701342 -0.092791803531934391 0.086850773194146191 -0.047625702541357881 0.011612288562433374 -0.10514070881982243 -0.10353998043561348 -0.10422736023510477
leaf_weight=4.3699180483818081 0.97032168880105052 3.8262678757309905 2.7069838680326965 2.6373289227485683 3.8092900775372946 1.1853634342551229 0.75097555294632945 0.75294352509081253 0.83057637140154839
leaf_count=29 13 31 13 12 38 11 17 23 22
internal_value=-0.00133657 0.0177309 -0.00144428 -0.0222374 0.00738898 -0.0750122 -0.106083 -0.104299 -0.103901
internal_weight=21.84 17.3498 13.5235 9.1536 6.44662 4.49018 3.30482 2.3345 1.58352
internal_count=209 123 92 63 50 86 75 62 45
is_linear=0
shrinkage=0.1


Tree=23
num_leaves=10
num_cat=0
split_feature=0 12 5 11 14 2 0 3 3
split_gain=2.88318 2.0432 2.07186 2.2559 1.59096 0.493583 0.000864941 4.84451e-05 2.64705e-05
threshold=-0.95542336400225736 0.30332254086467875 0.28994546534012827 -0.75664490754302671 -0.65542469592723063 1.1228539604246903 -0.25424431254962027 -0.40747192465760301 0.28476362319212339
decision_type=2 2 2 2 2 2 2 2 2
left_child=4 2 3 -2 -1 6 -3 -8 -9
right_child=1 5 -4 -5 -6 -7 7 8 -10
leaf_value=0.0086958814885805397 -0.023848296889174503 -0.1078076454115228 -0.066054989268850159 0.092984153150187626 0.10502102362863318 -0.023346467943827949 -0.10466872890987076 -0.10319426791851836 -0.10402564684110777
leaf_weight=3.8549439534544945 3.6009926348924637 0.80449806526303325 3.4133072905242443 3.0546325296163541 3.088361673057082 0.96457295864820469 0.77141928486526068 0.62258724495768414 0.99505564942955971
leaf_count=23 21 14 24 26 23 10 19 21 28
internal_value=-0.00128475 -0.0270656 -0.00271241 0.0297725 0.051541 -0.0860368 -0.104972 -0.104017 -0.103706
internal_weight=21.1704 14.2271 10.0689 6.65563 6.94331 4.15813 3.19356 2.38906 1.61764
internal_count=209 163 71 47 46 92 82 68 49
is_linear=0
shrinkage=0.1


Tree=24
num_leaves=10
num_cat=0
split_feature=0 14 7 2 10 11 2 12 9
split_gain=2.51875 2.84613 1.84389 3.04937 0.79708 0.012826 0.000495143 0.000465928 7.58524e-06
threshold=-0.42953907541277958 1.1585323850544713 3.5000000000000004 0.55469852374034156 9.5000000000000018 -0.54355895364520546 0.85723984756365346 0.30332254086467875 8.5000000000000018
decision_type=2 2 2 2 2 2 2 2 2
left_child=2 4 -1 -4 5 -2 7 -7 -9
right_child=1 -3 3 -5 -6 6 -8 8 -10
leaf_value=-0.034991122939464013 -0.11702440711813787 0.031258389562931914 0.00099708436203468464 0.11845247221672475 -0.00864348960827367 -0.10638984168859333 -0.10717449774726105 -0.10288853776871071 -0.10337930426487885
leaf_weight=3.4665820300579098 1.3521982803940771 3.1146911550313234 5.2153512835502607 3.8362272754311562 0.97701868973672379 0.68388130888342713 0.85394610464572895 0.59071440249681451 0.67458073049783707
leaf_count=21 12 26 37 24 17 13 15 22 22
internal_value=-0.00124287 -0.0441516 0.0270256 0.0507769 -0.0899161 -0.109025 -0.105167 -0.104287 -0.10315
internal_weight=20.7652 8.24703 12.5182 9.05158 5.13234 4.15532 2.80312 1.94918 1.2653
internal_count=209 127 82 61 101 84 72 57 44
is_linear=0
shrinkage=0.1


Tree=25
num_leaves=8
num_cat=0
split_feature=0 11 8 1 7 0 9
split_gain=2.41571 3.25779 1.50394 1.38313 1.19728 1.12073 1.06728
threshold=1.1481137903556542 -1.1117881640393954 15.500000000000002 -0.06665319840116013 6.5000000000000009 -0.95542336400225736 7.5000000000000009
decision_type=2 2 2 2 2 2 2
left_child=1 -1 3 4 -3 -5 -7
right_child=-2 2 -4 5 -6 6 -8
leaf_value=0.10799542719722864 -0.10469325988248279 -0.0099504135209708064 -0.088132509169954465 0.025686383841678637 0.076222187860298829 -0.0032130215054919651 -0.10288823231013705
leaf_weight=2.8750444874167487 2.0307339169085017 2.943227373063567 2.0312159713357696 2.5412350669503239 3.5656419172883034 1.9565773122012542 2.3821693193167448
leaf_count=25 35 35 35 13 20 22 24
internal_value=-0.00121729 0.0102684 -0.00795263 0.00421142 0.037256 -0.0270507 -0.0579392
internal_weight=20.3258 18.2951 15.4201 13.3889 6.50887 6.87998 4.33875
internal_count=209 174 149 114 55 59 46
is_linear=0
shrinkage=0.1


Tree=26
num_leaves=8
num_cat=0
split_feature=0 11 8 6 1 14 7
split_gain=2.08526 2.8347 1.43191 2.7851 2.03502 1.50176 2.09817
threshold=1.1481137903556542 -1.2538454666379428 10.500000000000002 -0.51982260344474118 -0.43696508667117512 -0.65542469592723063 4.5000000000000009
decision_type=2 2 2 2 2 2 2
left_child=1 -1 4 -4 -3 -6 -7
right_child=-2 2 3 -5 5 6 -8
leaf_value=0.1182108734387789 -0.10043493570753695 0.072313027854907744 0.047346472668246403 -0.12346749546695984 -0.074500964173239176 0.089275985538485675 -0.040246875076692085
leaf_weight=2.1133907549083277 1.911440785974263 3.8320682905614403 1.5666742473840711 2.4430236574262389 2.8524530455470112 2.2150765266269374 2.8726580906659365
leaf_count=22 35 30 22 37 19 20 24
internal_value=-0.00115474 0.0094496 -0.00511482 -0.0567268 0.0124645 -0.0164194 0.0161442
internal_weight=19.8068 17.8953 15.782 4.0097 11.7723 7.94019 5.08773
internal_count=209 174 152 59 93 63 44
is_linear=0
shrinkage=0.1


Tree=27
num_leaves=11
num_cat=0
split_feature=12 7 2 14 0 6 2 0 3 8
split_gain=1.94769 1.67458 3.45203 1.4518 2.70029 1.49323 0.973135 0.0020559 2.64889e-05 7.39562e-06
threshold=0.51685726287062395 7.5000000000000009 0.55469852374034156 -0.65542469592723063 -0.60483383827593873 0.12327503684726322 1.1228539604246903 -0.60483383827593873 -0.40747192465760301 12.500000000000002
decision_type=2 2 2 2 2 2 2 2 2 2
left_child=1 3 -3 -1 -5 -6 7 -2 -9 -10
right_child=6 2 -4 4 5 -7 -8 8 9 -11
leaf_value=-0.074688880503920294 -0.10952153736532085 -0.012787725209982864 0.13808331126822479 0.071177127863169154 -0.11597263580816355 0.016279899555125429 0.010253300998356453 -0.10352300943492919 -0.1029652279949686 -0.10245925189333976
leaf_weight=2.6827916949987411 0.65833698585629519 3.3942670188844195 2.7414754591882229 3.6753025129437447 1.7729232534766217 1.6466519478708503 1.0641899108886717 0.55236459150910411 0.51778458245098458 0.65343987941741943
leaf_count=17 9 26 19 19 28 14 11 18 19 29
internal_value=-0.00108842 0.0136719 0.0546221 -0.0120254 0.0116696 -0.0522881 -0.0692483 -0.104768 -0.102952 -0.102683
internal_weight=19.3595 15.9134 6.13574 9.77767 7.09488 3.41958 3.44612 2.38193 1.72359 1.17122
internal_count=209 123 45 78 61 42 86 75 66 48
is_linear=0
shrinkage=0.1


Tree=28
num_leaves=10
num_cat=0
split_feature=0 11 11 5 0 7 9 11 2
split_gain=1.8503 1.23572 0.847532 0.973501 1.83052 1.41576 0.248995 0.00863707 0.000322335
threshold=-1.3060128897285759 0.80598542104099591 -1.1117881640393954 -0.76714141746667652 -0.42953907541277958 7.5000000000000009 2.5000000000000004 -0.33047299974738426 0.81430131476887768
decision_type=2 2 2 2 2 2 2 2 2
left_child=-1 2 -2 -4 -5 7 -3 -6 -8
right_child=1 6 3 4 5 -7 8 -9 -10
leaf_value=0.092193468641340037 0.054675139547096713 -0.029424777045835751 -0.071537314040825445 0.030609225930960982 -0.11763206083396649 0.023009677018966196 -0.10330148916339424 -0.10466060491633888 -0.10626993347881564
leaf_weight=1.9113681241869951 2.2849625498056438 0.62321839854121153 2.2248688172549036 6.9630934707820433 0.96753497608006211 1.2844428922981022 0.89986033737659432 1.0934410896152171 0.61636440455913544
leaf_count=21 16 13 19 37 12 10 35 31 15
internal_value=-0.00107979 -0.0115929 -0.0013358 -0.0115472 0.00140041 -0.0593943 -0.0826364 -0.11075 -0.104508
internal_weight=18.8692 16.9578 14.8183 12.5334 10.3085 3.34542 2.13944 2.06098 1.51622
internal_count=209 188 125 109 90 53 63 43 50
is_linear=0
shrinkage=0.1


Tree=29
num_leaves=9
num_cat=0
split_feature=13 11 14 0 13 9 2 13
split_gain=1.68522 1.6831 1.29058 1.84298 1.21007 0.0752881 0.000544817 9.68441e-05
threshold=-0.41349980280289766 0.80598542104099591 1.1585323850544713 -0.25424431254962027 -0.37019343689637835 5.5000000000000009 0.85723984756365346 -0.23712141317934429
decision_type=2 2 2 2 2 2 2 2
left_child=-1 2 3 4 -2 -5 7 -3
right_child=1 6 -4 5 -6 -7 -8 -9
leaf_value=0.080947469957767068 -0.046986667458420256 -0.10398771467376122 0.067598329126602782 -0.073420948602186467 0.028624037044482405 -0.11062195993788876 -0.10664188000985589 -0.10209845764740014
leaf_weight=2.2035085037350681 3.0958388857543486 0.53653095941990603 2.3049927949905387 0.91502504982054178 6.6917450223118067 1.3417533747851846 0.68019639700651158 0.54891396407037873
leaf_count=29 18 19 16 18 39 28 14 28
internal_value=-0.00107645 -0.0122921 -0.000955731 -0.0140753 0.00470817 -0.0955386 -0.104423 -0.103032
internal_weight=18.3185 16.115 14.3494 12.0444 9.78758 2.25678 1.76564 1.08544
internal_count=209 180 119 103 57 46 61 47
is_linear=0
shrinkage=0.1


Tree=30
num_leaves=9
num_cat=0
split_feature=0 11 5 14 14 14 9 2
split_gain=1.46065 0.964646 0.693251 3.98592 2.21454 1.30285 0.246041 0.000171811
threshold=-1.3060128897285759 0.80598542104099591 1.0000000180025095e-35 -0.35309851576361367 -0.35309851576361367 0.5538800247272373 2.5000000000000004 0.81430131476887768
decision_type=2 2 2 2 2 2 2 2
left_child=-1 2 4 -4 -2 -5 -3 -8
right_child=1 6 3 5 -6 -7 7 -9
leaf_value=0.08554944465786142 -0.05105634264200494 -0.024452723690653835 0.065809963922876066 -0.13334584332859609 0.066153732538947838 -0.025272596101291289 -0.10271518049022473 -0.10509735538204584
leaf_weight=1.7561967056244636 2.6107435747981071 0.56987207382917304 3.0325960405170944 2.3783054379746291 4.2135054841637629 2.1007859520614147 0.74565070774406172 0.50973608531057835
leaf_count=21 20 13 19 25 39 22 35 15
internal_value=-0.00106406 -0.0104761 -0.00175854 -0.0227185 0.0213128 -0.0826573 -0.0789458 -0.103682
internal_weight=17.9174 16.1612 14.3359 7.51169 6.82425 4.47909 1.82526 1.25539
internal_count=209 188 125 66 59 47 63 50
is_linear=0
shrinkage=0.1


Tree=31
num_leaves=8
num_cat=0
split_feature=13 12 10 2 6 14 2
split_gain=1.39098 1.36708 1.13552 2.45764 0.543659 0.000739631 0.00011633
threshold=-0.41349980280289766 0.30332254086467875 5.5000000000000009 0.55469852374034156 -0.91030949146830442 -0.50426160584542212 0.70720235836896916
decision_type=2 2 2 2 2 2 2
left_child=-1 2 -2 -4 -3 -6 -7
right_child=1 4 3 -5 5 6 -8
leaf_value=0.076016799521201606 -0.035406928219516458 -0.0034033135796117547 -0.019454350222976674 0.093912532894705511 -0.10717515076820749 -0.10233252374227844 -0.10439938627015569
leaf_weight=2.0700628953054574 4.966993819922207 0.73059248458594117 4.8248516581952572 3.1677375715225935 0.7848370010033251 0.66664421465247736 0.46036267001181841
leaf_count=29 35 17 33 23 20 36 16
internal_value=-0.00100514 -0.0112243 0.00214204 0.0254768 -0.0767785 -0.104818 -0.103177
internal_weight=17.6721 15.602 12.9596 7.99259 2.64244 1.91184 1.12701
internal_count=209 180 91 56 89 72 52
is_linear=0
shrinkage=0.1


Tree=32
num_leaves=9
num_cat=0
split_feature=0 14 0 7 1 5 11 5
split_gain=1.32462 2.34604 2.12205 1.08116 0.61035 0.166716 0.0555061 0.000813611
threshold=-0.60483383827593873 0.10039075448181176 1.1481137903556542 7.5000000000000009 -0.029944536545376686 0.49092435387074157 -0.54355895364520546 0.28994546534012827
decision_type=2 2 2 2 2 2 2 2
left_child=4 6 3 -3 5 -1 -2 -8
right_child=1 2 -4 -5 -6 -7 7 -9
leaf_value=0.065883461301239052 -0.13742189718587514 -0.019315796751966426 -0.10316366305920373 0.080217585314018958 -0.0034543959415605538 0.029805049579919723 -0.10268054747050588 -0.10765662661756259
leaf_weight=2.5666021555662155 0.90044498816132579 1.9392945170402525 1.4361494733020661 2.4958054702728987 4.2273446172475833 2.5566420182585716 0.65079387556761303 0.66365616954863071
leaf_count=23 6 39 30 18 28 17 32 16
internal_value=-0.000959304 -0.0305982 0.002485 0.0366956 0.0246717 0.0478793 -0.118295 -0.105193
internal_weight=17.4367 8.08614 5.87125 4.4351 9.35059 5.12324 2.2149 1.31445
internal_count=209 141 87 57 68 40 54 48
is_linear=0
shrinkage=0.1


Tree=33
num_leaves=10
num_cat=0
split_feature=11 0 14 2 14 11 2 12 8
split_gain=1.18062 1.3547 2.30426 0.72452 0.0119006 0.00120753 0.000349917 0.000163063 4.65382e-06
threshold=-1.1117881640393954 -0.42953907541277958 1.1585323850544713 0.55469852374034156 1.0073692949726627 -0.54355895364520546 0.85723984756365346 0.30332254086467875 12.500000000000002
decision_type=2 2 2 2 2 2 2 2 2
left_child=-1 3 4 -2 5 -3 7 -7 -9
right_child=1 2 -4 -5 -6 6 -8 8 -10
leaf_value=0.059677765492304094 -0.013653956930000783 -0.10891556974108324 0.036136873016587551 0.042108611472169391 -0.12015535661867925 -0.10408199583025315 -0.10535390428773087 -0.10189791239635027 -0.10140720343224392
leaf_weight=2.7041199132800129 5.651046353392303 0.53952649608254466 1.7419773275032637 3.9648319240659475 0.63093286287039507 0.43201871588825935 0.68683336675167073 0.39279174711555243 0.3804794205352664
leaf_count=28 36 8 19 27 8 13 18 23 29
internal_value=-0.000956923 -0.0123271 -0.0556882 0.00933814 -0.107918 -0.104742 -0.103552 -0.102526 -0.101656
internal_weight=17.1246 14.4204 4.80456 9.61588 3.06258 2.43165 1.89212 1.20529 0.773271
internal_count=209 181 118 63 99 91 83 65 52
is_linear=0
shrinkage=0.1


Tree=34
num_leaves=11
num_cat=0
split_feature=0 14 1 0 3 14 11 11 11 2
split_gain=1.13014 0.726398 1.21253 1.43776 2.26569 2.04029 2.36443 0.588302 0.0248756 9.58316e-06
threshold=-1.3060128897285759 -1.1089139661726559 -0.44922959912935012 -0.60483383827593873 0.3479370771391242 1.3096954751362799 -0.61458760494447928 -0.4725303023459318 -0.33047299974738426 0.55469852374034156
decision_type=2 2 2 2 2 2 2 2 2 2
left_child=-1 -2 7 -4 5 6 -5 -3 -8 -10
right_child=1 2 3 4 -6 -7 8 -9 9 -11
leaf_value=0.079908745259567607 -0.068369451702858949 -0.014106754617858638 0.061129649595634362 0.082933203293623359 -0.10193354850661206 0.14519203526270458 -0.13038835971536003 -0.09463520655259286 -0.10169593488146483 -0.10244465103261394
leaf_weight=1.5670647323131586 1.8301837733015425 2.0246848501265053 4.2269280292093745 1.1673748195171345 1.9819432953372595 1.0928939431905744 0.56782661005854473 1.6436738250777114 0.34109735954552911 0.34271467663347721
leaf_count=21 17 15 26 7 37 11 5 30 22 18
internal_value=-0.000952877 -0.00927883 -0.00120164 0.0172849 -0.016449 0.0317942 -0.0194382 -0.050189 -0.114918 -0.102071
internal_weight=16.7864 15.2193 13.3891 9.72078 5.49385 3.51191 2.41901 3.66836 1.25164 0.683812
internal_count=209 188 171 126 100 63 52 45 45 40
is_linear=0
shrinkage=0.1


Tree=35
num_leaves=10
num_cat=0
split_feature=13 12 5 14 8 3 0 2 10
split_gain=1.10547 0.924739 1.01881 1.9451 1.22056 0.770457 0.000698615 0.000296661 5.70396e-06
threshold=-0.41349980280289766 0.30332254086467875 1.0000000180025095e-35 -0.35309851576361367 7.5000000000000009 0.92798571181763179 -0.60483383827593873 0.91489559714774871 4.5000000000000009
decision_type=2 2 2 2 2 2 2 2 2
left_child=-1 2 3 -2 -4 6 -3 8 -8
right_child=1 5 4 -5 -6 -7 7 -9 -10
leaf_value=0.072021484548625878 -0.035698892551094208 -0.10713317288704952 0.013637753031647172 0.074778405008221305 -0.077316454838335338 0.038718151944988961 -0.10191270469358338 -0.10503785024631285 -0.10135001714733921
leaf_weight=1.8428128175437475 2.7842819280922413 0.50641903281211864 3.0892356317490339 3.7267883196473104 2.8242756519466639 0.49148436728864897 0.28659364860504777 0.35924335010349751 0.48506623413413763
leaf_count=29 15 9 21 33 22 13 18 10 39
internal_value=-0.000948463 -0.0101882 0.000245864 0.0275358 -0.0298017 -0.0710859 -0.104046 -0.102664 -0.101559
internal_weight=16.3962 14.5534 12.4246 6.51107 5.91351 2.12881 1.63732 1.1309 0.77166
internal_count=209 180 91 48 43 89 76 67 57
is_linear=0
shrinkage=0.1


Tree=36
num_leaves=10
num_cat=0
split_feature=0 14 13 7 2 11 2 12 8
split_gain=0.948202 1.30157 0.894766 0.663342 1.89058 0.00662426 0.000169459 7.0833e-05 1.77064e-06
threshold=-0.42953907541277958 1.1585323850544713 -0.36472218295958192 3.5000000000000004 0.55469852374034156 -0.54355895364520546 0.85723984756365346 0.30332254086467875 12.500000000000002
decision_type=2 2 2 2 2 2 2 2 2
left_child=3 2 -2 -1 -5 -4 7 -7 -9
right_child=1 -3 5 4 -6 6 -8 8 -10
leaf_value=-0.022259892374127621 0.041313705132492599 0.014894539015393171 -0.11356645472066779 -0.010503783765108611 0.090999999189833272 -0.10310659518208416 -0.10415951530825884 -0.10141034379235632 -0.10105884902040921
leaf_weight=3.0954092200845498 0.49098999612033489 2.7516100406646729 0.9404799900949018 4.3052792698144913 3.1980324555188417 0.31516273412853146 0.531211007386446 0.29690860770642757 0.27704112604260445
leaf_count=21 9 26 11 37 24 12 18 23 28
internal_value=-0.000899619 -0.0341706 -0.081512 0.0166903 0.0327588 -0.107057 -0.102746 -0.101902 -0.101241
internal_weight=16.2021 5.6034 2.85179 10.5987 7.50331 2.3608 1.42032 0.889112 0.57395
internal_count=209 127 101 82 61 92 81 63 51
is_linear=0
shrinkage=0.1


Tree=37
num_leaves=7
num_cat=0
split_feature=0 14 14 5 8 3
split_gain=0.923616 0.637503 1.7112 2.78352 1.06144 0.940406
threshold=-1.3060128897285759 -0.65542469592723063 -0.35309851576361367 1.0000000180025095e-35 9.5000000000000018 1.0000000180025095e-35
decision_type=2 2 2 2 2 2
left_child=-1 -2 -3 5 -5 -4
right_child=1 2 3 4 -6 -7
leaf_value=0.075559308660093888 -0.047144881637031733 0.079492559875467994 0.089138495657529737 -0.018097834186510713 -0.11495049277735331 -0.0044306888789325122
leaf_weight=1.4382405132055289 3.2919237632304421 2.3146242876537135 2.0741898762062174 2.0568276299163699 2.515318701043725 2.2277407930232584
leaf_count=21 35 23 32 28 39 31
internal_value=-0.000871356 -0.00846258 0.00291847 -0.0170543 -0.0713803 0.040684
internal_weight=15.9189 14.4806 11.1887 8.87408 4.57215 4.30193
internal_count=209 188 153 130 67 63
is_linear=0
shrinkage=0.1


Tree=38
num_leaves=9
num_cat=0
split_feature=7 0 6 3 14 14 11 2
split_gain=0.869231 0.971301 1.64077 2.24808 0.622441 0.0210643 0.00101725 2.12437e-05
threshold=9.5000000000000018 -0.42953907541277958 0.12327503684726322 0.3479370771391242 -0.65542469592723063 1.1585323850544713 -0.40150165104665808 0.81430131476887768
decision_type=2 2 2 2 2 2 2 2
left_child=1 4 5 -4 -1 6 -3 -8
right_child=-2 2 3 -5 -6 -7 7 -9
leaf_value=-0.022293288384031985 0.070242204219453902 -0.10810250368860702 0.11055348083160886 -0.077595503887204889 0.029830173654595362 -0.12509385747973756 -0.10171528392454694 -0.10279623386206438
leaf_weight=3.7511176103726029 1.5535386158153421 0.47276034206151774 1.1547514991834762 1.4110521157272158 5.8859344162046892 0.83519532158970822 0.43022758048027876 0.31487332843244076
leaf_count=27 35 9 19 25 36 10 33 15
internal_value=-0.000788435 -0.008529 -0.0462327 0.0070818 0.00954168 -0.112862 -0.104474 -0.102172
internal_weight=15.8095 14.2559 4.61886 2.5658 9.63705 2.05306 1.21786 0.745101
internal_count=209 174 111 44 63 67 57 48
is_linear=0
shrinkage=0.1


Tree=39
num_leaves=10
num_cat=0
split_feature=13 2 14 0 3 11 12 3 8
split_gain=0.886559 0.790548 0.666071 1.70156 0.69373 0.00430003 8.17347e-05 6.06465e-06 6.91442e-07
threshold=-0.41349980280289766 1.1228539604246903 1.1585323850544713 -0.25424431254962027 -0.11553256790549241 -0.4725303023459318 0.30332254086467875 -0.40747192465760301 13.500000000000002
decision_type=2 2 2 2 2 2 2 2 2
left_child=-1 2 3 4 -2 -5 -7 -8 -9
right_child=1 -3 -4 5 -6 6 7 8 -10
leaf_value=0.068113833196593462 -0.027377539550415414 -0.07642791040889306 0.049980119174862135 -0.11258434612135571 0.030365269309229531 -0.1031861701482677 -0.10166705275197066 -0.10115602831815083 -0.10088528018460641
leaf_weight=1.6665663272142417 3.5623570857569575 1.5483506489545096 2.1480991169810286 0.63128686696290548 5.0022281929850543 0.34924564231187594 0.23635330703109081 0.18919032393023794 0.18811080418527126
leaf_count=29 28 19 20 8 33 14 17 18 23
internal_value=-0.000795549 -0.00908427 -0.000611638 -0.0113094 0.0063477 -0.10617 -0.101965 -0.10127 -0.101021
internal_weight=15.5218 13.8552 12.3069 10.1588 8.56459 1.59419 0.9629 0.613654 0.377301
internal_count=209 180 161 141 61 80 72 58 41
is_linear=0
shrinkage=0.1


Tree=40
num_leaves=11
num_cat=0
split_feature=13 12 12 3 2 3 0 3 14 8
split_gain=0.743483 0.706146 1.06259 1.18004 0.777056 0.74455 0.00056468 0.000152159 1.03351e-05 2.13013e-06
threshold=-0.41349980280289766 0.30332254086467875 -0.33728162515315657 0.28476362319212339 0.55469852374034156 0.92798571181763179 -0.60483383827593873 -1.2500663978927036 0.7050431148090458 12.500000000000002
decision_type=2 2 2 2 2 2 2 2 2 2
left_child=-1 2 3 4 -2 6 -3 -8 9 -9
right_child=1 5 -4 -5 -6 -7 7 8 -10 -11
leaf_value=0.063417025477311081 -0.025579609495706559 -0.10654150623802228 0.053764048535131163 -0.060479791632187342 0.050189722074221732 0.046617034361540896 -0.10417571934253403 -0.10130450287006768 -0.10193431815554399 -0.1008416067891957
leaf_weight=1.6138496119529016 2.6422141818329656 0.46888324618339527 2.8442303854972133 3.6246924120932817 2.7751366645097733 0.43578937137499441 0.27871449198573817 0.18440571194514543 0.20069841993972659 0.2156881308183074
leaf_count=29 21 9 24 26 20 13 10 16 13 28
internal_value=-0.000773758 -0.00835173 0.000453736 -0.0163154 0.0132346 -0.0670141 -0.103739 -0.102245 -0.101349 -0.101055
internal_weight=15.2843 13.6705 11.8863 9.04204 5.41735 1.78418 1.34839 0.879507 0.600792 0.400094
internal_count=209 180 91 67 41 89 76 67 57 44
is_linear=0
shrinkage=0.1


Tree=41
num_leaves=9
num_cat=0
split_feature=7 0 6 3 11 14 11 1
split_gain=0.781365 0.748026 1.53869 1.83528 0.545893 0.0196147 0.0005604 1.34007e-05
threshold=9.5000000000000018 -0.42953907541277958 0.12327503684726322 0.3479370771391242 -0.33047299974738426 1.1585323850544713 -0.40150165104665808 -0.050569287599609339
decision_type=2 2 2 2 2 2 2 2
left_child=1 4 5 -4 -1 6 -3 -8
right_child=-2 2 3 -5 -6 -7 7 -9
leaf_value=-0.010041629254718937 0.069824674700773137 -0.10669770115357641 0.1019644915017157 -0.071340690042022301 0.040382481059819952 -0.12478113489708878 -0.10238011948569584 -0.10143916938254663
leaf_weight=6.1197727024555206 1.4216103162616498 0.39613808691501384 1.1342535917647185 1.3247094610705969 3.307289741933344 0.79533927515149105 0.27790906094014411 0.3323688348755276
leaf_count=36 35 9 19 25 27 10 17 31
internal_value=-0.000738778 -0.00806748 -0.0428402 0.00860033 0.00764863 -0.113044 -0.103769 -0.101868
internal_weight=15.1094 13.6878 4.26072 2.45896 9.42706 1.80176 1.00642 0.610278
internal_count=209 174 111 44 63 67 57 48
is_linear=0
shrinkage=0.1


Tree=42
num_leaves=10
num_cat=0
split_feature=13 2 14 0 3 8 11 12 2
split_gain=0.651876 0.6943 0.551356 1.21802 0.835667 0.286169 0.00291932 4.49136e-05 5.87303e-06
threshold=-0.41349980280289766 1.1228539604246903 1.1585323850544713 -0.42953907541277958 -0.11553256790549241 4.5000000000000009 -0.4725303023459318 0.30332254086467875 0.70720235836896916
decision_type=2 2 2 2 2 2 2 2 2
left_child=-1 2 3 4 -2 -5 -7 -8 -9
right_child=1 -3 -4 5 -6 6 7 8 -10
leaf_value=0.061172151546195444 -0.031855629993746748 -0.072665712682899883 0.046860098601202951 -0.0075835567428082064 0.03367783151684451 -0.11094336671899288 -0.10273521887748185 -0.10083909029279686 -0.10158514463251114
leaf_weight=1.5262217083945877 3.3029076997190714 1.469281056895851 2.0877296011894932 0.37465836387127716 4.7358947023749316 0.65523366071283384 0.28161656018346959 0.27706212596967816 0.17041947692632675
leaf_count=29 23 19 20 14 30 9 13 37 15
internal_value=-0.000740017 -0.0078155 0.000201243 -0.0097409 0.00675206 -0.0851158 -0.106099 -0.101746 -0.101123
internal_weight=14.881 13.3548 11.8855 9.79779 8.0388 1.75899 1.38433 0.729098 0.447482
internal_count=209 180 161 141 53 88 74 65 52
is_linear=0
shrinkage=0.1


Tree=43
num_leaves=8
num_cat=0
split_feature=7 6 4 14 14 5 12
split_gain=0.594873 2.09345 1.9932 2.40498 1.60509 1.97377 0.869653
threshold=7.5000000000000009 1.0000000180025095e-35 -0.20491660492582905 -0.65542469592723063 -0.35309851576361367 -0.17413258002292428 0.089787818858733576
decision_type=2 2 2 2 2 2 2
left_child=2 -2 3 -1 -5 -6 -7
right_child=1 -3 -4 4 5 6 -8
leaf_value=-0.12211570096487334 -0.049809460922892838 0.077848527842576232 0.095170927018477264 0.096707092997407929 0.06970077278833646 -0.11703248908290242 -0.0062530150821999688
leaf_weight=2.2718030102550975 2.1643745265901098 3.1602712934836745 1.3769484977237878 1.3100184877403069 1.3770485161803647 1.861753049306573 1.1441378772724418
leaf_count=29 32 31 16 17 26 22 36
internal_value=-0.000718085 0.0259578 -0.015923 -0.0351289 -0.000416388 -0.0294457 -0.0748663
internal_weight=14.6664 5.32465 9.34171 7.96476 5.69296 4.38294 3.00589
internal_count=209 63 146 130 101 84 58
is_linear=0
shrinkage=0.1


Tree=44
num_leaves=11
num_cat=0
split_feature=13 12 3 12 2 1 0 3 14 8
split_gain=0.618304 0.584178 0.832568 0.70309 0.987868 0.394008 0.00050692 8.92589e-05 3.73295e-06 1.92891e-06
threshold=-0.41349980280289766 0.30332254086467875 1.317368784850639 -0.33728162515315657 0.55469852374034156 -1.0000000180025095e-35 -0.60483383827593873 -0.68773123712247453 0.5538800247272373 12.500000000000002
decision_type=2 2 2 2 2 2 2 2 2 2
left_child=-1 3 6 4 5 -2 -3 -8 9 -9
right_child=1 2 -4 -5 -6 -7 7 8 -10 -11
leaf_value=0.059779927523552823 -0.010134040280406757 -0.10614066879617308 0.069732240210018503 0.04445998557609758 0.029650616263389881 -0.064471013924138079 -0.10333049863346669 -0.10115714967182377 -0.10147575078465308 -0.10067152890424369
leaf_weight=1.5147118559107191 2.4248625058680742 0.43751863203942765 0.35835453681647766 2.728903374634684 3.2661784058436751 2.9677271386608477 0.28303923923522223 0.16437866212800056 0.18685593083500862 0.16280256770551205
leaf_count=29 17 9 7 24 26 24 14 16 16 27
internal_value=-0.000680268 -0.00773538 -0.0644561 0.000198915 -0.0137504 -0.0400375 -0.103406 -0.101904 -0.101119 -0.100916
internal_weight=14.4953 12.9806 1.59295 11.3877 8.65877 5.39259 1.2346 0.797076 0.514037 0.327181
internal_count=209 180 89 91 67 41 82 73 59 43
is_linear=0
shrinkage=0.1


Tree=45
num_leaves=10
num_cat=0
split_feature=7 8 6 3 0 9 14 6 13
split_gain=0.601132 0.674202 2.02807 1.27604 0.777426 0.982239 0.436897 0.394561 0.104402
threshold=8.5000000000000018 12.500000000000002 -0.51982260344474118 0.50867493599935631 -0.95542336400225736 4.5000000000000009 -0.2019354256818052 0.18793410822008549 -0.35136861402909142
decision_type=2 2 2 2 2 2 2 2 2
left_child=1 3 -3 4 -1 -6 -4 -7 -2
right_child=8 2 6 -5 5 7 -8 -9 -10
leaf_value=0.071601509961994422 0.092826736664536488 0.059975382159892968 -0.17122806723658388 -0.053504542453712334 -0.053740321140286942 0.0030547716517355258 -0.064537977160720211 0.072450453371668666 0.036874949264988535
leaf_weight=2.4509385637938959 0.62859587464481592 0.96930585778318379 0.87191937537863862 2.8218518905341625 1.9102643197402356 1.7023813473060729 0.68564953538589057 1.5794660304673014 0.71034325752407379
leaf_count=18 18 25 16 25 19 19 26 21 22
internal_value=-0.000654847 -0.00722987 -0.0535891 0.00396413 0.0251818 0.00326942 -0.124263 0.0364531 0.0631428
internal_weight=14.3307 12.9918 2.52687 10.4649 7.64305 5.19211 1.55757 3.28185 1.33894
internal_count=209 169 67 102 77 59 42 40 40
is_linear=0
shrinkage=0.1


Tree=46
num_leaves=10
num_cat=0
split_feature=7 0 6 14 8 13 14 11 1
split_gain=0.504522 0.580019 1.23269 0.498051 1.81843 0.0997906 0.0107073 0.000365184 1.39654e-05
threshold=8.5000000000000018 -0.25424431254962027 0.12327503684726322 -0.65542469592723063 9.5000000000000018 -0.35136861402909142 1.1585323850544713 -0.40150165104665808 -0.0052457605915443304
decision_type=2 2 2 2 2 2 2 2 2
left_child=1 3 6 -1 -5 -2 7 -3 -9
right_child=5 2 -4 4 -6 -7 -8 8 -10
leaf_value=-0.023471711806645503 0.089149153174040804 -0.10628540354516758 0.008893629397338355 0.078947109825117212 -0.032555304257718652 0.03344144737012731 -0.12065146794046522 -0.1022566300414392 -0.10115201283277467
leaf_weight=3.5052295536734164 0.59105386957526207 0.28351773042231621 2.0257131974212825 2.9784821430221182 2.8738291691988707 0.7052352242171771 0.70900961011648178 0.23518480174243273 0.22295581735670855
leaf_count=31 18 7 36 25 17 22 10 16 27
internal_value=-0.000614008 -0.00661934 -0.0414979 0.00633825 0.0241929 0.0588418 -0.111865 -0.103465 -0.101719
internal_weight=14.1302 12.8339 3.47638 9.35754 5.85231 1.29629 1.45067 0.741658 0.458141
internal_count=209 169 96 73 42 40 60 50 43
is_linear=0
shrinkage=0.1


Tree=47
num_leaves=10
num_cat=0
split_feature=13 2 14 13 0 14 8 11 12
split_gain=0.528632 0.50528 0.443934 0.963271 0.787684 0.872277 0.859136 0.0179072 0.00284388
threshold=-0.41349980280289766 1.1228539604246903 0.5538800247272373 -0.24370546452701625 -0.60483383827593873 0.10039075448181176 8.5000000000000018 -0.61458760494447928 -1.0000000180025095e-35
decision_type=2 2 2 2 2 2 2 2 2
left_child=-1 2 4 -4 6 7 -2 -6 -9
right_child=1 -3 3 -5 5 -7 -8 8 -10
leaf_value=0.058380964232495419 0.041616096572025744 -0.065073097195449875 0.089900362428786948 -0.022854960931248697 -0.13263299145459567 0.0095449512432790855 -0.033890230378918383 -0.11471171975378247 -0.10112844921269309
leaf_weight=1.370723842643202 3.2086105197668049 1.3394362619146694 1.4908113200217488 1.5406472976319481 0.59282581880688368 0.90515502146445204 2.8414270132780075 0.32710800506174265 0.29148436174728687
leaf_count=29 21 19 17 26 4 31 20 6 36
internal_value=-0.000580944 -0.00702724 -8.41941e-05 0.0325959 -0.0122151 -0.0647221 0.00615421 -0.120213 -0.108311
internal_weight=13.9082 12.5375 11.1981 3.03146 8.16661 2.11657 6.05004 1.21142 0.618592
internal_count=209 180 161 43 118 77 41 46 42
is_linear=0
shrinkage=0.1


Tree=48
num_leaves=11
num_cat=0
split_feature=13 13 12 10 11 1 0 2 12 8
split_gain=0.440402 0.469783 0.586815 0.905267 0.558452 1.75843 0.000346791 8.77832e-05 3.20463e-06 5.98773e-07
threshold=-0.41349980280289766 -0.40200089622386642 0.30332254086467875 1.5000000000000002 -0.75664490754302671 -0.06665319840116013 -0.60483383827593873 1.1228539604246903 1.1574614288884597 13.500000000000002
decision_type=2 2 2 2 2 2 2 2 2 2
left_child=-1 -2 4 -4 -3 -6 -5 8 9 -8
right_child=1 2 3 6 5 -7 7 -9 -10 -11
leaf_value=0.053984583688426881 -0.058984127691231771 -0.018004821942082621 0.088727009593695894 -0.10556739451055651 0.10541565397606206 -0.013039432875649471 -0.10096627278729578 -0.10341451082453919 -0.10136869366250126 -0.10068283598968947
leaf_weight=1.3360103275626904 1.496384585276245 4.1172052156180143 0.31818395992740889 0.37294562719761981 1.9935359475202856 3.3744999398477358 0.16352889360860312 0.22918203473091125 0.18212788947857916 0.136954145738855
leaf_count=29 9 33 7 8 20 30 20 9 20 24
internal_value=-0.000562822 -0.00644724 0.000773018 -0.0595913 0.00970126 0.0309514 -0.103097 -0.101803 -0.101038 -0.100837
internal_weight=13.7206 12.3845 10.8882 1.40292 9.48524 5.36804 1.08474 0.711793 0.482611 0.300483
internal_count=209 180 171 88 83 50 81 73 64 44
is_linear=0
shrinkage=0.1


Tree=49
num_leaves=9
num_cat=0
split_feature=7 2 4 14 14 5 3 5
split_gain=0.460991 1.77273 1.44574 1.89628 1.23992 1.52902 0.836274 0.363298
threshold=7.5000000000000009 0.55469852374034156 -0.20491660492582905 -0.65542469592723063 -0.35309851576361367 -0.17413258002292428 1.0000000180025095e-35 -0.76714141746667652
decision_type=2 2 2 2 2 2 2 2
left_child=2 7 3 -1 -5 -6 -7 -2
right_child=1 -3 -4 4 5 6 -8 -9
leaf_value=-0.11433281415596552 0.0098241402604070244 0.094251894806495873 0.083035898628972205 0.091125034224044388 0.063980106691571267 -0.027245949431355849 -0.14190807362979682 -0.060344161397203971
leaf_weight=2.0194996849168083 1.4330941429361703 2.0775297256186604 1.2853675163350997 1.1567949734162528 1.2849686192348584 1.7922819578088836 0.98600675468333054 1.521011853124947
leaf_count=29 18 23 16 17 26 33 25 22
internal_value=-0.000530144 0.0234727 -0.0146972 -0.0320496 -0.000216345 -0.0262209 -0.0679392 -0.0263042
internal_weight=13.5566 5.03164 8.52492 7.23955 5.22005 4.06326 2.77829 2.95411
internal_count=209 63 146 130 101 84 58 40
is_linear=0
shrinkage=0.1


Tree=50
num_leaves=9
num_cat=0
split_feature=11 11 1 5 7 14 2 0
split_gain=0.501229 0.486611 1.19258 1.00593 1.51555 1.40095 1.29859 0.518479
threshold=-1.1117881640393954 -0.96973086144084786 -1.0302025249162516 0.49092435387074157 7.5000000000000009 -0.65542469592723063 -0.95497216667286089 -0.42953907541277958
decision_type=2 2 2 2 2 2 2 2
left_child=-1 -2 -3 4 5 -4 -7 -8
right_child=1 2 3 -5 -6 6 7 -9
leaf_value=0.045740949547150078 -0.060079507157226368 0.080425839761967433 -0.11766755306203514 -0.077230090221513711 0.071515483899082702 0.085387179250633966 0.0037342508874627315 -0.11314331175985498
leaf_weight=1.991504859179259 1.5831569246947754 1.5406353471334995 1.2945128346327655 1.9954229448921976 2.1819331417791545 1.2203737953677738 0.78006238490342716 0.73923562420533195
leaf_count=28 13 23 20 35 27 22 5 36
internal_value=-0.000527076 -0.00865591 -0.000307859 -0.015455 0.00437532 -0.0319382 0.00856951 -0.0531342
internal_weight=13.3268 11.3353 9.75218 8.21154 6.21612 4.03418 2.73967 1.5193
internal_count=209 181 168 145 110 83 63 41
is_linear=0
shrinkage=0.1


Tree=51
num_leaves=10
num_cat=0
split_feature=0 14 0 0 9 14 5 11 2
split_gain=0.436387 1.52914 1.00227 0.921071 1.16297 0.584268 0.743383 0.0140568 7.34876e-05
threshold=-0.60483383827593873 0.10039075448181176 -0.25424431254962027 1.1481137903556542 6.5000000000000009 -0.35309851576361367 -0.16034107028932795 -0.4725303023459318 0.70720235836896916
decision_type=2 2 2 2 2 2 2 2 2
left_child=5 7 -3 4 -4 6 -1 -2 -9
right_child=1 2 3 -5 -6 -7 -8 8 -10
leaf_value=-0.0034651050155646273 -0.12365053928689039 0.096390160020430923 0.078701700951100309 -0.10336935478012721 -0.057422164370595268 -0.022415309441383681 0.075661884933073686 -0.10138651022418831 -0.10376387222506137
leaf_weight=2.3523681424558163 0.80580668337643147 0.97811497095972288 1.3029810087755329 0.92954529984854151 1.2108974410220978 2.611078292131424 2.3972857361659408 0.26275826664641477 0.25739272730425
leaf_count=16 7 10 22 30 25 28 24 33 14
internal_value=-0.000539675 -0.021188 0.00705832 -0.0183167 0.0131329 0.0155832 0.0364725 -0.115378 -0.102563
internal_weight=13.1082 5.7475 4.42154 3.44342 2.51388 7.36073 4.74965 1.32596 0.520151
internal_count=209 141 87 77 47 68 40 54 47
is_linear=0
shrinkage=0.1


Tree=52
num_leaves=8
num_cat=0
split_feature=11 8 6 12 2 2 11
split_gain=0.45072 0.411897 1.54292 0.976894 1.19002 0.556391 0.394159
threshold=-1.1117881640393954 10.500000000000002 -0.51982260344474118 -0.33728162515315657 -0.60967746972807568 -0.60967746972807568 0.3087848619460794
decision_type=2 2 2 2 2 2 2
left_child=-1 3 -3 4 -2 -5 -4
right_child=1 2 6 5 -6 -7 -8
leaf_value=0.044319898811104042 -0.067046537225477196 0.05654734483882367 -0.149948989897389 0.11020026668131103 0.019361690692419019 0.0063182419306046277 -0.043294395658250481
leaf_weight=1.9075167048722512 2.7589445766061527 0.9170313628856096 0.90000593266449758 1.1039739730767908 3.7741991505026817 0.96736879437230516 0.56343200744595379
leaf_count=28 22 31 12 18 31 29 38
internal_value=-0.000549491 -0.00834098 -0.0451561 0.0018441 -0.0171285 0.0616848 -0.108886
internal_weight=12.8925 10.985 2.38047 8.60449 6.53314 2.07134 1.46344
internal_count=209 181 81 100 53 47 50
is_linear=0
shrinkage=0.1


Tree=53
num_leaves=11
num_cat=0
split_feature=0 3 1 14 11 9 10 8 6 6
split_gain=0.43879 0.817152 1.61701 1.12655 0.436573 0.363692 0.79877 0.113599 0.0228186 0.00169828
threshold=-0.42953907541277958 -0.11553256790549241 -1.3139838218291089 1.1585323850544713 -0.685616256243753 6.5000000000000009 5.5000000000000009 5.5000000000000009 0.86598594257929851 0.18793410822008549
decision_type=2 2 2 2 2 2 2 2 2 2
left_child=5 3 -3 4 -2 -1 -7 -4 -9 -6
right_child=1 2 7 -5 9 6 -8 8 -10 -11
leaf_value=-0.0091190330544533554 0.026476209906539705 0.078976693300030931 -0.15491876650386915 0.097351020754851969 -0.10209446469023314 -0.015825730295644738 0.069082290964394777 -0.083002109868987206 -0.11300595405631951 -0.11263192125062103
leaf_weight=4.1346778492443246 0.4065855350345372 0.54681066982448001 0.58953002095222773 0.95395631808787573 0.31655418721493234 1.9687644746154545 2.534041048027575 0.45076792151667155 0.57912817364558578 0.29592340718954802
leaf_count=39 6 9 9 12 31 15 28 31 17 12
internal_value=-0.000534018 -0.0273042 -0.0697078 0.019252 -0.0538573 0.0122948 0.0319579 -0.119912 -0.0998738 -0.107186
internal_weight=12.7767 4.13926 2.16624 1.97302 1.01906 8.63748 4.50281 1.61943 1.0299 0.612478
internal_count=209 127 66 61 49 82 43 57 48 43
is_linear=0
shrinkage=0.1


Tree=54
num_leaves=7
num_cat=0
split_feature=13 14 5 8 0 2
split_gain=0.399524 0.390336 1.18086 1.45257 0.719961 1.11565
threshold=-0.41349980280289766 -0.65542469592723063 1.0000000180025095e-35 9.5000000000000018 -0.60483383827593873 0.55469852374034156
decision_type=2 2 2 2 2 2
left_child=-1 -2 4 -4 -3 -6
right_child=1 2 3 -5 5 -7
leaf_value=0.052155709575747215 -0.038920594953891031 0.10170831524391846 0.02262626043852612 -0.092500641269264453 -0.03863410462990554 0.092625093541494077
leaf_weight=1.2904693158343441 2.8048471532529211 1.3758432157337646 2.3150848234072328 2.0811075763776898 1.6488778428174558 1.0662947021191937
leaf_count=29 35 14 33 38 39 21
internal_value=-0.000555185 -0.00657905 0.00410917 -0.0318735 0.042776 0.0129136
internal_weight=12.5825 11.2921 8.48721 4.39619 4.09102 2.71517
internal_count=209 180 145 71 74 60
is_linear=0
shrinkage=0.1


Tree=55
num_leaves=11
num_cat=0
split_feature=0 14 7 6 14 5 8 11 11 1
split_gain=0.402326 1.27411 0.773854 2.0734 0.413733 0.616071 0.054248 0.00913674 0.000367404 1.96796e-05
threshold=-0.60483383827593873 0.10039075448181176 7.5000000000000009 0.18793410822008549 -0.35309851576361367 -0.16034107028932795 3.5000000000000004 -0.54355895364520546 0.095698908048258105 -0.43696508667117512
decision_type=2 2 2 2 2 2 2 2 2 2
left_child=4 7 3 6 5 -1 -3 -2 -9 -10
right_child=1 2 -4 -5 -6 -7 -8 8 9 -11
leaf_value=-0.0041103869935765281 -0.12165180788935914 -0.1481091693973903 0.048159763422414452 0.072057674374420067 -0.017322558768307954 0.0696770122425618 -0.10500532564901151 -0.10705976389954636 -0.102512206678463 -0.10093439657138999
leaf_weight=2.2325924867764115 0.63402922451496124 0.5967026995494964 2.0660946732386947 0.94736437150277186 2.5114596551284194 2.2943726470693946 0.57174587051849812 0.216861772816628 0.15657519805245101 0.15965855587273836
leaf_count=16 6 6 25 21 28 24 35 7 12 29
internal_value=-0.00048247 -0.0211552 0.00462803 -0.0378808 0.0152283 0.0332868 -0.127018 -0.113539 -0.10389 -0.101716
internal_weight=12.3875 5.34903 4.18191 2.11581 7.03842 4.52697 1.16845 1.16712 0.533096 0.316234
internal_count=209 141 87 62 68 40 41 54 48 41
is_linear=0
shrinkage=0.1


Tree=56
num_leaves=11
num_cat=0
split_feature=11 11 1 5 7 11 11 2 0 6
split_gain=0.385364 0.437234 0.773489 0.6548 0.585806 1.35402 1.00062 0.613147 0.0001131 1.55418e-06
threshold=-1.1117881640393954 -0.75664490754302671 -1.0302025249162516 0.54368977043629552 7.5000000000000009 0.095698908048258105 0.3087848619460794 1.6185765983179754 -0.42953907541277958 0.18793410822008549
decision_type=2 2 2 2 2 2 2 2 2 2
left_child=-1 -2 -3 4 5 -4 -7 8 -8 -10
right_child=1 2 3 -5 -6 6 7 -9 9 -11
leaf_value=0.042903228384078895 -0.039771202824691571 0.073100742323658055 -0.057961339531990168 -0.081219116192956242 0.066419720219313347 0.15581802105348766 -0.10436310961694627 0.092865013652327633 -0.10059253557116843 -0.10113092505515034
leaf_weight=1.7497894484549767 3.0344846425577989 1.3709529056213785 2.4536482777912174 1.0661373885814098 1.1873136996291576 0.65149071905761935 0.16238908772356653 0.28062956593930721 0.10598510154523111 0.10851569916121662
leaf_count=28 29 21 29 24 20 7 6 5 25 15
internal_value=-0.000521768 -0.00781287 0.00531509 -0.0101319 0.00517901 -0.0141456 0.0679839 -0.0190449 -0.102372 -0.100865
internal_weight=12.1713 10.4215 7.38706 6.01611 4.94997 3.76266 1.30901 0.657519 0.37689 0.214501
internal_count=209 181 152 131 107 87 58 51 46 40
is_linear=0
shrinkage=0.1


Tree=57
num_leaves=9
num_cat=0
split_feature=0 6 3 11 9 10 14 8
split_gain=0.404119 0.656216 0.768922 0.405753 0.316891 0.60255 0.00441285 1.6209e-05
threshold=-0.42953907541277958 0.12327503684726322 0.3479370771391242 -0.96973086144084786 6.5000000000000009 5.5000000000000009 1.0073692949726627 12.500000000000002
decision_type=2 2 2 2 2 2 2 2
left_child=4 3 -3 -2 -1 -6 7 -5
right_child=1 2 -4 6 5 -7 -8 -9
leaf_value=-0.0082317519394782563 0.012272823991227389 0.06955669870863504 -0.046803296921739179 -0.10237350713154146 -0.010999983635274699 0.064969449036560226 -0.11444662299236766 -0.10129665527803465
leaf_weight=3.9840726291295123 0.3735432475805277 1.0471448490861806 1.2408758440287782 0.41206933115609146 1.8848714604973791 2.3403745759278536 0.52565095201134682 0.21153498580679297
leaf_count=39 5 20 29 28 15 28 12 33
internal_value=-0.000491264 -0.0274032 0.00645049 -0.0782686 0.0120014 0.0310797 -0.107697 -0.102008
internal_weight=12.0201 3.81082 2.28802 1.5228 8.20932 4.22525 1.14926 0.623604
internal_count=209 127 49 78 82 43 73 61
is_linear=0
shrinkage=0.1


Tree=58
num_leaves=7
num_cat=0
split_feature=13 14 14 5 14 13
split_gain=0.410123 0.362637 1.01927 1.96111 0.450321 0.776383
threshold=-0.41349980280289766 -0.65542469592723063 -0.35309851576361367 0.28994546534012827 0.10039075448181176 -0.22209864813254254
decision_type=2 2 2 2 2 2
left_child=-1 -2 -3 4 -4 -6
right_child=1 2 3 -5 5 -7
leaf_value=0.055218672747001908 -0.038530278390557289 0.071856112957559254 -0.034922472996454679 -0.10527673399878651 0.07536026031779261 -0.02317946715822182
leaf_weight=1.1890760855749256 2.6797045704442999 1.7326272474601854 1.1277517667040227 1.7328092245152218 2.1092995200306164 1.2876803993713126
leaf_count=29 35 23 21 39 28 34
internal_value=-0.000488193 -0.0066963 0.00398003 -0.0148139 0.0198301 0.0380072
internal_weight=11.8589 10.6699 7.99017 6.25754 4.52473 3.39698
internal_count=209 180 145 122 83 62
is_linear=0
shrinkage=0.1


Tree=59
num_leaves=9
num_cat=0
split_feature=0 14 0 6 9 11 12 2
split_gain=0.365863 1.08618 0.633084 0.836217 0.32877 0.00654708 0.00021587 6.29254e-06
threshold=-0.60483383827593873 0.10039075448181176 1.0000000180025095e-35 0.12327503684726322 6.5000000000000009 -0.54355895364520546 0.17876061969454413 0.40328841273632249
decision_type=2 2 2 2 2 2 2 2
left_child=4 5 -3 -4 -1 -2 -7 -8
right_child=1 2 3 -5 -6 6 7 -9
leaf_value=-0.0073292729512600858 -0.11945272155241751 0.065053099010936699 -0.099934790222104802 0.016523027092811764 0.036779544877863515 -0.10597854341104412 -0.10103424838599243 -0.10201320853618218
leaf_weight=3.3908964563161135 0.58035780675709248 1.1556590180844071 0.93551571283023838 1.8084841337986288 3.3684789999388158 0.18807607376947977 0.12668221967760473 0.13630697201006114
leaf_count=31 6 18 37 32 37 8 23 17
internal_value=-0.000457905 -0.0211701 0.00296699 -0.0231811 0.014652 -0.112429 -0.103392 -0.101542
internal_weight=11.6905 4.93108 3.89966 2.744 6.75938 1.03142 0.451065 0.262989
internal_count=209 141 87 69 68 54 48 40
is_linear=0
shrinkage=0.1


Tree=60
num_leaves=10
num_cat=0
split_feature=13 12 2 12 5 9 0 3 8
split_gain=0.373758 0.323824 0.752611 0.541524 0.574364 0.807357 0.000452379 2.25441e-05 1.04316e-06
threshold=-0.41349980280289766 0.30332254086467875 1.6185765983179754 -0.33728162515315657 -0.56086532903388975 6.5000000000000009 -0.60483383827593873 -0.47947752208813471 12.500000000000002
decision_type=2 2 2 2 2 2 2 2 2
left_child=-1 3 6 4 -2 -6 -3 -8 -9
right_child=1 2 -4 -5 5 -7 7 8 -10
leaf_value=0.054071760023200834 -0.05896784469112254 -0.10594139761606221 0.090955513780944311 0.042687899860110345 -0.03005119758649244 0.051164766653328177 -0.10209255987179972 -0.10082652400713002 -0.10040435409361628
leaf_weight=1.1321433498524136 2.0190825015306455 0.39563916809856892 0.26052949763834476 2.2230833861976871 2.9031495335511854 2.1162346582859755 0.1999882566742599 0.15409380244091042 0.094376529916189611
leaf_count=29 20 9 5 24 25 22 19 24 32
internal_value=-0.000483506 -0.00644177 -0.0576193 -0.000337811 -0.0139274 0.00419046 -0.103477 -0.101302 -0.100666
internal_weight=11.4983 10.3662 1.10463 9.26155 7.03847 5.01938 0.844098 0.448459 0.24847
internal_count=209 180 89 91 67 47 84 75 56
is_linear=0
shrinkage=0.1


Tree=61
num_leaves=8
num_cat=0
split_feature=11 11 1 5 7 2 1
split_gain=0.315559 0.356541 0.708442 0.442005 0.438257 1.26974 0.845894
threshold=-1.1117881640393954 -0.75664490754302671 -1.0302025249162516 0.54368977043629552 7.5000000000000009 -0.95497216667286089 -0.06665319840116013
decision_type=2 2 2 2 2 2 2
left_child=-1 -2 -3 4 5 -4 -7
right_child=1 2 3 -5 -6 6 -8
leaf_value=0.040193609383323635 -0.03728582777997063 0.071482488243317682 0.065470847039377417 -0.071531856024084836 0.057018990972350025 -0.0037402240397542974 -0.12707625086917065
leaf_weight=1.633549232035876 2.8169801365584126 1.2984989790711541 1.257278816075994 0.9791565304622053 1.1155782246496526 1.2171583389863359 1.0238321863580526
leaf_count=28 29 21 29 24 20 29 29
internal_value=-0.000469853 -0.00731189 0.0049403 -0.0105085 0.00244201 -0.0149623 -0.0600883
internal_weight=11.342 9.70848 6.8915 5.593 4.61385 3.49827 2.24099
internal_count=209 181 152 131 107 87 58
is_linear=0
shrinkage=0.1


Tree=62
num_leaves=11
num_cat=0
split_feature=0 0 14 13 13 0 14 11 2 12
split_gain=0.336385 0.588035 1.17861 0.57737 0.286168 0.300549 0.0036649 0.000177919 2.3373e-05 8.67312e-06
threshold=-0.42953907541277958 1.1481137903556542 1.1585323850544713 -0.36472218295958192 -0.29897440260043323 -1.1307181268654165 1.0073692949726627 -0.54355895364520546 0.85723984756365346 0.30332254086467875
decision_type=2 2 2 2 2 2 2 2 2 2
left_child=4 2 3 -2 5 -1 7 -5 9 -9
right_child=1 -3 -4 6 -6 -7 -8 8 -10 -11
leaf_value=0.033476132148424716 0.047059939755845229 -0.10373049440468599 0.060382000236779337 -0.10530271710028299 0.040252071482020466 -0.017658526195489906 -0.11528535502154856 -0.10174105023802427 -0.10257696724622992 -0.10055313750844697
leaf_weight=1.6756677851080892 0.31623795907944474 0.76436923450091843 1.3817263813689349 0.20903348084539197 2.3547391309402883 3.6601333301514387 0.3768675634637475 0.1166153927333653 0.19648974575102329 0.12995405530091375
leaf_count=29 8 35 15 6 19 34 5 10 13 35
internal_value=-0.00047181 -0.0262141 -0.00448591 -0.0711153 0.0112145 -0.00160008 -0.107435 -0.102898 -0.101763 -0.101115
internal_weight=11.1818 3.49129 2.72692 1.3452 7.69054 5.3358 1.02896 0.652093 0.443059 0.246569
internal_count=209 127 92 77 82 63 69 64 58 45
is_linear=0
shrinkage=0.1


Tree=63
num_leaves=11
num_cat=0
split_feature=0 3 1 14 13 14 8 8 8 14
split_gain=0.283641 0.512037 1.13236 0.663343 0.575425 0.25291 0.895368 0.0631505 0.0250619 0.0025181
threshold=-0.42953907541277958 -0.11553256790549241 -1.3139838218291089 1.1585323850544713 -0.36472218295958192 -0.65542469592723063 9.5000000000000018 6.5000000000000009 10.500000000000002 1.0073692949726627
decision_type=2 2 2 2 2 2 2 2 2 2
left_child=5 3 -3 4 -2 -1 -7 -4 -9 -6
right_child=1 2 7 -5 9 6 -8 8 -10 -11
leaf_value=-0.013151022172195737 0.073640682055407622 0.061224896899231843 -0.13495082589402393 0.080871155228495084 -0.10233929241913449 0.072145430828698162 -0.01506536071485437 -0.10812915265298309 -0.067212275508565233 -0.11624623181864208
leaf_weight=2.8926075536292046 0.25836880411952734 0.52927137352526177 0.64673633431084432 0.79864796996116638 0.29031188972294353 2.1481366287916899 2.6046240204013884 0.33861232711933553 0.26831294369185343 0.23607507906854153
leaf_count=32 5 9 11 12 39 21 29 11 35 5
internal_value=-0.000486938 -0.0246737 -0.0614273 0.0167114 -0.0485842 0.0101627 0.0243519 -0.113209 -0.0900404 -0.108576
internal_weight=11.0117 3.36634 1.78293 1.5834 0.784756 7.64537 4.75276 1.25366 0.606925 0.526387
internal_count=209 127 66 61 49 82 50 57 46 44
is_linear=0
shrinkage=0.1


Tree=64
num_leaves=8
num_cat=0
split_feature=13 1 14 11 14 5 7
split_gain=0.292251 0.273869 0.36779 0.633776 0.582017 1.1089 0.731486
threshold=-0.41349980280289766 1.0303204435758768 0.5538800247272373 -0.75664490754302671 -0.35309851576361367 0.080193462077836578 6.5000000000000009
decision_type=2 2 2 2 2 2 2
left_child=-1 2 4 -4 6 -6 -2
right_child=1 -3 3 -5 5 -7 -8
leaf_value=0.048965681887624388 -0.039097432650553925 0.031654633200716709 -0.033462019323359474 0.066163650106165955 -0.0069515130045618503 -0.13929951680714353 0.061712498195056559
leaf_weight=1.0758207454346127 1.7487385675194653 1.6151406775461499 1.2368323616683485 1.3200666191987691 1.5115765139344155 1.0892965383827684 1.2232812193688003
leaf_count=29 34 28 15 32 35 21 15
internal_value=-0.000496007 -0.00595648 -0.0134287 0.0179724 -0.0278358 -0.0623814 0.00239586
internal_weight=10.8208 9.74493 8.12979 2.5569 5.57289 2.60087 2.97202
internal_count=209 180 152 47 105 56 49
is_linear=0
shrinkage=0.1


Tree=65
num_leaves=9
num_cat=0
split_feature=11 5 0 6 8 14 8 5
split_gain=0.299685 0.306648 0.533507 0.6959 0.636724 0.0016777 1.13272e-05 8.88529e-07
threshold=-1.1117881640393954 -0.76714141746667652 -0.42953907541277958 0.12327503684726322 9.5000000000000018 1.0073692949726627 6.5000000000000009 -0.17413258002292428
decision_type=2 2 2 2 2 2 2 2
left_child=-1 -2 4 5 -3 6 -4 -8
right_child=1 2 3 -5 -6 -7 7 -9
leaf_value=0.04077936526307202 -0.039465949712735281 0.049816953365312229 -0.10230962419597392 0.023800813764962764 -0.019862008596795752 -0.1104621126047126 -0.1014171005576209 -0.10101151270807707
leaf_weight=1.5106549309566624 2.2390988860279313 2.9209590889513484 0.17167320917360462 0.75744648766703904 2.3799992203712463 0.50105792609974742 0.11216955643612758 0.10417934384895622
leaf_count=28 37 28 12 28 23 13 16 24
internal_value=-0.000496017 -0.0072834 0.00308869 -0.0466334 0.0185328 -0.106639 -0.101703 -0.101222
internal_weight=10.6972 9.18658 6.94748 1.64653 5.30096 0.88908 0.388022 0.216349
internal_count=209 181 144 93 51 65 52 40
is_linear=0
shrinkage=0.1


Tree=66
num_leaves=8
num_cat=0
split_feature=13 14 14 5 14 5 13
split_gain=0.274883 0.29579 0.752049 1.40281 1.29773 0.349367 0.299049
threshold=-0.41349980280289766 -0.65542469592723063 -0.35309851576361367 1.0000000180025095e-35 0.25155384456362023 -0.76714141746667652 -0.27310186279760801
decision_type=2 2 2 2 2 2 2
left_child=-1 -2 -3 5 -5 -4 -6
right_child=1 2 3 4 6 -7 -8
leaf_value=0.04868957447802974 -0.035470182351559562 0.066985585609669274 -0.0043225706128583886 -0.15496692403759532 0.035125828053219475 0.067295901108819764 -0.048990453299247429
leaf_weight=1.0258864182978875 2.4815643703914239 1.5187314143404353 1.1764131194213394 0.99107227416243437 0.76891427114605915 1.6178580329287808 0.93854264798574116
leaf_count=29 35 23 26 20 13 36 27
internal_value=-0.000485092 -0.00579923 0.0047021 -0.012519 -0.0639438 0.0371439 -0.0111106
internal_weight=10.519 9.4931 7.01153 5.4928 2.69853 2.79427 1.70746
internal_count=209 180 145 122 60 62 40
is_linear=0
shrinkage=0.1


Tree=67
num_leaves=10
num_cat=0
split_feature=0 14 1 0 14 0 14 9 3
split_gain=0.409119 0.264561 0.42528 0.57598 0.828408 0.498738 0.896574 0.269461 0.0117689
threshold=-1.3060128897285759 -1.1089139661726559 -0.44922959912935012 -0.60483383827593873 0.10039075448181176 -1.0000000180025095e-35 1.4608585652180885 2.5000000000000004 1.0000000180025095e-35
decision_type=2 2 2 2 2 2 2 2 2
left_child=-1 -2 7 -4 -5 -6 8 -3 -7
right_child=1 2 3 4 5 6 -8 -9 -10
leaf_value=0.063257356422057917 -0.051970560328491844 -0.0050423530421433958 0.047326859697943341 -0.11517470566941626 0.074481107823393705 -0.087160930465911376 0.050473064744633291 -0.071355108065706191 -0.1122905965991115
leaf_weight=0.91807396290823895 1.1342351389466774 1.3454966630088141 2.7668227832764365 0.65666316152783455 0.82650422747246777 0.34770328446757204 0.82501642592251301 1.1252418276853857 0.40163784188916907
leaf_count=21 17 24 26 35 14 21 11 21 19
internal_value=-0.000467781 -0.0066723 -0.000478405 0.014269 -0.0156457 0.0115766 -0.021447 -0.035243 -0.10063
internal_weight=10.3474 9.42932 8.29509 5.82435 3.05752 2.40086 1.57436 2.47074 0.749341
internal_count=209 188 171 126 100 65 51 45 40
is_linear=0
shrinkage=0.1


Tree=68
num_leaves=10
num_cat=0
split_feature=12 2 12 13 12 1 0 5 3
split_gain=0.251383 0.705021 0.377088 0.570623 0.411708 0.561327 0.000373385 2.37338e-05 3.57169e-06
threshold=0.51685726287062395 1.1228539604246903 -0.33728162515315657 -0.22209864813254254 -0.83552930983369522 -0.23457941223160392 -0.60483383827593873 0.54368977043629552 -0.11553256790549241
decision_type=2 2 2 2 2 2 2 2 2
left_child=2 6 3 4 5 -1 -2 8 -8
right_child=1 -3 -4 -5 -6 -7 7 -9 -10
leaf_value=-0.010202059041475683 -0.10610346273218248 0.068164071525540076 0.040412541530990609 -0.057750682825569666 -0.02311026981998128 0.076857699284253955 -0.10125478048750983 -0.10274183873121621 -0.10044485631734863
leaf_weight=1.4598944461904455 0.37508081085979939 0.35777027159929276 2.2519329368951722 1.6616455683251841 2.2041879575699572 1.5031169755384324 0.13974742509890348 0.10725635406561196 0.089204103103839527
leaf_count=19 9 11 34 24 22 24 22 12 32
internal_value=-0.000473133 -0.04634 0.00492667 -0.00677543 0.00961697 0.0339628 -0.103934 -0.101514 -0.100939
internal_weight=10.1498 1.06906 9.08078 6.82884 5.1672 2.96301 0.711289 0.336208 0.228952
internal_count=209 86 123 89 65 43 75 66 54
is_linear=0
shrinkage=0.1


Tree=69
num_leaves=12
num_cat=0
split_feature=13 13 12 12 10 0 2 0 3 2 1
split_gain=0.227346 0.26566 0.271272 0.988934 0.689166 0.459764 0.295565 0.000329095 1.30711e-05 1.71695e-06 3.20705e-08
threshold=-0.41349980280289766 -0.40200089622386642 -0.33728162515315657 0.30332254086467875 1.0000000180025095e-35 -0.7801286011390981 -1.0000000180025095e-35 -0.60483383827593873 -0.47947752208813471 0.70720235836896916 0.093379592186305746
decision_type=2 2 2 2 2 2 2 2 2 2 2
left_child=-1 -2 5 -4 -5 -3 -7 -6 -9 10 -10
right_child=1 2 3 4 7 6 -8 8 9 -11 -12
leaf_value=0.046265440808713643 -0.049750802486419853 -0.051291992460971783 0.079846254371128772 0.10740478130545075 -0.10563114610670031 -0.017436630258317258 0.039333558376172098 -0.10190747303484515 -0.10030009420002205 -0.1009572835301446 -0.1004150166489223
leaf_weight=0.94347116863355118 1.1714443210512389 1.8601566422730682 1.4704670095816257 0.20182896440383036 0.33136564958840498 1.9170615943148732 1.7581678438000372 0.14688421867322066 0.047801574808547631 0.094415079685859382 0.049353950773365796
leaf_count=29 9 14 21 5 8 23 25 18 21 17 19
internal_value=-0.000448155 -0.00531866 0.00128874 0.0298172 -0.0545816 -0.0107821 0.00972127 -0.103391 -0.101198 -0.100654 -0.100358
internal_weight=9.99242 9.04895 7.8775 2.34212 0.871649 5.53539 3.67523 0.66982 0.338455 0.191571 0.0971555
internal_count=209 180 171 109 88 62 48 83 75 57 40
is_linear=0
shrinkage=0.1


Tree=70
num_leaves=10
num_cat=0
split_feature=0 14 14 5 14 0 14 0 3
split_gain=0.320998 0.251367 0.58749 0.804821 0.486568 0.439349 0.972862 0.152233 0.0119959
threshold=-1.3060128897285759 -0.65542469592723063 -0.35309851576361367 1.0000000180025095e-35 0.25155384456362023 -0.42953907541277958 1.4608585652180885 0.27163997603985762 -1.0000000180025095e-35
decision_type=2 2 2 2 2 2 2 2 2
left_child=-1 -2 -3 5 -5 -4 8 -6 -7
right_child=1 2 3 4 7 6 -8 -9 -10
leaf_value=0.058135746905118107 -0.037029478300501795 0.062650634277003028 0.066884244889557992 -0.098091479790711811 0.016605965392681912 -0.084091527331132038 0.071575320504488379 -0.042596907774414619 -0.11062187019920269
leaf_weight=0.85503064189106304 2.0221506409579879 1.3358889422379423 1.4003239991143348 1.1585479519853836 0.82761412207037188 0.34124312771018595 0.68212190270423889 0.91400979267200455 0.3404769991757346
leaf_count=21 35 23 15 25 14 21 7 28 20
internal_value=-0.000424053 -0.00597363 0.00299745 -0.0110713 -0.0478711 0.0275392 -0.0128584 -0.0144639 -0.0973418
internal_weight=9.87741 9.02238 7.00023 5.66434 2.90017 2.76417 1.36384 1.74162 0.68172
internal_count=209 188 153 130 67 63 48 42 41
is_linear=0
shrinkage=0.1


Tree=71
num_leaves=7
num_cat=0
split_feature=0 5 5 8 5 1
split_gain=0.246477 0.964506 0.432817 0.354639 0.753537 0.720592
threshold=0.44693473890301688 1.0000000180025095e-35 -0.76714141746667652 9.5000000000000018 -1.0000000180025095e-35 -0.43696508667117512
decision_type=2 2 2 2 2 2
left_child=2 -2 -1 5 -5 -4
right_child=1 -3 3 4 -6 -7
leaf_value=-0.034208688445216712 0.039398818045945326 -0.11835642964885847 0.089328713301684626 0.065977627979475345 -0.047984060518897212 -0.0006363787036096953
leaf_weight=1.9732107242452901 0.80100339569617129 0.75085180209134705 1.6194971781224015 0.88465067732613434 1.6860055085562646 1.9773480143630866
leaf_count=27 38 39 20 22 33 30
internal_value=-0.000406031 -0.0369297 0.00655644 0.0195987 -0.00876595 0.0398708
internal_weight=9.69257 1.55186 8.14071 6.1675 2.57066 3.59685
internal_count=209 77 132 105 55 50
is_linear=0
shrinkage=0.1


Tree=72
num_leaves=10
num_cat=0
split_feature=7 2 6 3 13 2 0 13 14
split_gain=0.255565 0.760409 0.678231 0.953962 0.845236 0.33199 0.197443 0.187374 0.071876
threshold=7.5000000000000009 0.55469852374034156 1.0000000180025095e-35 -0.32331832602027027 -0.36472218295958192 0.70720235836896916 -0.7801286011390981 -0.27764578555867675 0.10039075448181176
decision_type=2 2 2 2 2 2 2 2 2
left_child=2 8 4 -4 -1 -5 -6 -8 -2
right_child=1 -3 3 5 6 -7 7 -9 -10
leaf_value=-0.039691323083383356 0.004044131037857882 0.08086397895376464 0.047528793357058674 -0.10840429213070996 0.11419926841743955 -0.033464806543999456 0.089128012329188877 -0.0053424220114745751 -0.031400543662324719
leaf_weight=1.1690743430517616 1.1051521061453975 1.3251140979118643 0.84566619491670314 1.3643601309158842 0.66762806102633476 1.0431346100813241 0.41506602941080928 0.42485139102791414 1.1861649160273371
leaf_count=16 20 23 18 29 7 32 7 37 20
internal_value=-0.000385005 0.0205665 -0.0131628 -0.0438396 0.0241218 -0.075934 0.0736077 0.0413425 -0.0143048
internal_weight=9.54621 3.61643 5.92978 3.25316 2.67662 2.40749 1.50755 0.839917 2.29132
internal_count=209 63 146 79 67 61 51 44 40
is_linear=0
shrinkage=0.1


Tree=73
num_leaves=9
num_cat=0
split_feature=0 14 14 5 13 14 0 7
split_gain=0.302469 0.230674 0.42168 0.614888 0.630815 0.345114 0.781684 0.329863
threshold=-1.3060128897285759 -0.65542469592723063 -0.35309851576361367 0.28994546534012827 -0.33328565610238697 -1.0000000180025095e-35 -0.42953907541277958 7.5000000000000009
decision_type=2 2 2 2 2 2 2 2
left_child=-1 -2 -3 5 -5 -4 -7 -8
right_child=1 2 3 4 -6 6 7 -9
leaf_value=0.057999340246203838 -0.036463925624401906 0.054811193109739642 -0.040516209763701266 0.0039121748088459677 -0.1219513629432359 0.11139486228370073 -0.040407157561975313 0.041295735100078779
leaf_weight=0.81136186467483717 1.9144581087166432 1.2674914143863123 0.91780473824473885 0.76795657374896109 0.82703575305640675 0.83354920521378417 1.1052836496091942 0.89371058554388572
leaf_count=21 35 23 20 13 33 9 37 18
internal_value=-0.000344702 -0.00589607 0.00295352 -0.00934301 -0.0613506 0.0127754 0.030043 -0.00387942
internal_weight=9.33865 8.52729 6.61283 5.34534 1.59499 3.75035 2.83254 1.99899
internal_count=209 188 153 130 46 84 64 55
is_linear=0
shrinkage=0.1


Tree=74
num_leaves=9
num_cat=0
split_feature=13 11 11 14 3 6 10 14
split_gain=0.265105 0.233147 0.548997 0.726622 1.08325 0.60329 1.02711 0.371433
threshold=-0.41349980280289766 -1.1117881640393954 -0.75664490754302671 1.1585323850544713 -0.40747192465760301 -1.0000000180025095e-35 6.5000000000000009 -0.35309851576361367
decision_type=2 2 2 2 2 2 2 2
left_child=-1 -2 -3 4 -4 7 -7 -6
right_child=1 2 3 -5 5 6 -8 -9
leaf_value=0.051920377333662386 0.034741839671244459 -0.056484929214401014 -0.11060177273702479 0.093922347401755771 0.10381087121252786 -0.10664849813496574 0.04564984525127723 0.0068161715935198541
leaf_weight=0.87807951215654689 1.2072166558355082 2.0449294522404653 0.87246719351969515 0.77650480717420567 0.85836617043241858 0.83190007176017722 0.94679379506851546 0.7310560030164186
leaf_count=29 16 21 36 13 17 30 21 26
internal_value=-0.000322605 -0.0058701 -0.0128125 0.00498807 -0.0112969 0.0144267 -0.0255805 0.0591981
internal_weight=9.14731 8.26923 7.06202 5.01709 4.24058 3.36812 1.77869 1.58942
internal_count=209 180 164 143 130 94 51 43
is_linear=0
shrinkage=0.1


Tree=75
num_leaves=10
num_cat=0
split_feature=0 14 7 6 6 8 11 11 12
split_gain=0.236113 0.820103 0.45858 1.05279 0.195421 0.00983089 0.00320883 0.000551115 3.82668e-06
threshold=-0.60483383827593873 0.10039075448181176 7.5000000000000009 0.18793410822008549 1.0000000180025095e-35 2.5000000000000004 -0.61458760494447928 -0.4725303023459318 0.30332254086467875
decision_type=2 2 2 2 2 2 2 2 2
left_child=4 6 3 5 -1 -3 -2 -8 -9
right_child=1 2 -4 -5 -6 -7 7 8 -10
leaf_value=0.033058794970662601 -0.11725871715126486 -0.12682208650812685 0.045287972454842958 0.052603640587011384 -0.0056828955381257457 -0.10425717094103865 -0.10925145624797855 -0.10193353123177561 -0.10111538074022908
leaf_weight=2.562778125051409 0.39399020932614803 0.37317657843232177 1.4229670381173489 0.72481175028951839 2.6466018769424409 0.40005656876019202 0.1458243727684021 0.095520552189555352 0.1423846933466848
leaf_count=33 5 4 25 21 35 37 2 8 39
internal_value=-0.000342061 -0.0196633 0.00463375 -0.033983 0.0133763 -0.115147 -0.11092 -0.104411 -0.101444
internal_weight=8.90811 3.69873 2.92101 1.49804 5.20938 0.773233 0.77772 0.38373 0.237905
internal_count=209 141 87 62 68 41 54 49 47
is_linear=0
shrinkage=0.1


Tree=76
num_leaves=8
num_cat=0
split_feature=11 5 8 5 0 1 12
split_gain=0.227422 0.228025 0.400298 0.87987 0.784722 0.524521 0.18934
threshold=-1.1117881640393954 -0.76714141746667652 9.5000000000000018 1.0000000180025095e-35 -0.60483383827593873 -0.91973703727393619 1.0000000180025095e-35
decision_type=2 2 2 2 2 2 2
left_child=-1 -2 4 -4 -3 -6 -5
right_child=1 2 3 6 5 -7 -8
leaf_value=0.039462620391492537 -0.036704873255667736 0.059134038948115086 0.052489979735496586 -0.11356261932236263 0.036354064708038196 -0.10723931591467201 -0.041622030297537874
leaf_weight=1.23025566060096 1.9150120890699325 2.2371347071602945 0.84937310288660262 0.68915317399660103 0.44355798163451277 0.59647147083887786 0.77981324435677379
leaf_count=28 37 25 30 12 11 33 33
internal_value=-0.000391989 -0.00692035 0.00327314 -0.0285273 0.0257695 -0.0459988 -0.0753723
internal_weight=8.74077 7.51052 5.5955 2.31834 3.27716 1.04003 1.46897
internal_count=209 181 144 75 69 44 45
is_linear=0
shrinkage=0.1


Tree=77
num_leaves=11
num_cat=0
split_feature=13 7 14 1 8 0 2 14 2 11
split_gain=0.258461 0.207198 0.874758 0.832031 0.747123 0.795389 0.651078 0.000400335 0.000246253 5.1215e-06
threshold=-0.41349980280289766 7.5000000000000009 -0.65542469592723063 -0.44922959912935012 6.5000000000000009 -0.60483383827593873 -0.33742993903643442 1.6120216552998969 -1.1440537736948428 1.0000000180025095e-35
decision_type=2 2 2 2 2 2 2 2 2 2
left_child=-1 2 -2 -4 -5 -6 -3 8 -7 -10
right_child=1 6 3 4 5 7 -8 -9 9 -11
leaf_value=0.052926191041071616 -0.086663202060271061 -0.037495518073063207 -0.063942652082863163 0.10258606969438051 0.06177546480990264 -0.10709968235477565 0.055566696387154162 -0.10921051312018593 -0.10173738457873967 -0.10062663063275545
leaf_weight=0.82131919427774835 1.364852324244566 1.3530693297507244 1.0708237201906738 1.0883620214881382 0.63214958086609829 0.11669230996631075 1.691672937129624 0.22547893598675728 0.074738026887644082 0.093370388873154297
leaf_count=29 27 23 26 19 7 5 25 4 7 37
internal_value=-0.000402847 -0.00608291 -0.0193237 0.00851378 0.0432943 -0.0131914 0.0142103 -0.106063 -0.10357 -0.10112
internal_weight=8.53253 7.71121 4.66647 3.30161 2.23079 1.14243 3.04474 0.51028 0.284801 0.168108
internal_count=209 180 132 105 79 60 48 53 49 44
is_linear=0
shrinkage=0.1


Tree=78
num_leaves=9
num_cat=0
split_feature=0 14 0 5 0 14 7 6
split_gain=0.250755 0.159275 0.239481 0.264907 0.33754 0.637318 0.355631 0.775347
threshold=-1.3060128897285759 -1.1089139661726559 -0.95542336400225736 0.54368977043629552 -0.60483383827593873 -1.0000000180025095e-35 7.5000000000000009 0.18793410822008549
decision_type=2 2 2 2 2 2 2 2
left_child=-1 -2 -3 4 -4 -6 7 -7
right_child=1 2 3 -5 5 6 -8 -9
leaf_value=0.05463874190296375 -0.045310179171892534 0.036117367744305511 0.05015295332234837 -0.049314640759041142 -0.11105868718448926 -0.11580025004627759 0.046678751112029647 0.050026577958227729
leaf_weight=0.75315750646404911 0.90171016432577733 1.4065491859801111 1.0826403461396688 1.309269385790685 0.56007882632547978 0.55858282082772504 1.1651106553617863 0.5693582387175411
leaf_count=21 17 17 13 35 37 30 22 17
internal_value=-0.000383972 -0.00587042 -0.000523842 -0.0103498 0.00261217 -0.0154275 0.00793045 -0.0320947
internal_weight=8.30646 7.5533 6.65159 5.24504 3.93577 2.85313 2.29305 1.12794
internal_count=209 188 171 154 119 106 69 47
is_linear=0
shrinkage=0.1


Tree=79
num_leaves=11
num_cat=0
split_feature=13 11 11 8 3 1 13 10 0 2
split_gain=0.221579 0.204378 0.450169 0.538584 0.858082 0.728243 0.275796 0.0161605 0.000595129 1.34786e-05
threshold=-0.41349980280289766 -1.1117881640393954 -0.75664490754302671 10.500000000000002 0.50867493599935631 -0.14304116526868546 -0.099412733583666854 1.5000000000000002 -0.7801286011390981 -1.3319944396666032
decision_type=2 2 2 2 2 2 2 2 2 2
left_child=-1 -2 -3 5 7 -4 -7 -5 -9 -10
right_child=1 2 3 4 -6 6 -8 8 9 -11
leaf_value=0.050487006089106862 0.035410567219302393 -0.053949272287127793 0.08028712802294391 -0.13579649130608709 0.060730918664326443 -0.050195000035818539 0.025516647611391996 -0.10934143852527303 -0.10246106859514913 -0.10070375166313772
leaf_weight=0.77387195685878385 1.0356520079076288 1.8532025162130583 1.3893625547643753 0.33169735671253853 0.41344163694884628 1.0245937527215572 0.90707621630281288 0.22594020888209265 0.085923233767970619 0.088705006797683117
leaf_count=29 16 21 27 4 25 29 12 4 8 34
internal_value=-0.000411764 -0.00576675 -0.0125145 0.00467634 -0.0544432 0.0250717 -0.0146422 -0.119471 -0.105953 -0.101568
internal_weight=8.12947 7.35559 6.31994 4.46674 1.14571 3.32103 1.93167 0.732266 0.400568 0.174628
internal_count=209 180 164 143 75 68 41 50 46 42
is_linear=0
shrinkage=0.1


Tree=80
num_leaves=10
num_cat=0
split_feature=12 2 12 13 13 9 0 5 3
split_gain=0.205971 0.455016 0.220061 0.394862 0.284816 0.5242 0.000192169 5.01129e-06 2.54894e-06
threshold=0.51685726287062395 1.1228539604246903 -0.33728162515315657 -0.22209864813254254 -0.29897440260043323 6.5000000000000009 -0.60483383827593873 0.54368977043629552 -0.11553256790549241
decision_type=2 2 2 2 2 2 2 2 2
left_child=2 6 3 4 5 -1 -2 8 -8
right_child=1 -3 -4 -5 -6 -7 7 -9 -10
leaf_value=-0.053940839131232481 -0.10504350032595455 0.060521052515365617 0.035172523821587691 -0.052620369477757056 0.048566695063152414 0.033541473810060278 -0.10117007460682059 -0.10188116830917918 -0.10035293737435316
leaf_weight=1.3064806193578982 0.28425052622333169 0.25226980820298195 1.7961899680230997 1.3261698786518543 1.3116932257544247 1.4397720787674186 0.10276192449964583 0.0693122222146485 0.0607368698256322
leaf_count=21 9 11 34 24 17 27 22 12 32
internal_value=-0.000405955 -0.049581 0.00486289 -0.00524868 0.0102328 -0.00807667 -0.103299 -0.101169 -0.100867
internal_weight=7.94964 0.769331 7.18031 5.38412 4.05795 2.74625 0.517062 0.232811 0.163499
internal_count=209 86 123 89 65 48 75 66 54
is_linear=0
shrinkage=0.1


Tree=81
num_leaves=11
num_cat=0
split_feature=7 2 14 0 6 13 10 11 1 0
split_gain=0.197741 0.470615 0.460625 0.700941 0.85756 0.210098 0.00712001 0.000199487 4.92779e-05 1.18606e-06
threshold=7.5000000000000009 0.55469852374034156 -0.65542469592723063 -0.60483383827593873 0.18793410822008549 -0.2961924090732464 10.500000000000002 -0.4725303023459318 -1.3810779193944189 1.0000000180025095e-35
decision_type=2 2 2 2 2 2 2 2 2 2
left_child=2 5 -1 -4 6 -2 7 -5 -9 -10
right_child=1 -3 3 4 -6 -7 -8 8 9 -11
leaf_value=-0.060756433065634066 -0.047833635219621529 0.071877216403844577 0.048201059389777201 -0.10565466500691621 0.04194125922662615 0.018462467219811183 -0.12351793530224514 -0.10360849503427512 -0.10121226313412349 -0.10070356898808386
leaf_weight=1.423771867615869 0.8367479039588942 1.0980140932369975 1.8587245242670178 0.28779449709691085 0.66060070175444707 1.1149977250024679 0.26611467971815728 0.11210578959435202 0.088166329194792059 0.095461466466076672
leaf_count=32 19 23 23 8 26 21 6 4 10 37
internal_value=-0.000401655 0.0195042 -0.0130683 0.00708532 -0.0435177 -0.00995985 -0.109962 -0.10378 -0.101956 -0.100948
internal_weight=7.8425 3.04976 4.79274 3.36897 1.51024 1.95175 0.849643 0.583528 0.295734 0.183628
internal_count=209 63 146 114 91 40 65 59 51 47
is_linear=0
shrinkage=0.1


Tree=82
num_leaves=8
num_cat=0
split_feature=13 10 11 8 3 6 8
split_gain=0.218508 0.208409 0.444144 0.471262 0.99566 0.543682 0.0949613
threshold=-0.41349980280289766 9.5000000000000018 -0.75664490754302671 6.5000000000000009 -0.23751893065283078 0.12327503684726322 12.500000000000002
decision_type=2 2 2 2 2 2 2
left_child=-1 2 -2 -4 6 -6 -5
right_child=1 -3 3 4 5 -7 -8
leaf_value=0.051557805429420435 -0.052481878143745955 0.037417146806449419 0.052169468739001482 -0.063786478507344382 0.088449084148118917 -0.029034209785692773 -0.12371806183524237
leaf_weight=0.73193653766065825 1.9183537461794911 0.95780225899943605 1.4276915946393272 0.52052153990371108 0.80811318618361883 0.76850495702819899 0.53727953930501826
leaf_count=29 23 32 27 16 29 27 26
internal_value=-0.000408217 -0.00589025 -0.0128262 0.00590147 -0.0191729 0.0311832 -0.094227
internal_weight=7.6702 6.93827 5.98046 4.06211 2.63442 1.57662 1.0578
internal_count=209 180 148 125 98 56 42
is_linear=0
shrinkage=0.1


Tree=83
num_leaves=9
num_cat=0
split_feature=12 2 10 12 2 0 5 6
split_gain=0.205137 0.363857 0.210249 0.346925 0.472662 0.000158487 3.08573e-06 8.09957e-07
threshold=0.51685726287062395 1.1228539604246903 8.5000000000000018 -0.33728162515315657 -0.60967746972807568 -0.60483383827593873 0.54368977043629552 0.18793410822008549
decision_type=2 2 2 2 2 2 2 2
left_child=2 5 3 4 -1 -2 7 -7
right_child=1 -3 -4 -5 -6 6 -8 -9
leaf_value=-0.060200056321777932 -0.10474311444394967 0.050584794486362696 0.045317289492900856 0.035418378947513131 0.0094878183709405095 -0.10053319163481092 -0.10163452664718915 -0.1010022428493995
leaf_weight=1.6313041877001517 0.25685861613601446 0.23051680804928765 1.0820044828578828 1.6820002570893855 2.4128380310139614 0.068858396072755457 0.059927224210696295 0.079110774953733198
leaf_count=21 9 11 33 32 37 36 12 18
internal_value=-0.00039341 -0.0521337 0.00489049 -0.0027485 -0.0186225 -0.103082 -0.101029 -0.100784
internal_weight=7.50342 0.695272 6.80815 5.72614 4.04414 0.464755 0.207896 0.147969
internal_count=209 86 123 90 58 75 66 54
is_linear=0
shrinkage=0.1


Tree=84
num_leaves=10
num_cat=0
split_feature=0 14 7 6 9 10 11 12 1
split_gain=0.211166 0.519339 0.289551 0.692607 0.147482 0.00438664 0.00107573 6.40416e-05 2.86682e-06
threshold=-0.60483383827593873 0.10039075448181176 7.5000000000000009 0.18793410822008549 6.5000000000000009 8.5000000000000018 -0.61458760494447928 1.0000000180025095e-35 -0.54034346849855985
decision_type=2 2 2 2 2 2 2 2 2
left_child=4 6 3 5 -1 -3 -2 -8 -9
right_child=1 2 -4 -5 -6 -7 7 8 -10
leaf_value=-0.0046236719892854871 -0.11146945925061449 -0.10304784003257904 0.03370367873388843 0.039396763009534326 0.031991012266465772 -0.12013279836080865 -0.10421977180998442 -0.10170854698843312 -0.10077281695442308
leaf_weight=2.2164007409010082 0.28920025518164039 0.29964108374406373 1.2160335911903528 0.61383528338046744 2.1841916696866974 0.30148919214843772 0.14221921085845712 0.057116407551802695 0.076721783436369151
leaf_count=31 5 33 25 21 37 8 7 9 33
internal_value=-0.000392239 -0.0208687 -0.000793163 -0.0353203 0.0135497 -0.111617 -0.107207 -0.102742 -0.101172
internal_weight=7.39685 2.99626 2.431 1.21497 4.40059 0.60113 0.565258 0.276057 0.133838
internal_count=209 141 87 62 68 41 54 49 42
is_linear=0
shrinkage=0.1


Tree=85
num_leaves=9
num_cat=0
split_feature=0 8 2 5 3 0 6 2
split_gain=0.194896 0.168291 0.512406 0.486358 0.454772 0.512638 0.634074 0.42918
threshold=-1.3060128897285759 9.5000000000000018 0.91489559714774871 1.0000000180025095e-35 0.50867493599935631 -0.60483383827593873 0.18793410822008549 -0.95497216667286089
decision_type=2 2 2 2 2 2 2 2
left_child=-1 4 3 7 5 -2 -7 -3
right_child=1 2 -4 -5 -6 6 -8 -9
leaf_value=0.050337866784087186 0.057934200553808685 -0.064408825790267257 0.055705716374778974 -0.10159468722939818 -0.044178844903963496 -0.10506775194956841 0.05559696181585784 0.075304540302747899
leaf_weight=0.68491790874395508 1.9354798812419174 0.46816894863150083 0.57532223837915797 0.96152442745369626 1.2436911285039967 0.52996604147483628 0.4578576508210972 0.41456224583089374
leaf_count=21 23 22 16 36 22 30 16 23
internal_value=-0.000431373 -0.00571071 -0.0266876 -0.0523906 0.0064696 0.0280175 -0.0305994 0.00120558
internal_weight=7.27149 6.58657 2.41958 1.84426 4.16699 2.9233 0.987824 0.882731
internal_count=209 188 97 81 91 69 46 45
is_linear=0
shrinkage=0.1


Tree=86
num_leaves=9
num_cat=0
split_feature=11 1 8 0 9 1 11 7
split_gain=0.201419 0.220673 0.249263 0.392247 0.0723602 0.000618607 0.000114431 3.0115e-06
threshold=-1.1117881640393954 -0.96391474477898831 4.5000000000000009 -0.42953907541277958 11.500000000000002 0.37813695756469273 -0.54355895364520546 6.5000000000000009
decision_type=2 2 2 2 2 2 2 2
left_child=-1 -2 -3 -4 5 6 -5 -8
right_child=1 2 3 4 -6 -7 7 -9
leaf_value=0.042317666112196235 0.028155368239263647 0.027862698788209725 -0.011804397594265154 -0.10511912599554048 -0.037828338498401615 -0.10921321913689007 -0.10061134518164035 -0.10149663061927326
leaf_weight=0.95269302034284908 1.3741807437909299 0.96889511233894143 2.9294943513232283 0.12751279701478768 0.20388014565833146 0.3471134295759839 0.074491889958153923 0.079362938995473087
leaf_count=28 32 28 39 4 15 22 32 9
internal_value=-0.000446925 -0.00712047 -0.0173673 -0.0290167 -0.0895953 -0.106389 -0.102904 -0.101068
internal_weight=7.05762 6.10493 4.73075 3.76186 0.832361 0.628481 0.281368 0.153855
internal_count=209 181 149 121 82 67 45 41
is_linear=0
shrinkage=0.1


Tree=87
num_leaves=9
num_cat=0
split_feature=7 6 3 13 6 2 0 13
split_gain=0.214072 0.428648 0.668581 0.57174 0.353564 0.212671 0.112568 0.0689736
threshold=7.5000000000000009 1.0000000180025095e-35 -0.32331832602027027 -0.36472218295958192 -0.43541815105753529 0.70720235836896916 -0.7801286011390981 -0.27764578555867675
decision_type=2 2 2 2 2 2 2 2
left_child=1 3 -3 -1 -2 -4 -5 -8
right_child=4 2 5 6 -6 -7 7 -9
leaf_value=-0.038342373628990088 -0.031831209400589394 0.047074913621732953 -0.10370037400209908 0.10947462623747302 0.045775359029111277 -0.033487410002778044 0.077019287141097015 0.006132894848264122
leaf_weight=0.86177559825591732 0.85547339642653275 0.61637039337074395 1.0161823021480811 0.45497277006506909 1.8708847302477805 0.74962829453579627 0.27957552787847806 0.26966008473391412
leaf_count=16 28 18 29 7 35 32 7 37
internal_value=-0.000445104 -0.0144801 -0.0425937 0.0214107 0.0214241 -0.0738933 0.0726886 0.042216
internal_weight=6.97452 4.24816 2.38218 1.86598 2.72636 1.76581 1.00421 0.549236
internal_count=209 146 79 67 63 61 51 44
is_linear=0
shrinkage=0.1


Tree=88
num_leaves=9
