tree
version=v4
num_class=1
num_tree_per_iteration=1
label_index=0
max_feature_idx=15
objective=binary sigmoid:1
feature_names=year circuit driver_name team_name grid q1 q2 q3 pit_stop_count avg_lap_time driver_form_last3 driver_form_last5 team_form_last3 team_form_last5 grid_vs_qual pit_lap_interaction
feature_infos=[1950:2024] [0:53] [0:858] [0:210] [-1.5451647168221851:3.0291737908435326] [-3.497423270127987:95.679192828270232] [-5.9838929046608014:8.0405955054438838] [-7.5153919812406187:9.5334667223540634] [-0.4411747551865815:7.0357397138700248] [-2.3128892523433193:45.244618021349034] [-1.9950842069129462:4.5134180994770361] [-2.1455238577787474:4.8490182554397059] [-2.0123121626697973:4.2404354931898824] [-2.1833538892656903:4.6052954312282104] [-21.587327470912399:16.264774228353616] [-0.41475083968822946:11.816575970809112]
tree_sizes=3371 3395 3404 3422 3413 3427 3424 3427 3425 3442 3440 3419 3423 3416 3423 3419 3429 3432 3425 3427 3428 3421 3427 3428 3429 3417 3434 3417 3419 3429 3413 3427 3411 3420 3403 3423 3422 3413 3401 3406 3381 3390 3404 3407 3399 3393 3420 3359 3405 3376 3379 3404 3424 3428 3409 3389 3415 3397 3404 3450 3411 3386 3398 3429 3431 3368 3410 3381 3423 3378 3404 3399 3384 3388 3391 3398 3359 3409 3411 3387 3432 3366 3395 3395 3396 3398 3390 3368 3414 3401 3388 3409 3400 3369 3406 3396 3402 3412 3408 3407

Tree=0
num_leaves=31
num_cat=0
split_feature=4 4 4 4 8 11 9 11 11 11 0 13 4 0 0 11 10 10 11 4 10 11 15 4 0 2 13 11 5 11
split_gain=3346.8 1545.49 745.887 245.133 227.503 186.032 98.0679 84.0163 62.0002 57.3817 51.3645 40.0476 38.4628 36.6748 36.2741 35.7862 28.1463 27.3439 24.6535 21.6693 21.2767 19.6573 17.9598 17.7304 23.7494 16.8473 16.3019 16.2752 15.559 15.1154
threshold=-0.36692601030222743 -1.4758565576151286 -0.92139128395867798 0.18753926335422311 1.0000000180025095e-35 -0.99970741949493491 -0.48044497189253765 -0.87546226353644918 0.021863862830391909 -0.74047987187784747 1998.5000000000002 0.029931779607663783 -0.64415864713045268 2004.5000000000002 2010.5000000000002 -1.0948086499816769 -0.69623835190968197 -1.5811662970767408 0.2289391227612014 -0.78277496554456538 -1.1672483872405357 0.081685604588181193 3.0362237355393482 0.74200453701067381 1997.5000000000002 90.500000000000014 -0.93721826057228919 -0.42143058250297055 -0.15889706813698309 0.47282776223526585
decision_type=2 2 2 2 2 2 2 2 2 2 2 2 2 2 2 2 2 2 2 2 2 2 2 2 2 2 2 2 2 2
left_child=1 -1 4 7 6 17 11 -2 14 -5 18 27 16 -14 20 22 -7 -4 -9 -19 28 -17 -6 24 -11 -22 -12 -3 -8 -18
right_child=3 2 5 9 15 12 8 10 -10 23 26 -13 13 -15 -16 21 29 19 -20 -21 25 -23 -24 -25 -26 -27 -28 -29 -30 -31
leaf_value=-1.4435328252888038 -1.2509028606294961 -0.95889471917065716 -1.0623495050822667 -1.3422127260553156 -0.90878235328353618 -1.1624992487997297 -1.2039597270767832 -1.3062221990291596 -1.2185649916327488 -1.3890348653984479 -1.29224822286337 -1.2999734662446965 -1.2623565131667718 -1.3443846796047536 -1.3819162263966225 -1.0126156205499808 -1.2375588410204776 -1.0949056603536125 -1.3655737624659554 -1.1914756711566052 -1.0389361128819321 -1.263968314056729 -1.0590333283327631 -1.4312616257296038 -1.4315096255555237 -1.1357655849584627 -1.4020579576395329 -1.0955571183388164 -1.0622042826431821 -1.3182275753379975
leaf_weight=216.80230215191841 86.487620919942856 55.658700168132782 39.827632755041122 94.319833219051361 80.155193954706192 45.826774090528488 8.3321407437324506 173.47517028450966 62.99098402261734 291.12499758601189 14.497924894094465 4.1660703718662253 161.31024479866028 82.32155054807663 4.8326416313648215 46.826630979776382 140.47989293932915 34.661705493927002 117.31654167175293 70.489910691976547 19.997137784957886 3.3328562974929801 8.8320691883563978 903.20405662059784 240.29893904924393 177.14131221175194 200.30466347932816 10.331854522228239 109.48432937264442 27.829350084066391
leaf_count=1301 519 334 239 566 481 275 50 1041 378 1747 87 25 968 494 29 281 843 208 704 423 120 20 53 5420 1442 1063 1202 62 657 167
internal_value=-1.31721 -1.1979 -1.15332 -1.39661 -1.07361 -1.23163 -1.10796 -1.34198 -1.12788 -1.41777 -1.35756 -0.999275 -1.2629 -1.29007 -1.11002 -0.961769 -1.23198 -1.13292 -1.33017 -1.15964 -1.10585 -1.02932 -0.923695 -1.42273 -1.40824 -1.12594 -1.39465 -0.980291 -1.07223 -1.2509
internal_weight=3532.66 1411.63 1194.83 2121.03 592.082 602.747 452.935 592.082 382.779 1528.95 505.594 70.1566 457.768 243.632 319.788 139.147 214.136 144.979 290.792 105.152 314.955 50.1595 88.9873 1434.63 531.424 197.138 214.803 65.9906 117.816 168.309
internal_count=21199 8471 7170 12728 3553 3617 2718 3553 2297 9175 3034 421 2747 1462 1919 835 1285 870 1745 631 1890 301 534 8609 3189 1183 1289 396 707 1010
is_linear=0
shrinkage=1


Tree=1
num_leaves=31
num_cat=0
split_feature=4 4 4 11 4 11 8 11 0 11 9 0 4 0 11 10 4 10 14 4 15 4 0 3 10 12 4 0 15 0
split_gain=2660.54 1057.7 618.139 160.83 127.26 105.274 76.3155 53.7533 49.263 43.7586 41.6546 40.9272 40.6596 27.1036 24.0278 21.7342 17.6949 17.8784 17.6235 17.5581 17.4889 17.4699 22.9314 16.9685 16.5712 15.857 15.5245 15.4138 23.5351 15.6045
threshold=-0.22830969188811484 -1.4758565576151286 -0.78277496554456538 -0.22202477664367262 0.18753926335422311 -1.0227157817094692 1.0000000180025095e-35 -0.74047987187784747 2010.5000000000002 -0.35854105911657669 -0.48044497189253765 2002.5000000000002 -1.0600076023727905 1997.5000000000002 -0.38768498458832029 -1.5811662970767408 -1.0600076023727905 0.84524903644584037 1.0000000180025095e-35 -1.3372402392010159 4.0496453845199198 0.74200453701067381 1997.5000000000002 18.500000000000004 -0.7676035087779931 -1.812452648555561 -1.0600076023727905 1985.5000000000002 1.3458007355848143 2007.5000000000002
decision_type=2 2 2 2 2 2 2 2 2 2 2 2 2 2 2 2 2 2 2 2 2 2 2 2 2 2 2 2 2 2
left_child=1 -1 3 6 9 15 8 -6 10 -2 26 23 20 -11 -13 -4 27 -18 -14 -12 -8 22 -9 -7 -17 -21 -3 -5 29 -29
right_child=4 2 5 16 7 11 12 21 -10 13 19 14 18 -15 -16 24 17 -19 -20 25 -22 -23 -24 -25 -26 -27 -28 28 -30 -31
leaf_value=-0.12311177377277405 0.0085934073751923832 0.27510929644461507 0.20282575540637279 0.089421363853588551 -0.022854260323941781 -0.022591057628771144 0.29717961902994083 -0.067596331190707487 -0.097069331708453513 -0.031823127328281187 0.20809804331356108 0.026092409426848054 0.082365080146888481 -0.094384933167062576 -0.04847928497761745 0.086378858805556125 0.079514671555927632 -0.040802142916997575 0.21546319626731722 0.24708888549649896 0.11581298743641828 -0.11027261314917683 -0.11053010105310655 0.053828757063865341 0.20895334240382965 0.15066741312278209 0.18686399216521898 0.17606633357019277 -0.053443443093452975 0.37209883893142426
leaf_weight=201.02831643819809 151.77787131071091 56.665318503975868 30.613751813769341 49.561104193329811 92.958011299371719 32.308057323098183 113.22826650738716 279.06041902303696 6.42425413429737 166.25942710042 84.004566669464111 80.159231901168823 11.931161090731619 118.67876207828522 93.732800662517548 73.478838592767715 74.02533446252346 14.823345348238943 59.859639436006546 18.140937268733978 5.5787136554718009 843.84488523006439 224.47212487459183 288.63316330313683 12.977429106831549 285.13935349881649 30.756521612405777 22.478913247585304 3.820324480533599 4.9558861106634131
leaf_count=1301 906 285 163 277 566 190 561 1747 38 1010 447 477 62 747 569 414 419 86 312 97 29 5420 1442 1689 73 1538 161 125 21 27
internal_value=-0.000578437 0.0918787 0.121617 0.177234 -0.0820648 0.0451416 0.199207 -0.0964024 0.177992 -0.034778 0.181715 0.0249667 0.25276 -0.0578806 -0.0141039 0.130417 0.0902413 0.0594412 0.193343 0.167641 0.288663 -0.101477 -0.086736 0.0461358 0.104778 0.156435 0.244063 0.124103 0.179097 0.211478
internal_weight=3531.38 1654.33 1453.3 841.394 1877.05 611.903 671.729 1440.34 481.131 436.716 474.707 494.833 190.598 284.938 173.892 117.07 169.665 88.8487 71.7908 387.285 118.807 1347.38 503.533 320.941 86.4563 303.28 87.4218 80.8162 31.2551 27.4348
internal_count=21199 9361 8060 4485 11838 3575 3530 9175 2566 2663 2528 2925 964 1757 1046 650 955 505 374 2082 590 8609 3189 1879 487 1635 446 450 173 152
is_linear=0
shrinkage=0.1


Tree=2
num_leaves=31
num_cat=0
split_feature=4 4 4 4 11 11 11 11 11 8 0 0 0 9 11 0 4 0 4 12 3 10 10 2 12 3 11 13 3 2
split_gain=2156.59 826.966 425.942 118.738 114.846 76.4826 50.4581 40.0279 37.4509 35.4678 33.3546 32.0886 24.8055 23.459 19.9226 18.5721 17.3297 22.2495 16.0836 15.9536 14.971 14.3517 14.2109 13.2669 13.2657 13.1822 12.9012 13.9299 11.4754 11.4002
threshold=-0.22830969188811484 -1.4758565576151286 -0.78277496554456538 0.18753926335422311 -0.958292367508773 -1.0227157817094692 -0.74047987187784747 0.021863862830391909 -0.35854105911657669 1.0000000180025095e-35 2010.5000000000002 2002.5000000000002 1997.5000000000002 -0.77959003450148268 -0.38768498458832029 1979.5000000000002 0.74200453701067381 1997.5000000000002 -1.3372402392010159 -1.769625609816796 16.500000000000004 -1.5811662970767408 -1.5098011402084295 128.50000000000003 -1.5840417752821481 18.500000000000004 -0.23736368478669548 -1.2720009667884267 136.50000000000003 451.50000000000006
decision_type=2 2 2 2 2 2 2 2 2 2 2 2 2 2 2 2 2 2 2 2 2 2 2 2 2 2 2 2 2 2
left_child=1 -1 4 8 9 21 22 15 20 10 13 19 -10 -3 -13 26 17 -8 -17 -7 -2 28 -5 -11 -20 -21 27 -6 -4 -28
right_child=3 2 5 6 7 11 16 -9 12 23 -12 14 -14 -15 -16 18 -18 -19 24 25 -22 -23 -24 -25 -26 -27 29 -29 -30 -31
leaf_value=-0.12033645641864976 -0.10733966512801392 0.2347722554341839 0.12376127193782194 0.08307262067563953 0.005463409699614616 0.24629628085548558 -0.063547003652048198 0.060776204468468625 -0.029213190626719149 0.088636213942120914 -0.10410139287047614 0.023119480531487241 -0.090335791720559444 0.15432093444928932 -0.044969861114530801 0.20921000481595856 -0.10679514979808034 -0.10706421133324961 0.20742715175860924 -0.023188607032041661 0.016226665992330296 0.088994561579462561 -0.035771279843258251 0.22709053918561373 0.12472767124371703 0.044661928117579006 -0.023948002764682553 0.12787630400112798 0.24739675700446387 0.10664717911204152
leaf_weight=185.87595598399639 10.532356113195418 42.534935861825943 22.266902089118958 11.504778295755385 10.418066412210463 3.720805585384368 267.76007153093815 116.19247050583363 163.17015859484673 7.2538153082132331 4.6381646990776053 81.352838322520256 111.95063051581383 245.08038139343262 91.085623383522034 34.117331355810165 787.126544713974 209.34780070185661 22.00025263428688 31.725952327251434 141.99335718154907 91.276386111974716 80.20936980843544 150.76291190087795 163.89819122850895 293.79668255150318 14.467654392123224 86.304344192147255 11.325656250119208 12.424861147999762
leaf_count=1301 64 194 108 71 52 21 1747 636 1010 34 29 477 747 1196 569 164 5420 1442 106 189 842 487 495 681 816 1669 76 436 55 65
internal_value=-0.000920856 0.0788853 0.102984 -0.0779942 0.146668 0.0395304 -0.0924842 0.111515 -0.0320506 0.182566 0.161929 0.0220996 -0.0540849 0.166219 -0.0128467 0.128672 -0.0976799 -0.0826417 0.146098 0.0404025 0.00769404 0.109561 -0.0208633 0.220735 0.134515 0.0380491 0.0976565 0.114691 0.165445 0.0363895
internal_weight=3506.12 1722.52 1536.64 1783.6 910.093 626.551 1355.95 459.823 427.647 450.27 292.253 501.682 275.121 287.615 172.438 343.631 1264.23 477.108 220.016 329.243 152.526 124.869 91.7141 158.017 185.898 325.523 123.615 96.7224 33.5926 26.8925
internal_count=21199 9361 8060 11838 4485 3575 9175 2351 2663 2134 1419 2925 1757 1390 1046 1715 8609 3189 1086 1879 906 650 566 715 922 1858 629 488 163 141
is_linear=0
shrinkage=0.1


Tree=3
num_leaves=31
num_cat=0
split_feature=4 4 4 4 11 0 11 0 11 11 4 0 9 13 4 0 13 11 11 4 12 3 3 10 4 11 2 3 11 12
split_gain=1767.56 661.582 315.612 110.7 90.9201 65.5497 47.3461 32.1831 31.9624 26.8145 23.1211 22.6761 18.5042 18.2216 17.2641 21.6433 16.2366 15.6979 15.6914 14.8922 13.3749 12.8328 12.195 11.9118 11.1834 10.7023 10.3694 9.621 9.35088 10.5056
threshold=-0.22830969188811484 -1.4758565576151286 -0.92139128395867798 0.18753926335422311 -0.83864888399319415 2005.5000000000002 -0.74047987187784747 2010.5000000000002 -0.35854105911657669 0.13077011064585473 -0.50554232871633997 1997.5000000000002 -0.56618232837473881 -0.17930741177742218 0.74200453701067381 1997.5000000000002 -1.6811798299414837 -1.1423592652250478 0.38999765826294214 -0.64415864713045268 -1.5840417752821481 16.500000000000004 168.50000000000003 -1.3385247637244826 -0.64415864713045268 -1.326426162941323 568.50000000000011 16.500000000000004 0.96520671362630195 1.0426832673621009
decision_type=2 2 2 2 2 2 2 2 2 2 2 2 2 2 2 2 2 2 2 2 2 2 2 2 2 2 2 2 2 2
left_child=1 -1 5 8 16 9 20 10 21 12 18 -10 -3 19 15 28 -4 24 -6 -9 -5 -2 -7 -19 -18 -14 -26 -25 29 -8
right_child=3 2 4 6 7 22 14 13 11 -11 -12 -13 25 -15 -16 -17 17 23 -20 -21 -22 -23 -24 27 26 -27 -28 -29 -30 -31
leaf_value=-0.11792447694046798 -0.10339837508109107 0.17465052537950979 0.16730628416203183 0.11869386138768204 0.066906281851744936 0.18023951351873335 -0.059649138424997777 0.064829067138724522 -0.026781987306864825 0.052310271235919498 0.0076993837636526608 -0.086460603958535637 0.14272868116995149 -0.07410474553520463 -0.10355581902428641 -0.10383828067479434 0.13477536778775301 0.15321412819342273 0.0082786899056218107 -0.029384133985677571 -0.029789316138440367 0.014462869545291697 0.077947628121962403 -0.1078507851643811 0.10005159374856361 0.1047474880395045 6.7610161726550436e-06 0.052626212997125034 -0.10425915243237836 0.0078620591758625773
leaf_weight=171.44992679357529 9.8746238946914655 58.953075334429741 27.214252427220345 6.5384193509817115 207.53983061015606 249.66133913397789 191.26249265670776 27.626877531409264 160.33859524130821 62.073457345366478 181.24369429051876 105.60398949682713 99.897012516856194 44.576106637716293 733.35812002420425 195.00880074501038 73.857374608516693 11.647042930126188 58.525352567434311 42.7242821007967 84.042963653802872 143.30536457896233 12.225396126508711 3.8925564885139456 42.227238491177559 288.29085129499435 13.728166073560713 92.824671134352684 39.754328727722168 26.208409309387207
leaf_count=1301 64 256 129 40 1121 1091 1299 148 1010 326 1043 747 458 278 5420 1442 347 59 330 266 526 842 56 21 211 1366 69 485 270 178
internal_value=-0.00113351 0.0687573 0.0887774 -0.0741115 0.0458902 0.134808 -0.0887557 0.0231184 -0.0295216 0.113899 0.0352457 -0.05048 0.122449 -0.0240821 -0.0940798 -0.0787131 0.0941325 0.0857716 0.0540102 0.00761336 -0.0190714 0.00686504 0.175464 0.057673 0.109228 0.114522 0.0755065 0.0461675 -0.059665 -0.0515131
internal_weight=3465.47 1770.18 1598.73 1695.3 827.627 771.101 1276.17 562.236 419.123 509.214 447.309 265.943 447.141 114.927 1185.59 452.234 265.391 238.177 266.065 70.3512 90.5814 153.18 261.887 108.364 129.813 388.188 55.9554 96.7172 257.225 217.471
internal_count=21199 9361 8060 11838 4507 3553 9175 3186 2663 2406 2494 1757 2080 692 8609 3189 1321 1192 1451 414 566 906 1147 565 627 1824 280 506 1747 1477
is_linear=0
shrinkage=0.1


Tree=4
num_leaves=31
num_cat=0
split_feature=4 4 4 4 11 0 10 11 0 12 0 11 4 4 4 0 13 14 15 13 4 11 4 13 9 3 11 13 2 3
split_gain=1458.84 537.819 237.457 103.07 68.8891 50.5045 45.2849 27.2229 25.6757 22.9516 20.6869 20.4124 17.7806 16.9889 16.2022 19.8699 15.6268 14.4221 13.8819 12.7253 12.1296 11.8794 11.8071 11.3606 11.2788 11.0232 10.9928 13.6755 13.6336 10.2694
threshold=-0.22830969188811484 -1.4758565576151286 -0.92139128395867798 0.18753926335422311 -0.83864888399319415 2005.5000000000002 -0.89606079114095338 -0.35854105911657669 2010.5000000000002 -1.5269390569637948 1997.5000000000002 -0.57175188230459539 -0.50554232871633997 -1.1986239207869032 0.74200453701067381 1995.5000000000002 -0.17930741177742218 1.973674607202164 1.5425289060969394 -1.2115540892771797 -1.1986239207869032 0.38999765826294214 -0.64415864713045268 -0.44124388099282602 -0.65605808851198677 16.500000000000004 -1.1423592652250478 -1.5230879964505297 520.50000000000011 202.50000000000003
decision_type=2 2 2 2 2 2 2 2 2 2 2 2 2 2 2 2 2 2 2 2 2 2 2 2 2 2 2 2 2 2
left_child=1 -1 5 7 17 11 18 25 12 -8 -9 13 21 24 15 -11 22 26 -5 -20 -7 -6 -10 -22 -3 -2 -4 28 -28 -13
right_child=3 2 4 6 8 20 9 10 16 14 -12 29 -14 -15 -16 -17 -18 -19 19 -21 23 -23 -24 -25 -26 -27 27 -29 -30 -31
leaf_value=-0.11581533743709851 -0.099706973305601243 0.19798085319307224 0.095835670595815547 -0.023533417740941906 0.058156995116103886 0.17246723153828905 0.087804267149619156 -0.024521581397479175 0.056456197294251033 -0.056433724024817694 -0.082722233150521116 0.064406714814851981 0.006898638022007993 0.088485094335378739 -0.10084682106469428 -0.099330900000679206 -0.069920376934974923 0.23963398754913401 0.2671786076102447 0.0020327754913115159 0.14234736709129792 0.0074160004530149787 -0.02694282963275212 0.061181988922630895 0.12459103287909885 0.012905435117888164 0.068592117433690133 0.044499266194940934 0.3029032035374134 0.12862178907030031
leaf_weight=157.81390353292227 9.2487302422523481 24.184712529182434 152.61941532790661 66.097616910934448 214.48563411831856 136.34395390748978 7.20289123058319 157.74829038977623 28.50135600566864 234.69445544481277 99.651062607765198 174.60645420849323 182.01016575098038 145.30878779292107 685.91202113032341 199.99169598519802 42.622990429401398 5.6469701677560797 3.2989048510789871 4.010747790336608 115.93295493721962 58.785604164004326 41.976775288581848 20.258315220475197 156.1147054284811 144.47406692802906 6.005311965942381 106.72245492041111 4.2341614365577698 29.046979635953903
leaf_count=1301 64 99 704 436 1121 567 52 1010 148 1650 747 837 1043 644 5426 1564 278 26 20 27 490 330 266 90 690 842 28 543 20 136
internal_value=-0.0012708 0.0605274 0.0774408 -0.0703856 0.0404054 0.116408 -0.0851772 -0.0271677 0.0205202 -0.0901308 -0.0470537 0.0983978 0.0311135 0.113929 -0.0912745 -0.07617 -0.0221228 0.081471 -0.00907203 0.121695 0.151382 0.0472417 0.00678374 0.130274 0.134435 0.00613011 0.0781579 0.0550908 0.165483 0.0735657
internal_weight=3415.55 1803.22 1645.41 1612.33 843.611 801.797 1201.21 411.122 568.383 1127.8 257.399 529.262 455.281 325.608 1120.6 434.686 113.101 275.228 73.4073 7.30965 272.535 273.271 70.4781 136.191 180.299 153.723 269.581 116.962 10.2395 203.653
internal_count=21199 9361 8060 11838 4507 3553 9175 2663 3186 8692 1757 2406 2494 1433 8640 3214 692 1321 483 47 1147 1451 414 580 789 906 1295 591 48 973
is_linear=0
shrinkage=0.1


Tree=5
num_leaves=31
num_cat=0
split_feature=4 4 4 4 11 10 0 11 10 13 8 0 0 15 9 14 13 5 10 2 15 11 11 12 12 4 4 10 9 10
split_gain=1209.87 442.676 185.636 97.8586 54.0207 37.4409 34.1262 32.8516 28.4565 23.6186 23.0494 26.2115 22.9269 17.9847 16.9198 16.541 13.8501 13.1725 12.643 11.7232 11.3059 10.9213 10.5762 10.5214 10.4001 10.3818 10.3646 10.1802 12.0454 11.4868
threshold=-0.22830969188811484 -1.4758565576151286 -0.78277496554456538 0.46477190018244846 -0.83864888399319415 -1.0387911048775755 1997.5000000000002 -1.1086136673103975 -0.65341925778869525 1.0000000180025095e-35 1.0000000180025095e-35 2010.5000000000002 2002.5000000000002 1.5425289060969394 -0.75867123222950839 1.2011827357885718 -0.90002018210382939 -0.14917229171623578 0.13159746776272815 508.50000000000006 3.6841598611192876 0.2289391227612014 0.41300602047747653 -1.4698363386454416 -1.3556309020087347 -1.0600076023727905 1.0000000180025095e-35 -0.7676035087779931 -1.0982576295679536 -1.5811662970767408
decision_type=2 2 2 2 2 2 2 2 2 2 2 2 2 2 2 2 2 2 2 2 2 2 2 2 2 2 2 2 2 2
left_child=1 -1 4 5 10 -2 21 27 13 22 11 14 18 -5 -3 20 -8 -11 -9 -15 23 26 -6 -14 -10 -12 -7 28 -4 -30
right_child=3 2 7 8 9 6 16 12 24 17 25 -13 15 19 -16 -17 -18 -19 -20 -21 -22 -23 -24 -25 -26 -27 -28 -29 29 -31
leaf_value=-0.11396047335754791 0.039321789230606849 0.15501690822903075 0.18985390972239041 -0.047150101603492464 0.088914903544093468 0.016846768147539184 0.006924364826559397 0.045000265143738699 0.020575697278473432 -0.066918216513485645 0.16073324684560761 -0.11367076875044953 0.085901489127155048 -0.03306183109043101 0.095478841367840891 0.18571378063689861 -0.080534273849422133 0.04388643698660788 0.0060789491613287821 0.21294863056624347 0.12233147113362264 -0.045703881298035536 0.015400976797665451 -0.027757382022657318 -0.09482869072065081 0.11095219625535818 -0.029050178142688676 0.17321353500798534 0.10463943278262133 0.032817139305822723
leaf_weight=145.00057169049978 58.582890935242176 56.184803992509842 7.3106167614459983 73.053676523268223 297.39754076302052 86.689777910709381 19.723575107753277 229.94386301934719 7.8852066025137892 11.73789459466934 124.97554115951061 5.5925206691026679 8.5762579143047315 3.3089442774653426 317.2489063590765 4.1013007760047904 220.91742815822363 124.79845774173737 131.01094345748425 4.672041691839695 5.6029879152774802 138.67533673346043 20.94846798479557 161.78777055442333 807.55567736923695 63.017940819263458 113.78063108026981 9.6425078660249692 33.487999141216278 66.461735725402832
leaf_count=1301 347 228 33 520 1334 530 129 1222 60 57 502 31 46 22 1362 24 1719 602 725 28 34 959 107 988 6748 262 776 44 143 316
internal_value=-0.00135519 0.0536803 0.0681508 -0.0667887 0.0948245 -0.0368661 -0.0445642 0.0267209 -0.0880963 0.0691545 0.115418 0.101218 0.0163338 -0.0315789 0.104437 -0.0128118 -0.0733659 0.0343607 0.0308735 0.110952 -0.0174389 -0.024128 0.0840774 -0.0220357 -0.0937127 0.144046 -0.00920288 0.0747921 0.0659442 0.0568811
internal_weight=3359.67 1824.83 1679.83 1534.85 1021.9 638.37 579.787 657.926 896.476 454.882 567.02 379.026 541.023 81.0347 373.434 180.068 240.641 136.536 360.955 7.98099 175.967 339.146 318.346 170.364 815.441 187.993 200.47 116.903 107.26 99.9497
internal_count=21199 9361 8060 11838 4485 4460 4113 3575 7378 2100 2385 1621 3039 570 1590 1092 1848 659 1947 50 1068 2265 1441 1034 6808 764 1306 536 492 459
is_linear=0
shrinkage=0.1


Tree=6
num_leaves=31
num_cat=0
split_feature=4 4 4 11 11 4 0 11 0 4 0 12 8 14 10 10 3 13 3 1 0 9 5 0 12 11 11 11 14 1
split_gain=1013.18 349.161 194.909 68.9612 61.5797 33.4835 32.8194 26.8567 30.8437 26.0348 20.0183 20.0139 18.5968 17.2409 16.7298 15.0803 14.0558 13.2817 12.9615 12.3448 14.1381 12.0897 13.2588 10.7575 10.4968 10.4387 9.96104 9.71946 8.9526 8.6838
threshold=-0.089693373474002205 -1.4758565576151286 -0.64415864713045268 -0.4060916743599477 -1.1423592652250478 0.74200453701067381 1995.5000000000002 -0.87546226353644918 2003.5000000000002 -1.0600076023727905 1985.5000000000002 -1.5840417752821481 1.0000000180025095e-35 1.2011827357885718 0.77388387957752902 -1.0387911048775755 13.500000000000002 -1.4579913591307252 143.50000000000003 8.5000000000000018 1989.5000000000002 -0.80069701703059615 -0.98869237229645957 1979.5000000000002 0.99985622862333601 0.044872225044926294 -1.0948086499816769 0.69830971193770286 1.0000000180025095e-35 51.500000000000007
decision_type=2 2 2 2 2 2 2 2 2 2 2 2 2 2 2 2 2 2 2 2 2 2 2 2 2 2 2 2 2 2
left_child=1 -1 4 11 12 6 27 -4 25 10 -6 17 21 -10 16 -13 -11 -2 23 20 -12 -3 -23 -18 28 -9 -17 -5 -25 -24
right_child=3 2 7 5 9 -7 -8 8 13 14 19 15 -14 -15 -16 26 18 -19 -20 -21 -22 22 29 24 -26 -27 -28 -29 -30 -31
leaf_value=-0.11232044083578019 0.011772500220577535 0.14024354065450478 0.046686433793433395 -0.027945743641926965 0.057625462305144919 -0.096977517684860848 -0.090729571065289769 0.030382585331753455 -0.046588357965122562 -0.056362968608835919 -0.087377847522589147 0.013845831408155469 0.13524067578705851 0.19031341036452687 -0.027415730099206961 0.040149592097267768 0.039206195223565513 0.21520705254746697 0.026707883053214927 0.12102912879602756 0.081850459490988681 -0.055254603224123768 0.091363719377296218 0.0047551188139962333 0.23087279499445701 -0.0055370077606231279 -0.049637453905672875 -0.068704301693902653 0.084267813509592907 -0.017611494026362483
leaf_weight=133.0192949026823 7.6388050615787506 45.132595762610435 149.27595615386963 207.87881641089916 167.89094585180283 559.80123759806156 219.00887002795935 185.62052650749683 137.09953498840332 11.918205991387365 5.7269725352525702 61.271848410367966 162.52313797175884 3.142435908317565 29.491805732250214 13.29694879055023 95.792814448475838 5.5343662127852422 121.08396391570568 131.94166654348373 35.78049923479557 6.6658367961645117 223.53971087932587 15.601888373494146 4.5481186211109152 143.41756749153137 174.60456137359142 81.422530710697174 153.2680851817131 7.5595940202474585
leaf_count=1301 43 182 731 1497 747 5115 1913 1028 938 61 25 378 659 19 161 84 453 33 575 555 150 30 941 75 22 840 1285 610 716 32
internal_value=-0.00140251 0.0441295 0.055458 -0.0688228 0.0786663 -0.080106 -0.0615254 0.00974123 -0.00201088 0.0616017 0.08224 -0.0228848 0.108282 -0.04128 0.0452834 -0.0292355 0.050614 0.0972403 0.0538807 0.106066 0.0585013 0.0927951 0.0837884 0.0661023 0.0809592 0.0147263 -0.0432836 -0.0394171 0.0769216 0.087799
internal_weight=3300.5 1970.04 1837.02 1330.46 1218.47 1068.11 508.31 618.556 469.28 773.045 341.34 262.347 445.421 140.242 431.705 249.173 402.213 13.1732 390.295 173.449 41.5075 282.898 237.765 269.211 173.418 329.038 187.902 289.301 168.87 231.099
internal_count=21199 10241 8940 10958 5384 9135 4020 3556 2825 3540 1477 1823 1844 957 2063 1747 1902 76 1841 730 175 1185 1003 1266 813 1868 1369 2107 791 973
is_linear=0
shrinkage=0.1


Tree=7
num_leaves=31
num_cat=0
split_feature=4 4 4 11 11 11 0 12 4 0 4 12 8 0 10 14 14 11 1 9 5 13 0 0 3 3 3 2 3 11
split_gain=853.363 279.804 197.553 50.8161 47.0745 32.626 25.0743 22.2712 21.0075 19.1981 20.577 17.1518 16.2281 14.0878 13.3552 12.8911 12.7838 12.5682 12.2722 10.3563 10.6374 10.1936 9.49476 9.72411 9.38789 11.969 12.1086 9.64093 10.0854 11.8373
threshold=1.0000000180025095e-35 -1.4758565576151286 -0.64415864713045268 -1.1423592652250478 -0.18827917872902231 -0.69139536582017402 2003.5000000000002 -1.5840417752821481 -1.1986239207869032 1989.5000000000002 0.74200453701067381 -1.6411444936005011 1.0000000180025095e-35 1990.5000000000002 -1.0387911048775755 1.2011827357885718 3.5186583500293485 0.44981940002073145 52.500000000000007 -0.80069701703059615 -1.0994293425068917 0.77389334897685846 1989.5000000000002 1997.5000000000002 9.5000000000000018 76.500000000000014 123.50000000000001 549.50000000000011 71.500000000000014 -0.053296787070420404
decision_type=2 2 2 2 2 2 2 2 2 2 2 2 2 2 2 2 2 2 2 2 2 2 2 2 2 2 2 2 2 2
left_child=1 -1 3 12 7 16 -7 -2 13 10 -6 -10 19 -5 -9 -8 21 24 -16 -3 -21 -4 -19 -24 -13 27 -27 28 -26 -30
right_child=4 2 5 8 9 6 15 14 11 -11 -12 17 -14 -15 18 -17 -18 22 -20 20 -22 -23 23 -25 25 26 -28 -29 29 -31
leaf_value=-0.11086279459320712 0.093813214300173434 0.12640674637592036 0.029987695511078064 0.060016202888937054 -0.040240255053966667 0.0048423780625573886 -0.048408787312048521 0.003097951937492851 0.10864433321585001 -0.098216902585109081 -0.086510208870925087 -0.054427805108471873 0.12198670446663269 0.11218256996525725 -0.055707808799460051 0.14059516250182688 0.20662003135287468 -0.032620448983731121 0.14815995831247494 -0.063939997602804707 0.077375807600302049 0.18615888996706464 0.11692226157349628 -0.026328520339726259 0.014863497965734286 -0.0095184470193362541 0.044096829797614763 0.09767655738897997 0.057087567519174376 0.17511143279193508
leaf_weight=121.86221197992563 12.384137347340582 45.065347015857697 221.23002332448959 127.58794032037258 161.24825014173985 372.37969948351383 145.18912672996521 51.365161083638668 38.829695284366608 433.31454692035913 237.93814478814602 9.2769927829503995 162.16969856619835 87.114322111010551 234.39269658178091 3.7006578817963591 4.3190869688987723 38.781584277749062 2.99041774123907 5.4496385902166358 235.98969474434853 4.2600055038928977 10.680767804384233 8.5176209360361081 47.996820613741875 51.400570690631866 233.36608448624611 66.289836078882217 55.219609990715981 10.043609738349913
leaf_count=1301 70 182 1133 553 1238 2190 1076 326 166 4132 2340 48 659 358 1924 22 19 203 23 25 978 21 56 48 222 239 1060 296 243 48
internal_value=-0.00142752 0.0362172 0.0452473 0.0698623 -0.0713856 0.00481267 -0.00902591 -0.0375035 0.0545203 -0.0836414 -0.0678198 0.0444845 0.0967083 0.0811824 -0.0431356 -0.0437111 0.0362023 0.0397979 -0.0531396 0.0824001 0.0741861 0.0329381 -0.00414815 0.0533671 0.045178 0.0471681 0.0344192 0.0673878 0.0496601 0.0752507
internal_weight=3240.35 2106.72 1984.86 1233.78 1133.63 751.079 521.269 301.132 785.105 832.501 399.186 570.403 448.674 214.702 288.748 148.89 229.809 531.573 237.383 286.505 241.439 225.49 57.98 19.1984 473.594 464.317 284.767 179.55 113.26 65.2632
internal_count=21199 11146 9845 5384 10053 4461 3288 2343 3540 7710 3578 2629 1844 911 2273 1098 1173 2463 1947 1185 1003 1154 307 104 2156 2108 1299 809 513 291
is_linear=0
shrinkage=0.1


Tree=8
num_leaves=31
num_cat=0
split_feature=4 4 4 11 4 11 0 0 0 4 12 10 11 15 10 14 14 1 3 10 12 10 5 11 10 3 13 9 13 4
split_gain=719.881 237.761 157.73 44.5999 42.6232 26.0789 23.1567 21.0702 19.0835 19.7053 18.0015 17.6997 13.9369 12.7208 11.6074 10.1848 9.79481 9.67299 9.20534 8.38764 10.142 8.283 9.95958 8.17289 8.14509 12.1237 7.80587 7.6974 9.30714 8.89064
threshold=1.0000000180025095e-35 -1.4758565576151286 -0.64415864713045268 -0.18827917872902231 -1.0600076023727905 -0.69139536582017402 2005.5000000000002 2003.5000000000002 1989.5000000000002 0.74200453701067381 -1.5840417752821481 -0.25377437932615238 -1.326426162941323 4.4739712661140132 -1.0387911048775755 1.2011827357885718 3.5186583500293485 52.500000000000007 13.500000000000002 1.2877130090293698 0.70006695745198155 0.3742390011149862 -0.44394804150208078 -1.2435960589689994 -0.31086650482080141 108.50000000000001 0.77389334897685846 1.6265954850517785 -0.98371585865786371 -0.36692601030222743
decision_type=2 2 2 2 2 2 2 2 2 2 2 2 2 2 2 2 2 2 2 2 2 2 2 2 2 2 2 2 2 2
left_child=1 -1 4 10 6 16 12 21 9 19 -2 18 -3 -8 -12 27 24 23 -6 20 -5 -7 -23 -16 26 -26 -4 28 29 -9
right_child=3 2 5 8 11 7 13 15 -10 -11 14 -13 -14 -15 17 -17 -18 -19 -20 -21 -22 22 -24 -25 25 -27 -28 -29 -30 -31
leaf_value=-0.10956057199445571 0.080333005546589398 0.096819815769488615 0.022539492628132651 -0.044483101032000885 -0.052711610378661566 0.014908398782351812 0.11216574155476747 -0.054680781119249844 -0.095726716809170651 -0.083588842591458212 0.0027827188661796094 0.017726597197540644 0.056292764422606272 -0.039339101811630847 0.11323170467025799 0.1170609079508205 0.17826344483773632 0.12026288502008922 0.056784291787305922 -0.1004323079019331 0.018032432994754672 0.1250182847567432 -0.022283458416603705 -0.054465335803781934 -0.025672658668337546 0.20250182055046803 0.16089844034651835 0.02877261213386717 -0.059827194200966688 0.14705407388394939
leaf_weight=111.50898657739162 12.981051623821257 116.17908369004726 214.5681424215436 103.62548939138651 7.8235660195350638 248.43405610322952 200.38612331449986 4.3302001059055328 401.76010404527187 222.43674688786268 51.460242331027985 186.44991013407707 314.71911035478115 5.6995814889669409 2.9446839392185202 3.9831605702638617 4.4946052134037009 3.2969198524951926 412.45998671650887 18.554586417973042 34.620440401136875 4.7724282741546622 120.16772402822971 222.35429468750954 3.7084417343139631 6.2586006820201874 4.156611666083335 12.82013577967882 118.96494955569506 4.4088952839374524
leaf_count=1301 70 472 1081 813 40 1426 826 28 4132 2340 326 916 1332 23 19 22 19 23 1775 153 272 30 734 1905 20 34 19 97 923 28
internal_value=-0.00143108 0.0325427 0.0404863 -0.0680573 0.0623382 0.00430115 0.0804056 -0.00820263 -0.0805396 -0.0644504 -0.0347897 0.0433699 0.0672197 0.107976 -0.0401258 -0.0406251 0.0320707 -0.0497851 0.054746 -0.0373007 -0.0288276 0.00434589 -0.0166569 -0.0522735 0.0291975 0.117605 0.0251688 -0.0450948 -0.0525103 0.047095
internal_weight=3180.33 2106.29 1994.79 1074.03 1243.72 751.068 636.984 517.882 780.997 379.237 293.037 606.733 430.898 206.086 280.056 144.507 233.186 228.596 420.284 156.801 138.246 373.374 124.94 225.299 228.692 9.96704 218.725 140.524 127.704 8.7391
internal_count=21199 11146 9845 10053 5384 4461 2653 3288 7710 3578 2343 2731 1804 849 2273 1098 1173 1947 1815 1238 1085 2190 764 1924 1154 54 1100 1076 979 56
is_linear=0
shrinkage=0.1


Tree=9
num_leaves=31
num_cat=0
split_feature=4 4 4 11 10 11 4 0 0 8 0 12 3 4 13 9 9 10 14 4 5 11 4 1 4 14 1 4 12 11
split_gain=607.598 203.029 127.617 42.0987 30.0709 25.9147 19.2302 24.0777 18.4208 15.8037 20.0113 14.9051 12.3385 12.3042 13.4836 11.1923 10.8694 10.526 10.3416 9.89967 9.6848 9.23426 9.16193 9.04325 9.98356 8.84005 8.67314 8.62909 9.89125 8.13175
threshold=1.0000000180025095e-35 -1.4758565576151286 -0.78277496554456538 -0.1391946726713488 -0.25377437932615238 -0.69139536582017402 0.74200453701067381 1995.5000000000002 1998.5000000000002 1.0000000180025095e-35 2010.5000000000002 -1.5840417752821481 18.500000000000004 -0.36692601030222743 -0.98371585865786371 -0.75425571704272776 1.3039033570217293 -1.6810775166923766 1.973674607202164 -1.3372402392010159 -0.056577780742357524 -1.1239525754534205 -0.92139128395867798 42.500000000000007 -1.3372402392010159 1.0000000180025095e-35 52.500000000000007 -0.50554232871633997 -0.05654406026619898 0.96520671362630195
decision_type=2 2 2 2 2 2 2 2 2 2 2 2 2 2 2 2 2 2 2 2 2 2 2 2 2 2 2 2 2 2
left_child=1 -1 4 11 9 18 7 29 12 10 15 -2 -7 -10 -15 -3 22 -13 20 -6 21 -4 -11 24 -18 -24 -19 28 -14 -5
right_child=3 2 5 6 19 8 -8 -9 13 16 -12 17 27 14 -16 -17 23 26 -20 -21 -22 -23 25 -25 -26 -27 -28 -29 -30 -31
leaf_value=-0.1083911038763295 0.069471787160363341 0.099286952455863123 0.037895502941097357 -0.02562025461460294 0.077279520532245169 -0.043802179665910469 -0.091964051574320277 -0.093268600862609213 -0.0024802117542317139 0.11085109458160387 -0.100190532494871 0.11237248942022758 0.010843511426958932 0.083229485902230421 -0.059624261662954092 0.057524293648740177 0.13426729369943008 -0.042649427749032326 0.14903882762184292 0.020961442578083186 0.039781828667865879 -0.031846571963925784 -0.061232533803804529 0.12891404649954111 -0.026656554682216178 0.076228950132021245 0.10835825940726738 0.0046403321172812147 0.067187258044954595 -0.078741096575833849
leaf_weight=101.93045184016228 13.480458602309225 73.387245982885361 33.985203787684441 147.67642687261105 36.682938992977142 38.381780326366425 413.87528897076845 122.28351700305939 109.33084440231323 158.80797244608402 7.6340215206146231 4.5725999474525443 66.947363778948784 7.0750507265329352 99.935687802731991 511.022351115942 4.8497679680585888 277.34280620515347 7.4376899302005759 209.28880320489407 235.85408189147711 43.013738818466663 5.5798094123601905 8.0750772655010206 18.798500001430515 28.957857698202133 3.8563400506973258 238.14187703281641 58.281505659222603 35.804140724241734
leaf_count=1301 70 302 153 1197 156 232 4703 1351 683 660 39 27 331 42 820 2106 20 2362 32 948 1131 228 24 33 77 120 25 1409 299 318
internal_value=-0.00142329 0.0292793 0.0362905 -0.0648056 0.0600145 0.00941397 -0.0779135 -0.058895 -0.00254869 0.0692421 0.0606674 -0.033284 0.0101196 -0.0260741 -0.0501794 0.0627686 0.0917979 -0.0381312 0.0324994 0.0293604 0.0297288 -0.00106435 0.100699 0.037545 0.00634558 0.0540211 -0.0405785 0.0158152 0.0370659 -0.0359862
internal_weight=3122.29 2103.4 2001.47 1018.89 1063.08 938.385 719.639 305.764 618.094 817.113 592.044 299.252 401.753 216.342 107.011 584.41 225.069 285.772 320.291 245.972 312.853 76.9989 193.346 31.7233 23.6483 34.5377 281.199 363.371 125.229 183.481
internal_count=21199 11146 9845 10053 4485 5360 7569 2866 3816 3381 2447 2484 2271 1545 862 2408 934 2414 1544 1104 1512 381 804 130 97 144 2387 2039 630 1515
is_linear=0
shrinkage=0.1


Tree=10
num_leaves=31
num_cat=0
split_feature=4 4 4 11 10 8 4 4 0 0 0 12 3 9 13 15 10 5 11 14 10 4 3 7 9 9 9 3 3 10
split_gain=512.936 174.233 105.229 39.6827 30.6234 26.4393 21.1656 19.0724 22.9884 14.295 12.3511 12.1709 11.8973 11.5645 12.0227 11.4792 11.2673 14.9763 10.5581 10.1664 9.78428 9.63865 8.80578 10.1287 9.74573 12.1713 8.75967 8.74708 14.8462 9.52318
threshold=1.0000000180025095e-35 -1.4758565576151286 -0.92139128395867798 -0.1391946726713488 -1.0673371676249002 1.0000000180025095e-35 -0.36692601030222743 0.74200453701067381 1995.5000000000002 2001.5000000000002 2010.5000000000002 -1.5840417752821481 129.50000000000003 -0.48044497189253765 0.029931779607663783 1.8344033882838913 0.13159746776272815 -0.056577780742357524 -1.1239525754534205 1.0000000180025095e-35 -1.0387911048775755 -1.3372402392010159 166.50000000000003 3.4288233898293154 1.0000000180025095e-35 1.5282534213080767 0.73296434592151793 142.50000000000003 190.50000000000003 -0.25377437932615238
decision_type=2 2 2 2 2 2 2 2 2 2 2 2 2 2 2 2 2 2 2 2 2 2 2 2 2 2 2 2 2 2
left_child=1 -1 5 11 -4 10 19 8 -5 12 13 -2 -8 14 -3 -7 27 -18 -11 -6 -13 -17 23 26 -24 -26 -21 29 -29 -14
right_child=3 2 4 7 6 15 9 -9 -10 18 -12 20 16 -15 -16 21 17 -19 -20 22 -22 -23 24 -25 25 -27 -28 28 -30 -31
leaf_value=-0.1073352116022559 0.060530400200337543 0.090522385096748426 0.044104271678440457 -0.033306816263569801 -0.038331853403868001 0.10735988931293677 -0.01874423726475196 -0.089551628355743179 -0.090862604389260138 0.09280101397216986 -0.090474045326189564 0.0041571965716829971 0.053286215888128388 0.045183034746152539 -0.057930058536127149 0.13382523971227908 0.19888589514992144 -0.030782019019487239 -0.049671736463054117 0.029044438984672058 -0.044261118092216244 0.035018250591890815 0.01069850814772981 0.12963322053715817 -0.089992754414484122 0.10621203302675722 -0.036305608265364629 -0.04292027370615116 0.08545890295890668 0.19668437866330374
leaf_weight=93.091460205614567 13.900363728404043 95.224867925047874 247.4020664691925 178.76284191757441 31.567844115197659 137.03842431306839 143.64173392951488 384.06691585481167 113.42803449183702 5.4542098194360724 6.2360530048608771 51.145782142877579 11.664550095796587 545.70956741273403 5.7869410514831534 12.400820404291151 3.071886219084262 37.493070349097252 112.22299309819937 351.65465062856674 226.84765892475843 48.429701685905457 109.10591149330139 9.5299988240003568 20.374421298503879 3.7424220889806739 21.781931139528751 16.545566126704216 19.772998064756393 7.6807149201631537
leaf_count=1301 70 393 1105 1515 187 581 880 4703 1351 27 33 330 62 2267 25 53 19 244 889 1761 2084 201 554 51 118 21 117 101 111 45
internal_value=-0.00139928 0.0264006 0.0326145 -0.0616027 0.0129252 0.0592897 0.00440457 -0.0749037 -0.0556499 -0.0145208 0.0495857 -0.0307869 -0.000515851 0.0509362 0.0820176 0.0913124 0.0266939 -0.0133898 -0.0430683 0.0167581 -0.035353 0.0551609 0.0201272 0.0278307 -0.00201759 -0.0595459 0.0252327 0.0559048 0.0269735 0.11022
internal_weight=3064.78 2096.62 2003.53 968.152 1152.71 850.826 905.305 676.258 292.191 357.548 652.957 291.894 239.871 646.721 101.012 197.869 96.2288 40.565 117.677 547.757 277.993 60.8305 516.189 382.967 133.223 24.1168 373.437 55.6638 36.3186 19.3453
internal_count=21199 11146 9845 10053 6292 3553 5187 7569 2866 2378 2718 2484 1462 2685 418 835 582 263 916 2809 2414 254 2622 1929 693 139 1878 319 212 107
is_linear=0
shrinkage=0.1


Tree=11
num_leaves=31
num_cat=0
split_feature=4 4 4 11 4 0 11 4 13 11 9 0 12 13 1 3 2 2 1 2 15 6 15 9 14 15 2 11 11 10
split_gain=432.719 150.09 87.8989 37.2051 33.3298 19.7763 18.6717 17.7947 13.5856 12.8153 12.456 11.3714 12.3639 10.9867 10.9977 10.9682 10.5491 10.3569 12.1329 10.1901 9.31394 9.44107 8.90445 8.69322 9.01808 8.37789 8.69482 8.21283 8.09851 8.01906
threshold=1.0000000180025095e-35 -1.4758565576151286 -1.0600076023727905 -0.18827917872902231 -0.50554232871633997 1989.5000000000002 -0.77422546979249784 1.0192371738388992 -1.4579913591307252 -0.87546226353644918 -0.48406946822950797 2002.5000000000002 -1.6411444936005011 -1.0255636969348807 51.500000000000007 13.500000000000002 255.50000000000003 245.50000000000003 28.500000000000004 384.50000000000006 0.47603418141301573 -0.49168272425638515 4.0496453845199198 1.6265954850517785 1.973674607202164 0.46883757774041729 255.50000000000003 -1.0595291612527242 0.044872225044926294 1.2877130090293698
decision_type=2 2 2 2 2 2 2 2 2 2 2 2 2 2 2 2 2 2 2 2 2 2 2 2 2 2 2 2 2 2
left_child=1 -1 6 13 8 7 10 29 16 17 -3 -11 -13 25 -15 -10 -4 18 27 -16 21 -12 -22 24 -14 -2 -27 -6 -17 -5
right_child=3 2 4 5 9 -7 -8 -9 15 11 20 12 23 14 19 28 -18 -19 -20 -21 22 -23 -24 -25 -26 26 -28 -29 -30 -31
leaf_value=-0.10637643437724449 -0.0098230236795419958 0.10549632104156581 -0.0019083857134315125 -0.02612014902282522 -0.0093151034788732778 -0.088934582242050517 0.037899485590027628 -0.081094771923096234 -0.04793952669909058 -0.001168908065176085 -0.079059189915809069 0.23829989869343057 -0.053223039002070795 -0.042315790003073561 -0.057149239946628322 0.031443716453558826 0.081638396847899919 0.010334471377279613 0.18575544948740405 0.12491061823466416 0.10452652291568765 0.056595224506292001 -0.014428755949790761 0.045030138729021479 0.10583101830788677 -0.023053512621529007 0.14455242033703911 0.13514193442284278 0.0045438671340423632 -0.08997589536431197
leaf_weight=84.953112840652466 35.612228870391846 92.508016854524612 19.031747981905937 163.59211352467537 12.470506176352504 324.32503855228424 237.18541726469994 139.00629907846451 20.769271291792393 318.52318821847439 5.2512849271297446 1.6165902465581883 111.36147314310074 210.34428762644529 5.084113270044325 536.77787490189075 73.402634799480438 105.88239718973637 7.7349961400032035 7.7770921885967255 69.652266129851341 222.9122436195612 6.9177160412073126 10.971463598310946 3.682592697441577 4.8862426280975333 8.443814203143118 5.7504605948925027 141.40201197564602 22.353587985038757
leaf_count=1301 247 402 80 1531 57 4132 990 1811 116 1894 24 9 922 1907 46 2404 306 509 36 63 309 900 28 86 20 33 47 28 725 236
internal_value=-0.00137097 0.0238112 0.0293306 -0.0584558 0.0150747 -0.0714652 0.0601011 -0.0540296 0.0284076 -0.00318046 0.0733573 -0.0112748 -0.0364954 -0.0274185 -0.036827 0.0236428 0.0644366 0.0242116 0.0808208 0.0529412 0.0636008 0.0534731 0.0937795 -0.0400206 -0.0481317 0.0154899 0.0831151 0.0362749 0.025835 -0.0337966
internal_weight=3010.18 2088.76 2003.8 921.425 1369.38 649.277 634.427 324.952 791.384 577.994 397.242 446.155 127.632 272.148 223.205 698.949 92.4344 131.838 25.956 12.8612 304.734 228.164 76.57 126.016 115.044 48.9423 13.3301 18.221 678.18 185.946
internal_count=21199 11146 9845 10053 7192 7710 2653 3578 3631 3561 1663 2931 1037 2343 2016 3245 386 630 121 109 1261 924 337 1028 942 327 80 85 3129 1767
is_linear=0
shrinkage=0.1


Tree=12
num_leaves=31
num_cat=0
split_feature=4 4 4 11 4 4 0 0 13 15 11 11 0 14 3 12 2 2 1 9 1 0 4 13 1 11 12 13 0 11
split_gain=364.993 129.809 72.2738 34.7505 26.8221 19.2681 21.331 16.7698 11.0389 10.4473 10.3531 10.1412 9.62146 9.59829 8.93298 8.92476 8.50947 8.0107 8.92609 7.95954 7.9313 7.78456 14.2604 8.00452 7.78352 7.36235 10.4767 11.0047 10.707 8.05062
threshold=1.0000000180025095e-35 -1.4758565576151286 -1.0600076023727905 -0.1391946726713488 -0.50554232871633997 0.74200453701067381 1995.5000000000002 2005.5000000000002 -1.4579913591307252 3.0023768787110723 -0.87546226353644918 -1.326426162941323 2002.5000000000002 5.8361339642701253 13.500000000000002 -1.3984579407474997 255.50000000000003 245.50000000000003 28.500000000000004 1.6265954850517785 41.500000000000007 1985.5000000000002 0.46477190018244846 -0.34204900507693342 24.500000000000004 0.96520671362630195 1.0426832673621009 1.7410433891568113 1975.5000000000002 0.36392151441980303
decision_type=2 2 2 2 2 2 2 2 2 2 2 2 2 2 2 2 2 2 2 2 2 2 2 2 2 2 2 2 2 2
left_child=1 -1 7 13 8 6 25 11 16 -9 17 -3 -12 21 -10 -14 -4 18 -6 -17 -19 22 -2 -23 -11 26 -5 28 29 -28
right_child=3 2 4 5 10 -7 -8 9 14 24 12 -13 15 -15 -16 19 -18 20 -20 -21 -22 23 -24 -25 -26 -27 27 -29 -30 -31
leaf_value=-0.10550055024613592 0.026709427551222284 0.069090541302330194 -0.0017178203592291255 -0.028752330045070797 0.032071058989631397 -0.084937380485526445 -0.086061017432407114 0.086136972803013079 -0.044264556585032797 -0.061711172399679583 -0.0010527384972425545 0.034572265009433542 0.10265332232867462 0.097933820218303325 0.023097474439520788 -0.047408801407595257 0.073306714687869742 0.020402889798925489 0.15752567374988141 0.041242316368328272 -0.057722934095083778 -0.021937557792743929 -0.041416279151274153 -0.068379149787802559 0.078323934383397881 -0.071139086948476496 0.080958871877568228 -0.11617714601420981 0.030569776829484835 0.33605213409142898
leaf_weight=77.474436566233635 56.335058145225048 115.49926127493382 19.02886526286602 117.7243188098073 18.483741164207462 333.46142509579659 97.730479069054127 175.84633626043797 20.271169729530811 8.7552073597908038 318.31652358174324 323.50419522821903 4.6107965111732474 6.0946875736117354 682.42858028411865 108.44392830133438 73.559912517666817 91.134671524167061 8.1817916929721815 11.171210415661333 15.155269846320151 76.771363131701946 67.592217229306698 71.842482149600983 7.2609765380620948 31.301236234605312 2.5201553702354493 3.3304828628897658 11.622031919658182 2.4301837980747223
leaf_count=1301 421 472 80 1029 85 4703 1351 782 116 36 1894 1332 26 44 3129 926 306 437 36 85 72 636 635 748 31 318 20 28 100 20
internal_value=-0.00133087 0.0215065 0.0264223 -0.0553637 0.0135315 -0.0689139 -0.0488764 0.0544323 0.0254308 0.0790946 -0.0029123 0.0436538 -0.010264 -0.0261796 0.0211542 -0.033867 0.0578877 0.0215579 0.0705643 -0.0391294 0.00926338 -0.0289551 -0.0104476 -0.0443882 0.00177409 -0.0273639 -0.0174079 0.0496941 0.0830286 0.206187
internal_weight=2957.88 2079.13 2001.65 878.756 1370.79 600.12 266.659 630.866 795.289 191.863 575.498 439.003 442.542 278.636 702.7 124.226 92.5888 132.955 26.6655 119.615 106.29 272.541 123.927 148.614 16.0162 168.928 137.627 19.9029 16.5724 4.95034
internal_count=21199 11146 9845 10053 7192 7569 2866 2653 3631 849 3561 1804 2931 2484 3245 1037 386 630 121 1011 509 2440 1056 1384 67 1515 1197 168 140 40
is_linear=0
shrinkage=0.1


Tree=13
num_leaves=31
num_cat=0
split_feature=4 4 4 11 11 4 0 8 3 9 15 12 15 9 3 0 5 12 14 4 0 3 2 3 9 2 2 2 2 2
split_gain=307.757 112.623 59.403 32.2674 21.8318 18.7447 19.9903 15.5653 15.3436 11.1399 10.9761 9.74089 9.71133 9.61085 10.0119 9.19859 8.87019 8.57827 8.35421 9.10043 9.92971 9.8453 11.4558 9.67691 11.3153 9.01753 8.28839 13.9091 13.8784 8.27498
threshold=1.0000000180025095e-35 -1.4758565576151286 -1.0600076023727905 -0.1391946726713488 0.044872225044926294 0.74200453701067381 1995.5000000000002 1.0000000180025095e-35 14.500000000000002 -1.5228253102125335 4.7605863284287473 -1.6982472119188545 2.7012958332664438 -0.50972185902876221 87.500000000000014 2002.5000000000002 -0.44394804150208078 -1.5840417752821481 2.746166478615756 -0.50554232871633997 1995.5000000000002 132.50000000000003 554.50000000000011 76.500000000000014 3.4019438653436862 482.50000000000006 615.50000000000011 429.50000000000006 449.50000000000006 765.50000000000011
decision_type=2 2 2 2 2 2 2 2 2 2 2 2 2 2 2 2 2 2 2 2 2 2 2 2 2 2 2 2 2 2
left_child=1 -1 7 17 8 6 -5 13 12 -10 -9 29 -4 14 -3 16 -6 -2 19 -13 21 -21 25 -22 -25 -23 27 -18 -29 -11
right_child=3 2 4 5 15 -7 -8 10 9 11 -12 18 -14 -15 -16 -17 26 -19 -20 20 23 22 -24 24 -26 -27 -28 28 -30 -31
leaf_value=-0.10469515635739522 0.051427744311340208 0.12217067573401699 -0.060327356570007901 -0.025270769330421612 0.092262009708911796 -0.082503535197734498 -0.083650032215154102 0.084833120996505973 0.12633811886597004 0.044452535870483791 -0.070796203602153038 0.025059175169546283 0.11429941177787327 0.035373516348504171 0.044801532429774707 -0.044887328952007657 -0.013606612796006777 -0.02827785126151422 0.14565549922520404 0.0035725481106999297 0.03359666840044713 0.06627115616827943 -0.0055098115263244431 -0.031417085998155264 0.14923844168362621 0.2161646679655958 -0.034976040758523619 0.19141592318761569 0.028854769469031413 0.1516146041091585
leaf_weight=70.613619741052389 14.245951458811758 27.659904062747955 33.650789238512516 165.51401782780886 9.591845974326132 310.17884194105864 90.849977076053619 130.08318372070789 10.058673456311224 55.590585872530937 4.6953144371509543 571.09691219031811 3.517504394054412 422.49911914765835 42.309233963489532 61.988475181162357 128.646315343678 258.82546381652355 5.0959525257349005 124.90353494882584 34.170093655586243 38.287609666585922 23.018769547343254 123.54416981339455 3.5671695023775092 4.4834637790918341 70.411364711821079 5.7908091843128195 56.421069510281086 8.2789906263351423
leaf_count=1301 70 122 219 1515 50 4703 1351 602 50 235 19 2517 22 1726 184 506 728 2414 23 662 200 195 122 818 22 23 409 31 324 36
internal_value=-0.00129096 0.0194222 0.0238057 -0.0523568 0.0121515 -0.065967 -0.0459591 0.0492995 0.0192901 0.0216302 0.0794114 0.0205685 -0.0438012 0.0410585 0.0753868 -0.0101373 -0.00218458 -0.0241197 0.0179691 0.0172642 0.00461649 0.0200632 0.0513712 -0.0136472 -0.0263473 0.0819837 -0.00565195 0.00516629 0.0439863 0.0583432
internal_weight=2909.59 2069.97 1999.36 839.614 1372.11 566.543 256.364 627.247 1039.26 1002.1 134.778 992.037 37.1683 492.468 69.9691 332.85 270.861 273.071 928.168 923.072 351.975 190.693 65.7898 161.281 127.111 42.7711 261.27 190.858 62.2119 63.8696
internal_count=21199 11146 9845 10053 7192 7569 2866 2653 5144 4903 621 4853 241 2032 306 2048 1542 2484 4582 4559 2042 1002 340 1040 840 218 1492 1083 355 271
is_linear=0
shrinkage=0.1


Tree=14
num_leaves=31
num_cat=0
split_feature=4 4 4 10 11 0 8 0 14 4 3 4 12 2 0 13 15 0 13 12 3 9 5 9 5 0 10 12 9 12
split_gain=262.1 95.4687 58.518 28.9924 27.6518 17.7969 12.7032 12.5827 12.3082 11.0057 10.0514 9.97083 10.0507 8.0485 7.946 13.4952 9.32392 12.3288 11.3262 8.42975 8.532 8.61218 7.8297 7.64133 8.14161 7.52121 7.24333 7.19958 7.15286 7.09349
threshold=0.18753926335422311 -1.4758565576151286 -0.50554232871633997 -0.48214288130474842 -1.1423592652250478 1987.5000000000002 1.0000000180025095e-35 2010.5000000000002 6.6086258356837178 1.0192371738388992 16.500000000000004 -1.3372402392010159 -1.5840417752821481 253.50000000000003 1985.5000000000002 -0.81322466567742324 0.27197573826799465 1998.5000000000002 -1.0860105744461279 -0.27067925396002357 24.500000000000004 1.1669711707343664 1.4566183438234284 -0.76532381421889906 -0.55395303929374717 1985.5000000000002 -1.1101562617458869 -1.812452648555561 -0.80487085196352592 -0.91308483504149751
decision_type=2 2 2 2 2 2 2 2 2 2 2 2 2 2 2 2 2 2 2 2 2 2 2 2 2 2 2 2 2 2
left_child=1 -1 4 -2 6 9 7 23 -7 -5 -4 25 13 -13 -12 16 17 18 -16 -17 -21 -22 -18 -3 -25 26 -6 -26 -19 -20
right_child=3 2 10 5 11 8 -8 -9 -10 -11 14 12 -14 -15 15 19 22 28 29 20 21 -23 -24 24 27 -27 -28 -29 -30 -31
leaf_value=-0.10394933766851269 -0.013443172164838261 0.081239798922271955 -0.046926760180364457 -0.028161864293774881 0.11950967194797124 -0.082484204082821755 0.075424984536338086 -0.11894465802227897 0.18998429165373318 -0.069500656516049156 0.011837676340235727 -0.025368596132996492 0.015019715192806805 0.070782821094400677 -0.006156793618777457 -0.045521814420489311 0.083050188014548804 0.036163781058312763 0.21794208692732131 0.08712657053201564 -0.021255683939311595 0.062339703387906481 -0.057621221537789848 -0.031507309492288527 0.096224204816183212 0.080447941270697973 0.012257386479109053 0.035257884382801551 -0.07161401797160942 0.043826731303601048
leaf_weight=64.328996121883392 139.93418510258198 43.475333005189896 51.818587690591812 154.44152857363224 7.2364238053560248 298.25952982157469 149.1787822842598 4.9093274176120749 1.6671776957809914 110.46773321926594 269.18924070894718 10.326938480138777 797.91160605847836 55.453119769692421 13.227282434701921 98.476156778633595 29.261466152966022 8.3696377426385897 5.0557613521814346 8.8302197679877263 140.87137414515018 13.505401641130446 4.575383022427558 16.742712244391441 21.227303832769394 47.146788984537125 48.498738616704941 221.36578775942326 23.300269469618797 4.3556687608361226
leaf_count=1301 1251 197 426 1630 29 4545 688 26 22 1727 1561 43 3622 233 68 701 157 46 27 58 1107 109 26 69 86 198 198 895 130 23
internal_value=-0.00124314 0.0160441 0.0197298 -0.0541922 0.031205 -0.0642875 0.0514769 0.0398672 -0.0809697 -0.0454002 -0.0046197 0.0216225 0.0181171 0.0556878 -0.00107813 -0.0110167 0.0228248 -0.00284721 0.0535066 -0.0224159 -0.0084742 -0.0139425 0.0640287 0.0424419 0.0359378 0.0510503 0.0261826 0.0405925 -0.0431308 0.13736
internal_weight=2863.41 2158.64 2094.31 704.77 1423.47 564.836 456.899 307.72 299.927 264.909 670.836 966.574 863.692 65.7801 619.018 349.829 88.1455 54.3086 22.6387 261.683 163.207 154.377 33.8368 302.811 259.336 102.882 55.7352 242.593 31.6699 9.41143
internal_count=21199 12024 10723 9175 6284 7924 1961 1273 4567 3357 4439 4323 3898 276 4013 2452 477 294 118 1975 1274 1216 183 1247 1050 425 227 981 176 50
is_linear=0
shrinkage=0.1


Tree=15
num_leaves=31
num_cat=0
split_feature=4 4 4 10 0 11 14 3 11 0 8 0 14 4 13 9 2 12 3 2 13 4 12 5 8 4 2 2 9 15
split_gain=221.32 83.4968 48.3214 26.5264 17.1911 16.568 14.406 14.2265 11.9041 15.9654 11.7445 13.5743 10.8664 10.4021 9.49403 8.92988 8.72123 9.34657 9.2128 9.02868 8.59959 8.42225 8.37483 8.20084 7.93283 8.17558 7.0646 13.6228 6.97263 7.32885
threshold=0.18753926335422311 -1.4758565576151286 -0.78277496554456538 -0.48214288130474842 1987.5000000000002 -0.22202477664367262 7.3811177070973093 16.500000000000004 -0.37234607644529738 2012.5000000000002 1.0000000180025095e-35 2010.5000000000002 1.973674607202164 1.1578534922530119 1.0807774963416514 1.8267187858377547 228.50000000000003 -1.5840417752821481 24.500000000000004 400.50000000000006 -1.0255636969348807 -0.36692601030222743 0.99985622862333601 -0.681943645089374 2.2291518409050641 -1.3372402392010159 426.50000000000006 435.50000000000006 0.92889114691853858 1.7327873670501843
decision_type=2 2 2 2 2 2 2 2 2 2 2 2 2 2 2 2 2 2 2 2 2 2 2 2 2 2 2 2 2 2
left_child=1 -1 5 -2 13 10 -6 -4 12 21 11 15 14 -5 16 22 23 19 -19 -18 -11 -10 -3 -9 28 -26 -23 -28 -12 -30
right_child=3 2 7 4 6 -7 -8 8 9 20 24 -13 -14 -15 -16 -17 17 18 -20 -21 -22 26 -24 -25 25 -27 27 -29 29 -31
leaf_value=-0.10325337728794733 -0.012220102220775911 0.033509430930172036 -0.041089207589126181 -0.027931320124446875 -0.080047656984532034 0.0083707605953295371 0.23879964535055925 -0.030456815021284341 0.016261628088751881 0.1107734106579995 0.08110979543873513 -0.10617741704166872 0.12107731182638758 -0.070455481758700741 0.17102758919538613 -0.077105550682264698 -0.03515610246918479 0.047028274197816022 -0.0044988670162866042 0.086590864544827673 -0.06680975598261106 -0.032280142517793889 0.10985078486610654 0.050066248074172842 0.11307990299628914 0.012018390880828785 0.14904350723553242 -0.0039999043970677106 -0.047971262728758964 0.067269559618631611
leaf_weight=58.579723387956619 138.6181995421648 593.18127834796906 69.77510679513216 167.52494436874986 278.38510525599122 217.48174537718296 1.4242784678935994 14.724916025996206 191.48640023171902 2.8824696838855735 127.80402825772762 6.9813344478607169 9.7254746258258802 87.606254689395428 3.8363361656665793 7.1431407630443564 8.0542576014995557 39.077888488769531 309.67591178417206 24.992925003170967 50.536154981702566 98.919698782265186 14.726745024323462 89.665856771171093 9.5737127661704999 48.844123899936676 6.1109279170632353 120.58628632873297 9.1779293715953845 13.840691015124319
leaf_count=1301 1251 2439 542 1897 4551 955 16 79 989 17 598 38 44 1460 20 29 35 195 1618 108 488 725 60 432 47 213 37 909 42 64
internal_value=-0.00119211 0.0144951 0.0177973 -0.0512048 -0.0613068 0.0329438 -0.0784247 0.00252409 0.00566044 -0.0057549 0.0393727 0.0324788 0.0164081 -0.0425332 0.0143307 0.0340527 0.0130943 0.00609107 0.00127475 0.0569187 -0.0572274 0.000837201 0.0353588 0.038708 0.0598668 0.0285807 -0.0122539 0.00338177 0.0719848 0.021321
internal_weight=2820.94 2147.39 2088.81 673.559 534.941 1048.75 279.809 1040.05 970.276 470.522 831.273 622.032 499.754 255.131 490.028 615.051 486.192 381.801 348.754 33.0472 53.4186 417.103 607.908 104.391 209.24 58.4178 225.617 126.697 150.823 23.0186
internal_count=21199 12024 10723 9175 7924 4485 4567 6238 5696 3165 3530 2566 2531 3357 2487 2528 2467 1956 1813 143 505 2660 2499 511 964 260 1671 946 704 106
is_linear=0
shrinkage=0.1


Tree=16
num_leaves=31
num_cat=0
split_feature=4 4 4 13 4 0 4 11 11 9 9 14 9 11 11 0 3 3 13 10 12 11 13 1 10 12 13 14 3 2
split_gain=186.635 73.2097 41.9754 24.5975 21.1543 17.2898 15.8858 12.699 12.1426 11.9363 11.0687 12.7547 10.6825 9.88243 9.68794 9.45138 8.92762 8.41527 9.03974 7.97081 7.22081 7.24628 7.72988 7.08933 6.77958 6.64787 6.59719 7.36031 6.56351 6.33383
threshold=0.18753926335422311 -1.4758565576151286 -1.0600076023727905 -0.095611735223387923 0.74200453701067381 2000.5000000000002 -0.36692601030222743 -0.57175188230459539 -0.69139536582017402 -1.0982576295679536 -1.2082944475494186 1.0000000180025095e-35 -0.48406946822950797 0.2289391227612014 0.96520671362630195 1997.5000000000002 166.50000000000003 129.50000000000003 -0.0692630963082288 -1.9094460186709725 1.0426832673621009 -0.019551189155770091 0.9598837413191571 32.500000000000007 -0.25377437932615238 1.4424022955905735 -0.93721826057228919 2.746166478615756 168.50000000000003 255.50000000000003
decision_type=2 2 2 2 2 2 2 2 2 2 2 2 2 2 2 2 2 2 2 2 2 2 2 2 2 2 2 2 2 2
left_child=1 -1 7 8 5 14 10 12 9 -2 16 29 -3 15 20 17 -4 25 -19 -14 -5 -22 -23 -20 -25 -8 28 -28 -17 -12
right_child=3 2 6 4 -6 -7 13 -9 -10 -11 11 -13 19 -15 -16 26 -18 18 23 -21 21 22 -24 24 -26 -27 27 -29 -30 -31
leaf_value=-0.1025985789143463 0.18461132199787775 0.078779183597253263 0.096057414475826178 -0.01618475700409595 -0.081510721287107901 -0.08602062038681299 -0.0061651029189641882 0.016539890679149082 -0.036347032644534392 0.0038989823926823507 -0.10159122135769259 0.014999431873330372 0.08628399071184957 -0.031644236524049532 -0.079352873100242638 0.028102650134677595 -0.0077850539939065379 0.013604238967595132 0.04661685729630391 0.034482638051279095 -0.037325865796678202 0.19983002459528987 0.040308211332806272 0.25281264750876031 0.087043547738236859 0.13572155435522806 -0.034531905515395339 0.14540167138069549 -0.10803595218964379 -0.017384406411462477
leaf_weight=53.326287187635899 3.8910479545593253 87.501796588301659 28.431978784501553 79.637898825109005 246.33113488182425 48.281560003757477 126.24776635318995 189.97883400321007 166.47950360551476 60.26217544823885 11.544677473604677 873.96597769856453 32.928908750414848 126.99063208326697 19.64415055885911 38.24939339607954 11.68036665022373 58.38017413020134 21.969725891947746 303.33947265148163 6.4653354994952705 4.4346881024539462 9.6421837136149389 3.8131921961903572 6.9891820847988111 3.3908603489398947 110.93042504042387 2.3209415040910235 3.9027324616909018 39.477292768657207
leaf_count=1301 29 430 136 829 4365 853 739 787 2224 445 61 4058 147 1052 244 202 57 321 131 1289 59 39 88 21 43 20 989 13 22 205
internal_value=-0.00114155 0.0130984 0.0160617 -0.0482797 -0.0628469 -0.0354981 0.00688168 0.0380233 -0.0221033 0.0148596 0.0143923 0.0121622 0.0476544 -0.00752362 -0.0151407 0.000618696 0.0658194 0.0139165 0.0371989 0.0395553 -0.00254942 0.050312 0.0905629 0.0792304 0.145559 -0.00245388 -0.0182743 -0.0308444 0.015498 -0.0364378
internal_weight=2780.43 2135.36 2082.03 645.07 414.437 168.106 1468.29 613.749 230.633 64.1532 965.1 924.988 423.77 503.185 119.824 376.194 40.1123 220.791 91.1523 336.268 100.18 20.5422 14.0769 32.7721 10.8024 129.639 155.403 113.251 42.1521 51.022
internal_count=21199 12024 10723 9175 6477 2112 8070 2653 2698 474 4517 4324 1866 3553 1259 2501 193 1275 516 1436 1015 186 127 195 64 759 1226 1002 224 266
is_linear=0
shrinkage=0.1


Tree=17
num_leaves=31
num_cat=0
split_feature=4 4 4 13 4 0 4 0 14 3 15 9 14 3 1 11 11 10 12 11 2 11 3 4 2 2 0 2 12 1
split_gain=157.385 64.3218 34.5424 22.5809 20.1885 15.8864 12.8803 11.4925 10.8714 9.35849 8.98333 8.8732 10.3845 8.85286 8.7249 8.54231 7.87348 7.81646 8.1797 7.67631 7.37453 11.3262 7.16626 8.61085 7.10432 14.3355 7.20637 6.89115 6.74865 6.41271
threshold=0.18753926335422311 -1.4758565576151286 -1.0600076023727905 -0.095611735223387923 0.74200453701067381 2000.5000000000002 -0.36692601030222743 2006.5000000000002 8.1536095785109026 167.50000000000003 3.0023768787110723 -1.2082944475494186 1.0000000180025095e-35 16.500000000000004 52.500000000000007 0.96520671362630195 -1.326426162941323 -1.1101562617458869 -1.5269390569637948 0.20593076054666704 425.00000000000006 -1.1239525754534205 168.50000000000003 -0.50554232871633997 394.50000000000006 413.50000000000006 1972.5000000000002 73.500000000000014 -0.37060901101714183 24.500000000000004
decision_type=2 2 2 2 2 2 2 2 2 2 2 2 2 2 2 2 2 2 2 2 2 2 2 2 2 2 2 2 2 2
left_child=1 -1 7 8 5 15 11 16 9 14 -9 22 -13 -8 17 27 -3 -2 -19 -15 -20 -22 23 -4 26 -26 -18 -5 -29 -12
right_child=3 2 6 4 -6 -7 13 10 -10 -11 29 12 -14 19 -16 -17 24 18 20 -21 21 -23 -24 -25 25 -27 -28 28 -30 -31
leaf_value=-0.10197703500638784 0.037903059247454324 0.048656249125036771 0.05847469852162368 0.086844431405478859 -0.079121098643819582 -0.083843344968017569 -0.05328378656954285 0.064712817960527441 0.21431166368752919 -0.057178472867939048 -0.073372680711302346 -0.033214022154866345 0.013446396677571899 0.0045532411393837454 0.20600956080957508 -0.076529783105379418 0.0022023122878244688 0.078045789454221415 -0.0015806977140096377 -0.024924873753643537 0.13976198380832547 -0.057394206983288953 -0.037070176420209176 0.21242915411711089 -0.077318033802158473 0.014654202919455631 0.049658535567466265 0.11935853519389977 -0.015774123540561551 0.057096858850539757
leaf_weight=48.530845247209072 25.67000175267458 115.51918835937977 29.717615559697151 7.9658967778086653 229.28101340681314 44.764200657606125 37.960301902145147 148.17446871101856 1.9575503356754769 57.470931511372328 8.5398066341876966 50.439255923032761 877.23390681296587 342.69329581782222 1.842559590935706 18.397115062922239 46.844523742794991 7.6987374797463408 58.626259803771973 119.02001405507326 3.0403093621134749 70.045951820909977 6.5368441492319098 4.1389539092779151 18.906954512000084 163.50240983068943 100.96712864935398 3.8574278391897669 88.144311804324389 6.7409247159957877
leaf_count=1301 164 492 136 77 4365 853 358 741 13 747 36 266 4058 2204 15 244 191 54 757 991 21 927 33 24 78 671 413 38 900 31
internal_value=-0.00109514 0.0118262 0.0144853 -0.0454802 -0.0599889 -0.0330983 0.00617693 0.0345029 -0.0203274 -0.0223743 0.0571844 0.0129072 0.0109094 -0.0068622 -0.0103914 -0.0139071 0.0261855 -0.0128068 -0.022144 -0.0030456 -0.0280002 -0.0491927 0.0587878 0.0772956 0.0183247 0.00512117 0.0346187 -0.00238266 -0.0101083 -0.0158175
internal_weight=2744.23 2125.47 2076.94 618.762 392.41 163.129 1467.74 609.195 226.352 224.395 163.455 968.067 927.673 499.674 166.924 118.365 445.74 165.081 139.411 461.713 131.713 73.0863 40.3934 33.8566 330.221 182.409 147.812 99.9676 92.0017 15.2807
internal_count=21199 12024 10723 9175 6477 2112 8070 2653 2698 2685 808 4517 4324 3553 1938 1259 1845 1923 1759 3195 1705 948 193 160 1353 749 604 1015 938 67
is_linear=0
shrinkage=0.1


Tree=18
num_leaves=31
num_cat=0
split_feature=4 4 4 13 11 0 3 4 8 0 0 7 4 9 6 10 11 5 1 2 10 2 9 13 12 3 10 5 4 12
split_gain=133.134 54.6158 39.0708 22.3629 17.2276 15.1379 15.3417 11.0905 10.6166 9.93977 9.00871 8.99037 8.54038 7.93714 7.15311 7.097 7.0247 7.22184 6.72164 6.54269 6.24943 6.17584 6.54817 10.3858 9.5827 7.2875 6.11954 6.02895 7.55368 5.95891
threshold=0.46477190018244846 -1.4758565576151286 -0.50554232871633997 -0.05376389694637064 -1.1423592652250478 2005.5000000000002 186.50000000000003 0.18753926335422311 1.0000000180025095e-35 1985.5000000000002 2010.5000000000002 -0.0087949171058596658 1.1578534922530119 3.4019438653436862 -2.0014679266227362 -1.5098011402084295 0.044872225044926294 -0.76057839636250402 51.500000000000007 783.50000000000011 -0.93887988526194011 27.500000000000004 -0.14804005161603562 0.029931779607663783 -1.6982472119188545 16.500000000000004 1.9728185149651576 -0.11252138703374724 -0.78277496554456538 -0.84170643714355597
decision_type=2 2 2 2 2 2 2 2 2 2 2 2 2 2 2 2 2 2 2 2 2 2 2 2 2 2 2 2 2 2
left_child=1 -1 4 11 8 19 7 13 10 12 14 -2 -5 -7 -3 -13 21 -18 -16 26 -10 29 23 25 -24 -23 -4 28 -19 -6
right_child=3 2 5 9 16 6 -8 -9 20 -11 -12 15 -14 -15 18 -17 17 27 -20 -21 -22 22 24 -25 -26 -27 -28 -29 -30 -31
leaf_value=-0.10138151399894962 0.23320072516044618 0.11905940149450037 0.0051397561842007611 -0.021605724760192194 -0.007295689981973396 -0.010730644865863153 -0.087305679752079798 -0.0772569153887597 0.053031376301886785 -0.083682721276994332 -0.11263051291287025 0.07169154550088043 -0.075695390235598514 0.11453222497819532 0.029575696184338474 -0.028045439713494949 -0.072016291532018051 0.0093646693392988086 -0.046621157290881343 -0.03967037057731948 0.12177352615901527 -0.042429963835967061 0.062114693354565445 -0.041802365580461964 0.0082035215356112481 0.049248818134915766 -0.10027738987736952 -0.002016656699548008 0.16611763043018168 0.10024408091556825
leaf_weight=44.157455161213875 1.3788024708628643 8.5762348473072034 562.5881933234632 65.368772059679031 7.3952127695083645 139.25165790691972 37.923065133392811 25.886000316590071 122.87665101885796 166.60902933776379 4.5560587942600241 7.4930797815322867 52.74449523165822 5.249154105782508 276.4988220334053 149.07670459896326 13.894654497504233 8.2111253738403303 12.083065822720526 36.320412844419479 14.820011019706724 9.2809212803840619 35.12640169262886 15.996834799647329 537.29394484311342 131.81140045821667 5.561199188232421 190.75932873785496 4.9138682708144179 16.991429761052132
leaf_count=1301 11 42 3909 889 30 1110 458 409 615 3379 26 41 1046 36 1154 2012 76 37 51 265 73 47 146 77 2314 594 49 905 26 71
internal_value=-0.0010469 0.00874397 0.0109306 -0.0512104 0.0209903 -0.00653409 -0.0297818 -0.0169786 0.0374211 -0.067951 0.0269203 -0.0210334 -0.0457599 -0.00618033 0.0290599 -0.0232723 0.0135599 -0.00225992 0.0263853 0.00147743 0.06043 0.0181298 0.0164749 0.0345604 0.0115118 0.0432183 0.0041079 0.00249396 0.0680514 0.0676328
internal_weight=2710.69 2268.02 2223.87 442.671 1411.09 812.78 208.31 170.387 439.411 284.722 301.714 157.949 118.113 144.501 297.158 156.57 971.675 217.779 288.582 604.47 137.697 753.896 729.51 157.089 572.42 141.092 568.149 203.884 13.125 24.3866
internal_count=21199 13821 12520 7378 6284 6236 2013 1555 1961 5314 1273 2064 1935 1146 1247 2053 4323 1044 1205 4223 688 3279 3178 718 2460 641 3958 968 63 101
is_linear=0
shrinkage=0.1


Tree=19
num_leaves=31
num_cat=0
split_feature=4 4 4 13 4 0 3 0 4 0 3 0 3 3 10 11 12 4 14 11 12 15 4 14 0 2 12 9 11 3
split_gain=112.862 48.329 31.8218 20.6561 14.5751 12.6632 13.8859 12.1092 9.81236 9.71172 8.36805 14.9152 12.1045 14.3665 11.0174 10.4064 10.4996 7.97256 7.91472 7.81108 8.28076 9.5441 7.39207 6.8705 6.8159 6.80853 6.99654 6.42584 6.34142 6.25148
threshold=0.46477190018244846 -1.4758565576151286 -0.50554232871633997 -0.05376389694637064 -1.1986239207869032 2005.5000000000002 186.50000000000003 2000.5000000000002 0.18753926335422311 1985.5000000000002 75.500000000000014 1969.5000000000002 68.500000000000014 48.500000000000007 0.77388387957752902 -1.6608143604592229 1.3139211793742789 1.2964698106671244 1.0000000180025095e-35 -1.7589833725745694 -0.78460371882520275 1.6054089768756878 -0.78277496554456538 8.1536095785109026 1955.5000000000002 168.50000000000003 -1.4698363386454416 -0.36708458884819178 0.81795319545328171 206.50000000000003
decision_type=2 2 2 2 2 2 2 2 2 2 2 2 2 2 2 2 2 2 2 2 2 2 2 2 2 2 2 2 2 2
left_child=1 -1 4 23 7 29 8 -3 -7 17 12 -12 13 14 18 22 28 -5 -6 27 21 25 -13 -2 -22 26 -21 -14 -17 -4
right_child=3 2 5 9 10 6 -8 -9 -10 -11 11 15 19 -15 -16 16 -18 -19 -20 20 24 -23 -24 -25 -26 -27 -28 -29 -30 -31
leaf_value=-0.1008053208921024 -0.02166143032018452 0.022427228877945824 -0.00081172463411294899 -0.023179962917876575 -0.10416468993233979 -0.0055995297042656031 -0.084399036295099858 0.05915800877041362 -0.074284475422821392 -0.081491134363408366 -0.036280882214824166 0.036894399272458876 0.069272065732410279 -0.12036088676687549 -0.088952040058828952 0.0072957362394700954 0.13731443891459913 -0.07845204852809122 0.021353839884319298 0.06174533526156626 0.15603139034494851 -0.053944716431265631 0.13830446909451141 0.17077151479338126 0.057837922086532101 0.049351420094169922 -0.072929309351214305 -0.072795632833024634 -0.057394381817663744 0.049759117031957505
leaf_weight=40.172195557504892 153.19618858769536 257.25223883986473 579.34545860812068 72.873158521950245 5.1878859624266616 143.95332858711481 35.435869693756104 137.84905464947224 24.312157474458218 154.60390120744705 75.886477530002594 36.413094162940979 4.5644022077321997 8.735355392098425 10.360209077596663 465.99860067665577 6.0908441245555869 40.656147938221693 158.6927606984973 6.2186902910470989 7.6580265611410132 13.325032040476797 8.9558039307594282 1.8781126216053952 91.904721438884735 75.240414410829544 10.159885451197622 10.525433868169783 15.662754409015177 25.521423883736134
leaf_count=1301 2053 1058 4064 1065 29 1146 458 705 409 3379 329 167 21 38 54 2105 28 870 706 27 32 58 38 11 398 324 44 44 79 159
internal_value=-0.000994715 0.0078969 0.00986815 -0.0483813 0.018955 -0.00594036 -0.0275052 0.0352424 -0.0155236 -0.0651825 0.0125934 0.0051987 0.0237801 0.00478395 0.0110579 0.0111031 0.00684202 -0.0429735 0.0173804 0.0396084 0.0447315 0.0251318 0.0569127 -0.0193309 0.0653906 0.0366326 -0.0217954 -0.0298227 0.00519213 0.00132203
internal_weight=2678.63 2255.42 2215.25 423.208 1406.68 808.568 203.701 395.101 168.265 268.133 1011.58 609.008 402.573 182.976 174.241 533.121 487.752 113.529 163.881 219.597 204.507 104.944 45.3689 155.074 99.5627 91.619 16.3786 15.0898 481.661 604.867
internal_count=21199 13821 12520 7378 6284 6236 2013 1763 1555 5314 4521 2746 1775 827 789 2417 2212 1935 735 948 883 453 205 2064 430 395 71 65 2184 4223
is_linear=0
shrinkage=0.1


Tree=20
num_leaves=31
num_cat=0
split_feature=4 4 11 13 4 0 10 8 0 9 0 3 12 0 14 2 11 15 12 2 12 12 4 3 0 2 2 6 13 0
split_gain=95.4411 42.8254 26.6693 19.0146 15.8761 15.8062 11.3746 11.5864 19.6162 10.9951 10.3892 10.0065 9.58573 9.43751 9.16933 9.1455 9.82648 9.11512 8.04095 7.91747 7.5523 7.48302 7.46695 7.4091 12.0849 10.1529 10.6255 13.0473 7.70415 7.26926
threshold=0.46477190018244846 -1.4758565576151286 -0.83864888399319415 -0.05376389694637064 -0.36692601030222743 2008.5000000000002 -0.42505075581009927 1.0000000180025095e-35 2010.5000000000002 1.8267187858377547 1951.5000000000002 9.5000000000000018 -0.099371099004963895 1985.5000000000002 8.9261014499244951 520.50000000000011 -1.0948086499816769 2.2840646220495247 -1.6411444936005011 128.50000000000003 1.0997859856804542 -0.74177668008643771 1.1578534922530119 75.500000000000014 1991.5000000000002 337.50000000000006 255.50000000000003 0.40067777579050096 -0.86282210363536971 1999.5000000000002
decision_type=2 2 2 2 2 2 2 2 2 2 2 2 2 2 2 2 2 2 2 2 2 2 2 2 2 2 2 2 2 2
left_child=1 -1 6 14 10 -6 7 8 9 20 12 -12 -4 22 -2 16 17 19 -7 -9 -3 29 -5 24 -13 26 27 28 -25 -8
right_child=3 2 4 13 5 18 21 15 -10 -11 11 23 -14 -15 -16 -17 -18 -19 -20 -21 -22 -23 -24 25 -26 -27 -28 -29 -30 -31
leaf_value=-0.10024220129264171 -0.020175980899985881 0.016137903953038015 0.031604631293426465 -0.017851081397578766 -0.0053079103791040458 0.17942906984000723 -0.060304219983556173 -0.045889902613687111 -0.12952274095422608 -0.10561728139834932 -0.065225938762074803 0.0075261491077225871 0.20121323653894763 -0.079247108607155378 0.22528258665312051 0.058551039234519757 -0.025145042067727337 -0.025227804367131391 -0.054489183774066079 0.076748472188629291 0.12449989653094858 0.12846907654733797 -0.070725647747316586 -0.027066389149216677 0.050734671767566644 -0.0072245518117807841 0.077535326748318978 -0.081776203865341082 0.035302041459419752 0.10538902972240574
leaf_weight=36.543233949691057 151.08233100548387 562.76686527580023 9.2639350444078428 63.014539182186127 415.00079724937677 1.4933108389377583 5.4015918746590632 5.9909097850322715 9.4398089498281461 7.3623304590582839 18.680581599473953 200.67980660498142 5.2040603011846533 143.65278548002243 1.5373691469430912 122.72273734211922 34.748949073255062 15.877442151308058 92.288441263139248 43.39871646463871 6.5060503482818595 16.610401153564453 46.356570392847061 25.382980316877365 95.549866072833538 375.04206044226885 29.127294011414051 13.652108132839201 90.143236249685287 5.1935798823833466
leaf_count=1301 2056 2489 42 889 3378 7 24 27 53 33 118 887 23 3379 8 650 171 70 1250 207 27 74 1046 110 435 1787 132 80 421 25
internal_value=-0.000941522 0.00712752 0.00890491 -0.0455805 0.000323442 -0.0136867 0.022983 0.0208437 0.0134652 0.015806 0.00858577 0.00715261 0.0926119 -0.0623955 -0.0177034 0.0402583 0.0178126 0.0406838 -0.0507644 0.0618726 0.0173763 0.0865826 -0.0402618 0.00878245 0.0214632 0.00173935 0.0229758 0.0106736 0.0215987 0.0209159
internal_weight=2649.71 2244.07 2207.53 405.644 1371.51 508.783 836.019 808.814 586.075 576.635 862.726 848.258 14.468 253.024 152.62 222.739 100.016 65.2671 93.7818 49.3896 569.273 27.2056 109.371 829.577 296.23 533.348 158.306 129.178 115.526 10.5952
internal_count=21199 13821 12520 7378 8670 4635 3850 3727 2602 2549 4035 3970 65 5314 2064 1125 475 304 1257 234 2516 123 1935 3852 1322 2530 743 611 531 49
is_linear=0
shrinkage=0.1


Tree=21
num_leaves=31
num_cat=0
split_feature=4 4 4 13 11 3 9 0 0 15 0 3 0 3 0 14 12 2 2 5 13 10 0 1 12 14 4 3 3 7
split_gain=80.5686 37.9972 23.3998 17.3914 14.1597 11.9389 10.3453 9.73113 9.11874 9.57091 9.11291 8.95135 10.8038 16.7407 11.019 8.42674 8.46298 8.47758 8.1568 10.1249 7.81645 7.41105 7.19011 13.5625 8.36799 7.03502 6.99996 6.9658 10.0157 8.66268
threshold=0.46477190018244846 -1.4758565576151286 -1.1986239207869032 -0.05376389694637064 0.044872225044926294 14.500000000000002 -0.53581149748096102 2002.5000000000002 1951.5000000000002 3.3739372938970766 1985.5000000000002 166.50000000000003 2000.5000000000002 190.50000000000003 1958.5000000000002 1.973674607202164 1.5566077322272804 554.50000000000011 610.50000000000011 2.1315491976697309 -0.44124388099282602 -1.9094460186709725 1977.5000000000002 3.5000000000000004 -0.61329556387014283 8.9261014499244951 1.2964698106671244 76.500000000000014 95.500000000000014 -0.20589219647399218
decision_type=2 2 2 2 2 2 2 2 2 2 2 2 2 2 2 2 2 2 2 2 2 2 2 2 2 2 2 2 2 2
left_child=1 -1 6 25 5 8 -3 -6 -4 -10 26 15 13 -13 -15 16 17 22 -19 27 -16 -8 23 -7 -25 -2 -5 29 -29 -20
right_child=3 2 4 10 7 11 21 -9 9 -11 -12 12 -14 14 20 -17 -18 18 19 -21 -22 -23 -24 24 -26 -27 -28 28 -30 -31
leaf_value=-0.099686223977445851 -0.018465908896912627 0.068498253704697004 0.10022592555859855 -0.019303318224119265 -0.0052742766672321936 0.11817825464335677 0.075361718233868669 -0.043696228861532911 -0.070955071100975958 0.11675824059694886 -0.076946818210970339 -0.04262886689859359 -0.027748073916419688 -0.08116228534250769 0.01187812320495943 0.092917425766923467 0.10613931935702603 0.047013195992913627 0.1349310495049032 0.14675929666103379 0.05962136720439605 0.018998054106307904 0.013995042879969272 -0.035682899946644912 0.003416572864295669 0.19025989872736027 -0.073795498426612913 -0.052619509189722559 0.012120600153118942 0.022106158882651879
leaf_weight=33.240843700245023 148.69682547822595 59.934725522994995 4.0486801713705054 70.047834504395723 369.92387356236577 8.1963580027222616 25.268665924668312 80.211146142333746 37.180939089506865 2.9302765913307658 133.67198782414198 45.829551707953215 123.17871038988233 8.9180926978588086 75.648111831396818 13.584500484168528 9.7880230695009214 114.51810308173299 7.2877954840660086 5.6537949666380873 62.724711805582047 303.78043399751186 390.12431767582893 93.415483541786671 132.19849359244108 1.6325078904628743 35.531271882355213 32.549791540950537 89.887312315404415 102.77194780856371
leaf_count=1301 2056 328 19 1065 2463 41 124 996 313 18 3379 269 840 42 342 69 48 559 37 35 316 1311 1996 448 664 8 870 230 497 515
internal_value=-0.000891443 0.00643022 0.00803391 -0.0428539 0.00325315 0.00834003 0.0302865 -0.0121208 -0.0428049 -0.0572419 -0.059602 0.0100559 -0.00460689 0.0101533 0.0265765 0.0146938 0.0136166 0.0126892 0.0250819 0.0145359 0.0335202 0.0233264 0.00568452 -0.00818201 -0.0127726 -0.0161992 -0.037642 0.0113205 -0.0050905 0.0295771
internal_weight=2622.38 2232.79 2199.55 389.58 1810.57 1360.43 388.984 450.135 44.1599 40.1112 239.251 1316.28 316.299 193.12 147.291 999.976 986.391 976.603 352.669 238.151 138.373 329.049 623.935 233.81 225.614 150.329 105.579 232.497 122.437 110.06
internal_count=21199 13821 12520 7378 10757 7298 1763 3459 350 331 5314 6948 1809 969 700 5139 5070 5022 1873 1314 658 1435 3149 1153 1112 2064 1935 1279 727 552
is_linear=0
shrinkage=0.1


Tree=22
num_leaves=31
num_cat=0
split_feature=4 4 4 13 11 3 0 0 4 12 0 3 0 3 0 14 10 9 3 15 3 6 11 0 10 10 12 5 2 3
split_gain=67.8799 33.7517 19.2252 15.8115 11.5051 9.93647 9.35134 8.77018 9.25109 8.40611 8.26514 7.24075 8.8215 13.6325 8.99994 8.18081 7.56282 7.83911 7.75855 13.5742 9.3304 8.84904 7.27467 8.6477 7.03142 7.45413 7.0096 6.99207 6.89886 6.52917
threshold=0.46477190018244846 -1.4758565576151286 -1.1986239207869032 -0.05376389694637064 0.044872225044926294 14.500000000000002 2000.5000000000002 1994.5000000000002 1.1578534922530119 -0.19930085606208217 2002.5000000000002 166.50000000000003 2000.5000000000002 190.50000000000003 1958.5000000000002 -1.1162928784522046 0.67397265996189348 -1.2082944475494186 165.50000000000003 0.3929805490548049 145.50000000000003 1.7791889327589652 -1.2926805650266726 2018.5000000000002 -0.99597201075658892 -0.31086650482080141 -1.3556309020087347 -1.3817092774295181 627.50000000000011 202.50000000000003
decision_type=2 2 2 2 2 2 2 2 2 2 2 2 2 2 2 2 2 2 2 2 2 2 2 2 2 2 2 2 2 2
left_child=1 -1 6 -2 5 9 -3 8 -5 -4 28 15 13 24 -15 -7 17 27 20 -20 -19 22 23 -21 -13 -26 -12 -17 -6 -30
right_child=3 2 4 7 10 11 -8 -9 -10 -11 26 12 -14 14 -16 16 -18 18 19 21 -22 -23 -24 -25 25 -27 -28 -29 29 -31
leaf_value=-0.099131749393401525 -0.014803078479441021 0.016418991305931191 -0.0023812479644546758 -0.020176568575623485 0.002959823392999333 -0.072843693294106684 0.04936618515996842 -0.083695122790349671 -0.070575846420556795 -0.092286048915358396 0.14446306595672942 0.049301820670232005 -0.02525601066513692 -0.074919289742166162 0.029874532811009137 0.027112021801436199 0.10629611601188996 0.010553609286614056 -0.039530575826693073 -0.027802985340055306 -0.065221625228690155 -0.0067327233897882645 0.1329128917401714 0.12577024502563469 -0.10579546210823304 -0.01622770251363571 -0.045505771174170685 0.11787151402962787 -0.034687188936934392 0.099431020248083035
leaf_weight=30.237362824380398 148.23465962335467 255.88741810619831 24.88538708537817 82.524335701018572 279.71212258189917 10.931026346981524 129.86716090142727 79.012165430933237 65.191052254289389 17.866548869758844 1.9934597201645363 7.4958101212978354 121.87146012857556 8.7064108699560148 139.61882295832038 24.989147190004587 8.8261835277080518 865.84091699868441 14.287968456745146 8.1002529859542793 16.560508504509926 11.021464481949804 21.384729485958818 6.6990186721086493 16.982556082308292 20.517316181212664 75.765955399721861 12.854860741645096 85.365583043545485 3.7909955494105807
leaf_count=1301 2064 1058 191 1344 1836 64 705 2236 1734 159 10 38 840 42 658 134 44 4411 89 39 105 53 99 33 103 128 986 68 606 21
internal_value=-0.000842801 0.00579843 0.007246 -0.0401993 0.00291765 0.00749245 0.0275109 -0.0568034 -0.0424192 -0.0399535 -0.011007 0.00903299 -0.00418566 0.00909731 0.0237233 0.0131932 0.0141426 0.0133141 0.0115249 0.0458686 0.00913149 0.0717169 0.0956122 0.0417133 -0.0391164 -0.0567902 -0.0406357 0.0579412 -0.00476118 -0.0289844
internal_weight=2597.02 2222.06 2191.82 374.962 1806.07 1359.44 385.755 226.728 147.715 42.7519 446.628 1316.69 315.192 193.321 148.325 1001.5 990.565 981.739 943.895 61.4934 882.401 47.2055 36.184 14.7993 44.9957 37.4999 77.7594 37.844 368.869 89.1566
internal_count=21199 13821 12520 7378 10757 7298 1763 5314 3078 350 3459 6948 1809 969 700 5139 5075 5031 4829 313 4516 224 171 72 269 231 996 202 2463 627
is_linear=0
shrinkage=0.1


Tree=23
num_leaves=31
num_cat=0
split_feature=4 4 11 13 4 0 8 0 0 10 12 10 2 2 2 13 2 9 5 0 10 11 0 12 0 4 0 11 12 13
split_gain=57.0591 30.0115 16.7797 14.3233 10.5617 12.4966 10.0846 10.6933 8.57196 8.0776 7.45421 7.5837 6.3636 8.16927 6.26094 7.76257 6.33409 6.15283 11.1825 6.15087 6.98041 6.08905 7.22179 8.84917 8.6355 6.05768 6.31205 11.1967 13.2333 24.4604
threshold=0.46477190018244846 -1.4758565576151286 -1.1423592652250478 -0.05376389694637064 -0.22830969188811484 2012.5000000000002 1.0000000180025095e-35 2010.5000000000002 1985.5000000000002 -1.7952617676816744 1.0426832673621009 -0.82469563427264203 648.50000000000011 575.50000000000011 292.50000000000006 -0.81322466567742324 472.50000000000006 -0.78514999186676582 -0.60759616084044288 1957.5000000000002 0.4313311266096353 -0.4060916743599477 1963.5000000000002 -0.61329556387014283 1969.5000000000002 1.2964698106671244 1974.5000000000002 1.100189105284904 0.65723991871321663 1.2326696500878616
decision_type=2 2 2 2 2 2 2 2 2 2 2 2 2 2 2 2 2 2 2 2 2 2 2 2 2 2 2 2 2 2
left_child=1 -1 6 19 9 12 7 10 25 -4 11 17 13 21 -13 -16 -17 -3 -19 -2 -21 22 23 -6 -24 26 -5 28 -28 -30
right_child=3 2 4 8 5 -7 -8 -9 -10 -11 -12 14 -14 -15 15 16 -18 18 -20 20 -22 -23 24 -25 -26 -27 27 -29 29 -31
leaf_value=-0.098573317352064094 -0.079829097326436171 0.047027285256663595 0.11150144255828814 -0.045452760532971571 -0.016964226299616563 -0.054052863114650164 0.044331429613602834 -0.1234008354994422 -0.072349065996606052 0.0057994818367022964 0.12977297454428996 0.12732044102365733 -0.02854562173161326 0.039063496824114342 -0.0329775698929144 -0.00092844302593852394 0.15326546845813016 -0.081876291350103936 0.0087394312438153817 0.0012716645866526531 -0.069055647685794863 -0.015913127585032938 -0.083697236430139571 0.16341670687739504 0.020836873492308325 -0.068788003629633748 -0.020208228840591987 -0.10584412151467747 0.21885600518917714 -0.084009534020965254
leaf_weight=27.507138254120946 12.758511181920765 37.98120129108429 7.2725729495286933 34.382989857345819 4.5068869516253471 59.980335403233767 148.35790488123894 5.6248684003949156 116.77062434144318 1224.423665329814 5.624324604868888 9.7670581340789813 87.702222362160683 49.786801252514124 10.063383072614672 4.5831819027662259 6.3624221831560135 14.339964896440504 270.70982387661934 117.72261602059007 16.035947728902102 168.1620981246233 9.2945283874869329 6.8584956005215627 52.77039684727788 31.131469734013081 14.712108638137581 6.1611598581075659 8.2306277453899366 3.9446681663393965
leaf_count=1301 182 198 31 515 30 868 791 33 3379 5868 24 42 815 454 44 19 28 62 1157 1579 303 1580 60 45 371 870 234 125 130 61
internal_value=-0.000794767 0.00522808 0.00653534 -0.0376072 0.00167657 -0.0116402 0.0223468 0.0134123 -0.0540186 0.0064236 0.0155533 0.0137376 -0.00492947 0.00217875 0.0611698 0.0304164 0.0887009 0.00921862 0.00418084 -0.0134876 -0.00715968 -0.00542237 0.0186024 0.0918875 0.00518238 -0.0323019 -0.0154571 0.0157497 0.0436125 0.120731
internal_weight=2573.53 2211.68 2184.17 361.851 1670.76 439.062 513.414 365.056 215.334 1231.7 359.431 353.807 379.081 291.379 30.776 21.009 10.9456 323.031 285.05 146.517 133.759 241.592 73.4303 11.3654 62.0649 98.563 67.4316 33.0486 26.8874 12.1753
internal_count=21199 13821 12520 7378 10122 4223 2398 1607 5314 5899 1574 1550 3355 2540 133 91 47 1417 1219 2064 1882 2086 506 75 431 1935 1065 550 425 191
is_linear=0
shrinkage=0.1


Tree=24
num_leaves=31
num_cat=0
split_feature=4 4 11 11 12 4 14 11 10 12 3 2 1 2 5 0 0 1 9 4 4 3 3 3 12 3 12 3 3 12
split_gain=48.0593 26.7082 15.1155 13.2134 10.7936 10.1517 9.4906 8.18038 10.2209 7.43715 7.40565 6.78586 9.00373 8.00523 8.63156 7.86457 6.65776 6.56881 22.7377 7.23678 6.88053 6.28638 14.7365 17.8879 16.3799 15.8016 11.1963 11.1541 12.6091 10.6006
threshold=0.46477190018244846 -1.4758565576151286 -1.6117298544015497 0.41300602047747653 -1.6982472119188545 -1.3372402392010159 -1.1162928784522046 -1.7589833725745694 -1.8523538931763237 -1.1843227470536752 132.50000000000003 774.50000000000011 4.5000000000000009 762.50000000000011 1.6752689620576242 2020.5000000000002 1957.5000000000002 46.500000000000007 -0.89348462249971161 1.4350861290812371 0.74200453701067381 142.50000000000003 131.50000000000003 74.500000000000014 -0.19930085606208217 108.50000000000001 -0.91308483504149751 68.500000000000014 49.500000000000007 -0.78460371882520275
decision_type=2 2 2 2 2 2 2 2 2 2 2 2 2 2 2 2 2 2 2 2 2 2 2 2 2 2 2 2 2 2
left_child=1 -1 7 9 16 -6 -7 8 -3 -2 -10 13 -13 21 15 -15 -4 -11 -19 20 -20 22 23 27 -24 -25 -27 28 -8 -29
right_child=3 2 4 -5 5 6 11 -9 10 17 -12 12 -14 14 -16 -17 -18 18 19 -21 -22 -23 24 25 -26 26 -28 29 -30 -31
leaf_value=-0.098005628161577263 0.033597745849722527 0.053394146980291747 0.13041967103359317 -0.060397532988477665 0.028744697518730197 -0.072304175693507208 0.000950164911618346 0.060736199679587467 -0.0483683037837596 -0.031753068410588031 0.019024724761976253 0.072173742809967842 -0.032717748124120559 0.014456995566783152 0.16301046980179446 0.1838094337540821 0.028201242867275125 0.5014087396067477 0.056643195075983914 0.20535256400490925 -0.092407617170300382 -0.0086577175242529541 0.010445961895333049 -0.046269615954323377 0.068211923990094833 -0.058030289698977215 0.014915518195609698 0.0018080422902671382 -0.097008632117085436 0.04325645297085394
leaf_weight=25.02645556256175 22.998200071975589 46.156459972262383 6.8284989744424811 130.37581044621766 128.96455386281013 18.126995302736759 330.59792671352625 68.494888305664062 26.903745457530022 181.63654893264174 41.391417197883129 8.9283565878868085 98.101089507341385 35.282368302345276 5.3697105385363093 2.9732365086674681 95.296073943376541 0.9854673370718946 5.9246750548481923 1.5894798189401615 6.4893469009548426 483.21313594281673 172.54066488146782 136.51921624317765 68.604664150625467 25.776116549968719 114.55182871595025 111.1728241071105 13.683990739285944 138.67055803909898
leaf_count=1301 186 243 30 3530 573 178 1985 320 122 3412 208 68 644 232 35 22 439 23 75 34 118 3132 859 977 385 137 672 512 89 658
internal_value=-0.000757087 0.00471128 0.00589148 -0.0351793 0.00336895 0.00166063 -0.000319338 0.033402 0.0170435 -0.020209 -0.00752364 0.000428016 -0.0239677 0.00202114 0.044284 0.0276191 0.035036 -0.0265025 0.0371242 0.00445112 -0.0212721 0.000865437 0.00500323 -0.0010538 0.0268801 -0.0220479 0.00151648 0.0087289 -0.00294335 0.0248132
internal_weight=2553.17 2203.17 2178.15 350 1995.2 1893.08 1764.11 182.947 114.452 219.624 68.2952 1745.99 107.029 1638.96 43.6253 38.2556 102.125 196.626 14.989 14.0035 12.414 1595.33 1112.12 870.972 241.145 276.847 140.328 594.125 344.282 249.843
internal_count=21199 13821 12520 7378 11627 11158 10585 893 573 3848 330 10407 712 9695 289 254 469 3662 250 227 193 9406 6274 5030 1244 1786 809 3244 2074 1170
is_linear=0
shrinkage=0.1


Tree=25
num_leaves=31
num_cat=0
split_feature=4 4 11 0 13 4 9 1 0 2 12 9 11 12 15 12 5 3 10 11 3 5 3 3 14 2 15 0 3 12
split_gain=40.3959 24.3487 14.366 11.9729 14.7648 10.5427 8.42702 8.11768 14.694 10.8355 7.90785 7.57207 7.49264 21.2761 7.44103 7.47912 11.827 7.3647 6.41776 9.93264 6.20814 9.82119 9.12761 19.2051 9.45737 7.4197 6.95214 7.38225 6.13466 15.7106
threshold=0.18753926335422311 -1.4758565576151286 0.96520671362630195 1989.5000000000002 -0.28160212756568653 -1.1986239207869032 -0.53581149748096102 6.5000000000000009 1984.5000000000002 731.50000000000011 1.0000000180025095e-35 -0.82454929598299065 -0.1622030348858832 0.52875880249692175 0.46883757774041729 -0.54191716597220141 0.5618343456263839 132.50000000000003 1.0593445070507741 0.81795319545328171 16.500000000000004 -2.4141040903545412 74.500000000000014 125.50000000000001 1.973674607202164 554.50000000000011 2.7012958332664438 1951.5000000000002 142.50000000000003 -0.19930085606208217
decision_type=2 2 2 2 2 2 2 2 2 2 2 2 2 2 2 2 2 2 2 2 2 2 2 2 2 2 2 2 2 2
left_child=1 -1 3 7 10 6 -3 8 9 -2 11 -5 -10 -14 -13 16 -16 -18 -6 -20 26 -22 25 -24 28 -23 27 -7 29 -25
right_child=2 5 -4 4 18 20 -8 -9 12 -11 -12 14 13 -15 15 -17 17 -19 19 -21 21 22 23 24 -26 -27 -28 -29 -30 -31
leaf_value=-0.097423481852277755 -0.025015533763104059 0.057750460747370773 -0.071967983596107149 0.055651869992576722 -0.063906161467768341 0.085572108649732817 0.0154496259578562 -0.010174657278155842 0.042698656284671913 0.22105754602408131 0.17372010548649952 -0.053687316765102189 0.58586527203785244 -0.011424268737736776 -0.028226232457727363 -0.086404291721906806 0.019396788527243532 0.22796829617574882 -0.056081880971030541 0.30391619217142801 0.16570623434264889 0.0053302793161601643 -0.027179344405499184 0.0021196004005661607 0.1155386949949693 0.029281422618683731 0.10004499722289735 -0.039130492910586012 -0.0019609981366043379 0.054641723489551978
leaf_weight=22.773434761911631 11.666647890582682 55.134186558425426 61.370733303949237 14.384108357131479 116.84157005511224 5.0848301649093619 322.99350219964981 211.58291595429182 1.3137906864285471 2.113653225824236 2.4562248326838008 34.822658929973841 1.440158320590853 1.0178932864218948 7.7053954005241412 4.7236207239329806 2.7065800502896309 4.5205247737467289 2.058855358511209 1.2208992727100847 3.7700230851769438 336.52839930728078 226.25912689045072 209.76675090566278 7.7833068817853919 210.08315137028694 4.2846297286450854 71.494881886988878 497.45539500191808 78.177149951457977
leaf_count=1301 170 328 1701 168 3163 25 1435 3066 18 30 35 465 26 17 75 86 25 40 59 31 22 1612 1353 1022 40 1011 30 570 2876 399
internal_value=-0.000718341 0.00540177 -0.026771 -0.0201758 -0.0386347 0.00655599 0.0216174 -0.00475346 0.0605965 0.0127277 -0.00259309 -0.00888189 0.235484 0.338524 -0.0259208 0.0232701 0.0579636 0.149857 -0.0600336 0.0779286 0.00310582 0.00449769 0.00410961 -0.00148067 0.00585 0.0145356 -0.0239148 -0.0308503 0.00476299 0.0163794
internal_weight=2533.53 2051.59 481.946 420.575 191.44 2028.82 378.128 229.135 17.5521 13.7803 71.3191 68.8629 3.77184 2.45805 54.4788 19.6561 14.9325 7.2271 120.121 3.27975 1650.69 1569.82 1566.05 1019.44 793.183 546.612 80.8643 76.5797 785.399 287.944
internal_count=21199 12024 9175 7474 4147 10723 1763 3327 261 200 894 859 61 43 691 226 140 65 3253 90 8960 8335 8313 5690 4337 2623 625 595 4297 1421
is_linear=0
shrinkage=0.1


Tree=26
num_leaves=31
num_cat=0
split_feature=11 4 4 4 9 0 11 13 0 4 2 12 3 0 10 10 15 9 6 12 2 1 6 5 9 5 5 3 9 1
split_gain=35.2507 14.2854 13.8291 11.1034 8.21681 9.00176 8.45185 7.48727 7.20875 6.69259 8.04978 8.46431 7.20934 6.60128 6.52295 6.18386 6.05894 7.5023 6.62076 6.3567 6.14785 6.71205 7.26569 5.86924 6.48732 8.44917 8.93869 7.09113 7.23722 6.80702
threshold=0.33017591650515271 0.74200453701067381 -0.64415864713045268 -1.4758565576151286 -1.2082944475494186 1989.5000000000002 -0.079372930913559528 0.33681592697245649 1978.5000000000002 0.88062085542478641 789.50000000000011 -0.19930085606208217 115.50000000000001 1985.5000000000002 0.16014353051005251 -1.8523538931763237 1.6504651965103803 0.095048029895622929 3.315710193251161 -0.61329556387014283 746.50000000000011 23.500000000000004 0.52188123929432118 -1.1820899420832336 -0.57361248300159906 -0.16611222483624591 -0.21091939361355491 76.500000000000014 1.0303869923968723 16.500000000000004
decision_type=2 2 2 2 2 2 2 2 2 2 2 2 2 2 2 2 2 2 2 2 2 2 2 2 2 2 2 2 2 2
left_child=2 3 8 -2 -4 9 7 16 -1 10 11 -6 -13 14 -3 -10 18 -18 -7 20 21 22 -19 -17 -25 26 27 29 -29 -26
right_child=1 13 4 -5 5 6 -8 -9 15 -11 -12 12 -14 -15 -16 23 17 19 -20 -21 -22 -23 -24 24 25 -27 -28 28 -30 -31
leaf_value=0.00011801030079116112 -0.10164611430184117 0.10338580521024276 0.045520710814033194 -0.013083326038121937 -0.0015491632052231743 -0.0081278410808488435 -0.04055917777935733 -0.065268172335330263 0.051663632607675952 -0.029309273052451092 -0.044664040531238236 0.0088621606080166327 0.048682688648244071 -0.083109781730697094 -0.04205574370688317 -0.0094068056530971639 -0.044666861224557042 0.2129277834925655 -0.10303447839454527 0.0035860666829419757 0.16930706981686355 -0.018794989685645185 0.040255039254443847 0.04238443666280859 0.11935593259918371 0.019229876344568551 -0.12430436410193567 -0.016017597405563782 -0.14827720728250848 0.001997467063820754
leaf_weight=332.96794050186872 14.801123257726429 3.3627683203667393 32.491205926984549 325.0206280387938 222.73192517459393 267.74823202937841 105.14348314143717 21.642404783517122 50.203711830079556 54.08666075207293 27.197190582752228 97.167791094630957 85.446293767541647 55.332923222333193 37.153182055801153 84.428373966366053 12.191937396302817 3.8265985697507876 7.5579499006271353 21.09463827311993 5.717748634517192 7.938102386891841 6.7097447887063026 97.529123418033123 7.1248732097446945 466.00540431588888 7.1010237298905841 35.502501957118511 4.6830461621284476 16.133713711053133
leaf_count=1576 929 82 299 2867 1400 2120 1814 256 276 1104 197 682 585 2015 1065 434 96 21 57 211 36 51 41 478 33 2174 33 167 21 79
internal_value=-0.000692398 -0.0265576 0.00472429 -0.0169407 -0.003926 -0.00562393 -0.0156607 -0.00827443 0.0124089 0.00385477 0.00800171 0.0115354 0.0274944 -0.0606533 -0.0299843 0.0177327 -0.00456789 0.0249626 -0.0107333 0.043708 0.0786927 0.050648 0.102966 0.0153619 0.0186598 0.0143474 -0.0179051 -0.00599632 -0.0314305 0.0379482
internal_weight=2516.04 435.671 2080.37 339.822 978.692 946.201 459.571 354.427 1101.68 486.63 432.543 405.346 182.614 95.8489 40.516 768.712 332.785 57.4788 275.306 45.2868 24.1922 18.4744 10.5363 718.508 634.08 536.551 70.5452 63.4441 40.1855 23.2586
internal_count=21199 6958 14241 3796 8970 8671 4703 2889 5271 3968 2864 2667 1267 3162 1147 3695 2633 456 2177 360 149 113 62 3419 2985 2507 333 300 188 112
is_linear=0
shrinkage=0.1


Tree=27
num_leaves=31
num_cat=0
split_feature=4 4 13 11 14 4 0 12 11 10 4 1 3 0 2 15 12 11 0 13 3 11 13 12 3 11 11 10 0 9
split_gain=30.1597 19.5405 10.509 10.2552 8.58043 8.30453 8.18408 7.6787 7.26945 7.61082 6.32031 6.14141 6.05662 6.39834 5.5683 5.67688 5.50368 6.63403 6.30423 8.00714 7.94718 13.7103 13.301 15.1952 9.8273 5.84201 6.33693 9.09489 5.39459 5.30364
threshold=0.46477190018244846 -1.4758565576151286 1.0000000180025095e-35 -1.6117298544015497 -1.1162928784522046 1.1578534922530119 1995.5000000000002 -1.6982472119188545 -1.7589833725745694 -1.8523538931763237 -1.3372402392010159 44.500000000000007 113.50000000000001 1999.5000000000002 41.500000000000007 0.41255835866980251 0.071937055950095821 1.100189105284904 1974.5000000000002 0.33681592697245649 168.50000000000003 0.78113981591002679 1.0203306188304042 1.0426832673621009 98.500000000000014 0.33017591650515271 0.021863862830391909 0.33141990699399948 2011.5000000000002 -1.8681350655213895
decision_type=2 2 2 2 2 2 2 2 2 2 2 2 2 2 2 2 2 2 2 2 2 2 2 2 2 2 2 2 2 2
left_child=1 -1 -2 8 -5 6 16 -6 9 -3 14 -10 13 -11 -9 -16 -4 18 -18 -20 21 25 23 -22 -23 26 -21 -28 -15 -12
right_child=2 3 5 4 7 -7 -8 10 11 12 29 -13 -14 28 15 -17 17 -19 19 20 22 24 -24 -25 -26 -27 27 -29 -30 -31
leaf_value=-0.096380602130429205 -0.0096563381845695059 0.044164814990673491 -0.068266971826372244 -0.066790372492153902 0.029939209136325719 -0.0734179539478515 -0.067116273284758596 0.11065501497067981 0.06387716269610394 -0.1065799871454769 0.17530167413723374 -0.034296335608210424 0.013142766444716666 0.041468033467341653 0.011075070837557514 0.085329766739687687 -0.028918896025111548 -0.072451935068640949 -0.057483454297098259 -0.047108383905639033 0.13300852003994579 0.39359747638378223 -0.034021354634367333 0.49161867624476763 0.033455297021781981 -0.078370433128486128 0.31818342600848809 -0.0040300786353416407 -0.092479339906861635 -0.00017520733932918772
leaf_weight=19.382402850314975 148.64654780551791 43.987161308526993 12.708773298189042 17.759848013520241 100.61701788008213 67.159801814705133 36.308806732296944 6.8711389750242224 59.937339596450329 10.804281726479532 1.724114168435334 7.1300613880157462 43.329447008669376 8.9887827187776548 108.87472654879093 11.371166862547396 17.361522797495127 9.402280315756796 5.9960221759974983 3.2708450052887255 4.1583611592650396 1.5971378330141299 2.6912032905966043 1.6505773440003393 1.4415504839271305 6.728342030197382 1.6414276249706747 1.8786007575690744 4.5179146975278845 1732.4146565273404
leaf_count=1301 2297 243 239 181 467 2399 1371 29 287 45 13 33 219 42 471 72 257 255 110 54 79 31 47 20 35 122 31 31 24 10394
internal_value=-0.000648911 0.00357849 -0.0291822 0.00447615 0.00240516 -0.0458635 -0.028542 0.00303155 0.0274191 0.0117853 0.00157696 0.0534402 -0.00927135 -0.04922 0.0231001 0.018097 -0.00868301 0.00441396 0.0193413 0.0463223 0.0711615 0.0308115 0.149761 0.234906 0.222746 -0.0123294 0.0531036 0.146222 -0.00333661 -7.44844e-07
internal_weight=2500.35 2177.71 322.642 2158.33 1979.63 173.995 106.835 1961.87 178.695 111.628 1861.26 67.0674 67.6404 24.311 127.117 120.246 70.5266 57.8179 48.4156 31.0541 25.058 16.5579 8.50014 5.80894 3.03869 13.5192 6.79087 3.52003 13.5067 1734.14
internal_count=21199 13821 7378 12520 11627 5081 2682 11446 893 573 10979 320 330 111 572 543 1311 1072 817 560 450 304 146 99 66 238 116 62 66 10407
is_linear=0
shrinkage=0.1


Tree=28
num_leaves=31
num_cat=0
split_feature=11 4 4 4 0 1 0 2 12 10 10 8 0 14 11 1 5 1 11 14 4 0 11 10 5 1 9 1 9 5
split_gain=26.2537 11.3662 10.1524 9.4449 6.47686 6.24778 7.96128 8.49555 6.27472 7.33672 5.88471 6.98937 7.68609 9.50994 5.96022 10.4462 5.62363 5.80449 5.56946 6.42171 5.63926 5.41562 5.16025 6.03805 5.77222 8.26059 5.20594 5.71287 4.90157 5.36424
threshold=0.33017591650515271 0.74200453701067381 1.0000000180025095e-35 -1.4758565576151286 1962.5000000000002 51.500000000000007 1963.5000000000002 216.50000000000003 -1.5840417752821481 -0.86751472839362875 -1.0387911048775755 4.3654131177783801 2008.5000000000002 8.9261014499244951 -0.60549748021924554 17.500000000000004 1.7868424721752183 19.500000000000004 -1.6117298544015497 -1.1162928784522046 -1.4758565576151286 2022.5000000000002 -1.7589833725745694 -1.8523538931763237 -0.034461756946789497 36.500000000000007 -0.61131288039339005 14.500000000000002 -1.4413053521860768 -1.1751884878491561
decision_type=2 2 2 2 2 2 2 2 2 2 2 2 2 2 2 2 2 2 2 2 2 2 2 2 2 2 2 2 2 2
left_child=2 3 18 -2 -3 8 -7 -8 9 -4 14 12 16 -14 -10 -16 -12 -18 21 -20 -21 22 23 -1 25 -24 -25 -28 -22 -30
right_child=1 4 5 -5 -6 6 7 -9 10 -11 11 -13 13 -15 15 -17 17 -19 19 20 28 -23 24 26 -26 -27 27 -29 29 -31
leaf_value=0.037474166299118893 -0.10135038780107866 0.043561461537835182 -0.010605981290765643 -0.01175711024561815 -0.063274490589670357 -0.11582459429132562 -0.066250915667887197 0.095797822622905135 0.0026752954491505508 0.13237049016880298 -0.017467742861051815 0.21586448000604147 -0.062849151976125769 0.24848669210614649 -0.038961129498492071 0.23447177064049476 0.014691865222045958 0.27700673080503296 -0.063338154015603318 -0.10150591181636388 0.05556494451896718 0.10749465280698084 0.044754491169402458 0.043913638574077124 0.098601943883390428 -0.069662621352438073 0.015721029978824942 -0.052837772809204812 -0.017558559210269283 0.0072088383643643577
leaf_weight=40.098237961530685 12.21303284075111 6.1060439925640813 8.5332534536719304 321.80962945148349 80.295444995164871 2.8686796315014389 4.0739951618015793 15.713071931153534 39.046502642333508 6.1942117214202872 227.31171784177423 1.2255487069487561 53.707354966551065 0.99937056005000968 2.5219537243247023 3.1327861919999123 2.4033095352351661 1.2997917663305996 13.489210098981856 4.8665938330814233 19.939601335674524 7.4795274240896097 39.47589164506644 13.261411428451536 14.520674392580984 7.5105117112398139 19.793971366249025 31.490809346549213 93.309291023761034 1392.0111108087003
leaf_count=223 929 181 41 2867 2981 30 53 182 268 38 3515 25 1166 5 22 29 42 25 129 333 114 47 188 77 74 33 95 143 523 6821
