tree
version=v4
num_class=1
num_tree_per_iteration=1
label_index=0
max_feature_idx=17
objective=binary sigmoid:1
feature_names=year circuit driver_name team_name grid q1 q2 q3 pit_stop_count avg_lap_time driver_form_last3 driver_form_last5 team_form_last3 team_form_last5 grid_vs_qual pit_lap_interaction track_type overtaking_difficulty
feature_infos=[2015:2024] [0:37] [0:50] [0:17] [-1.7448058875644155:1.9862368856325465] [-2.6239296300836479:4.373269243024672] [-3.1133841065456749:3.8639250040972328] [-3.8755450836559282:4.5472193775852023] [-1.6403202604362297:4.7460516667159531] [-1.4925844665638972:26.283393379785384] [-2.0996435765867307:2.1376389108387137] [-2.2505242609173797:2.2108418404994827] [-2.0224646559695394:2.1936833554245121] [-2.1584095405599295:2.2010904178955757] [-8.0026486199111186:6.7536383255387404] [-1.3729855866164125:8.114965697299418] none none
tree_sizes=966 987 979 982 983 991 988 992 992 996 990 994 995 988 991 992 998 993 993 882 984 879 882 989 887 878 883 872 883 882 984 894 979 880 985 982 986 882 985 782 788 679 982 992 676 888 679 884 888 987 888 982 670 676 678 983 892 994 678 880 984 986 880 886 780 890 676 992 982 675 889 981 783 782 990 678 987 985 990 991 988 782 790 782 884 989 881 869 984 894 990 992 985 888 891 884 981 779 788 987 883 679 897 984 988 775 782 992 989 788 681 993 995 878 784 784 989 883 689 784 996 677 680 987 1009 891 990 993 996 1003 896 887 893 1002 996 994 996 883 991 997 900 880 994 879 986 882 882 999 997 998 897 681 877 881 575 991 987 896 889 990 989 881 687 1002 985 887 995 578 982 985 883 690 994 1000 985 996 883 999 886 986 993 878 995 982 891 994 1003 887 680 888 780 876 677 896 992 792 788 786 995 886

Tree=0
num_leaves=8
num_cat=0
split_feature=4 11 11 8 4 13 2
split_gain=1448.21 176.866 123.111 85.7112 76.1463 29.1138 22.007
threshold=-0.64245234093804016 -0.95907617892828767 -0.63034393987651893 -1.1841508370682166 -1.660009460900848 -0.86931009047900065 21.500000000000004
decision_type=2 2 2 2 2 2 2
left_child=1 3 6 -1 -3 -4 -2
right_child=2 4 5 -5 -6 -7 -8
leaf_value=-1.2076613576385684 -1.1212674319083875 -1.2284183397945208 -1.0712349056888213 -0.79982124235418772 -0.9650030088663667 -1.2284391441244622 -0.99497730791742567
leaf_weight=5.4016143232583991 32.4096859395504 12.293329149484633 12.107066586613653 111.94380028545856 102.25814701616764 436.97197249531746 24.027870610356331
leaf_count=29 174 66 65 601 549 2346 129
internal_value=-1.11179 -0.904881 -1.20671 -0.818595 -0.993272 -1.2242 -1.0675
internal_weight=737.413 231.897 505.517 117.345 114.551 449.079 56.4376
internal_count=3959 1245 2714 630 615 2411 303
is_linear=0
shrinkage=1


Tree=1
num_leaves=8
num_cat=0
split_feature=4 11 11 8 11 13 14
split_gain=1111.02 130.633 109.309 96.0026 27.192 18.3394 14.8018
threshold=-0.64245234093804016 0.16017882546225834 -0.39553519769668405 -1.1841508370682166 -0.95907617892828767 -0.86931009047900065 -0.80895873400431262
decision_type=2 2 2 2 2 2 2
left_child=1 3 4 -1 -2 -4 -3
right_child=2 6 5 -5 -6 -7 -8
leaf_value=-0.10382350046520911 0.096457031428970302 -0.12988627338413014 0.037048313399608949 0.21014051449083776 -0.026156852964212524 -0.11429893344236493 0.022373249088995593
leaf_weight=10.208729535341261 28.103354379534721 8.6573566496372205 8.1724699884653074 211.75224995613098 50.745871990919113 393.96404236555099 24.322650253772736
leaf_count=55 147 49 43 1019 275 2249 122
internal_value=-0.00066033 0.168108 -0.0901139 0.1957 0.0175451 -0.111223 -0.0175954
internal_weight=735.927 254.941 480.986 221.961 78.8492 402.137 32.98
internal_count=3959 1245 2714 1074 422 2292 171
is_linear=0
shrinkage=0.1


Tree=2
num_leaves=8
num_cat=0
split_feature=4 13 4 8 4 8 13
split_gain=891.422 144.45 92.587 64.3828 27.9478 23.1739 1.25615
threshold=-0.81204519426517485 -0.58805202864316164 -1.660009460900848 -1.1841508370682166 -0.13367378095663637 -1.1841508370682166 -0.080224972550674484
decision_type=2 2 2 2 2 2 2
left_child=2 5 6 -4 -3 -2 -1
right_child=1 4 3 -5 -6 -7 -8
leaf_value=-0.05831500725513894 -0.13366059060781207 -0.052252017753808028 -0.07843894099817357 0.18934124869361238 -0.11399846013619751 0.060203438537632693 -0.12712187768286232
leaf_weight=3.8938935846090308 6.7080007642507544 94.95611073076725 9.386192321777342 206.80990795791149 321.46205551922321 76.31313057243824 8.3275029212236387
leaf_count=21 36 539 52 926 1947 388 50
internal_value=-0.00106393 -0.0759053 0.162578 0.177716 -0.0999184 0.0445395 -0.105199
internal_weight=727.857 499.439 228.417 216.196 416.418 83.0211 12.2214
internal_count=3959 2910 1049 978 2486 424 71
is_linear=0
shrinkage=0.1


Tree=3
num_leaves=8
num_cat=0
split_feature=4 11 4 4 12 13 13
split_gain=714.49 93.6375 86.4407 83.3983 21.9613 21.8826 15.8667
threshold=-0.64245234093804016 -0.39553519769668405 -0.98163804759230955 -1.660009460900848 -1.0411198602140272 0.11509312594643589 -1.103691808675533
decision_type=2 2 2 2 2 2 2
left_child=2 4 3 -1 -2 -4 -3
right_child=1 6 5 -5 -6 -7 -8
leaf_value=-0.10094966076323603 0.098737478937301462 0.10031838409226362 0.066586119479539796 0.17666974129561253 -0.017095146589188575 -0.055138451152634077 -0.10564855949492298
leaf_weight=11.503710418939589 23.207070767879486 3.7803055197000495 68.217684417963028 182.26513333618641 55.541776895523071 18.849468648433685 352.24446998536587
leaf_count=71 117 19 303 782 305 89 2273
internal_value=-0.00132826 -0.0816355 0.122999 0.160188 0.0170404 0.0402335 -0.103462
internal_weight=715.61 434.774 280.836 193.769 78.7488 87.0672 356.025
internal_count=3959 2714 1245 853 422 392 2292
is_linear=0
shrinkage=0.1


Tree=4
num_leaves=8
num_cat=0
split_feature=4 11 4 4 10 11 13
split_gain=583.628 84.6205 65.8491 64.0279 20.0106 17.6797 17.5739
threshold=-0.64245234093804016 -0.39553519769668405 -0.98163804759230955 -1.660009460900848 -1.4786625223950707 -0.95907617892828767 -1.1505681523148397
decision_type=2 2 2 2 2 2 2
left_child=2 5 3 -1 -4 -2 -3
right_child=1 6 4 -5 -6 -7 -8
leaf_value=-0.096795857667953442 0.075684296732492481 0.12899460517048722 0.15033061849863763 0.15320057012872323 0.015920439239311371 -0.02168970158949543 -0.10208534186726254
leaf_weight=10.832665756344793 30.002973154187202 3.324265480041503 12.996682167053221 188.76906351745129 74.962872534990311 49.26037971675396 330.13058607280254
leaf_count=71 147 16 55 782 337 275 2276
internal_value=-0.00150248 -0.0777052 0.107866 0.139633 0.0357805 0.0151686 -0.0997817
internal_weight=700.279 412.718 287.561 199.602 87.9596 79.2634 333.455
internal_count=3959 2714 1245 853 392 422 2292
is_linear=0
shrinkage=0.1


Tree=5
num_leaves=8
num_cat=0
split_feature=4 11 11 8 12 13 13
split_gain=481.206 76.5595 55.162 51.3153 15.6638 15.0613 10.9208
threshold=-0.64245234093804016 -0.39553519769668405 1.0000000180025095e-35 -1.1841508370682166 -1.0411198602140272 -1.1505681523148397 0.77136193689672727
decision_type=2 2 2 2 2 2 2
left_child=2 4 3 -1 -2 -3 -4
right_child=1 5 6 -5 -6 -7 -8
leaf_value=-0.10580657778502355 0.079999367684866721 0.11017177442677753 0.018742158542527892 0.12342515728638628 -0.016058375910585794 -0.098651346037717899 -0.10160870962208784
leaf_weight=10.184341847896574 24.534600079059601 3.4929635524749747 33.767696157097816 237.48585143685341 55.101969718933105 308.57957425713539 9.7071244865655881
leaf_count=54 117 16 160 974 305 2276 57
internal_value=-0.00160847 -0.0739811 0.0957623 0.113999 0.0135353 -0.096314 -0.00812997
internal_weight=682.854 391.709 291.145 247.67 79.6366 312.073 43.4748
internal_count=3959 2714 1245 1028 422 2292 217
is_linear=0
shrinkage=0.1


Tree=6
num_leaves=8
num_cat=0
split_feature=4 11 13 8 13 13 14
split_gain=406.058 70.0817 53.6873 40.0828 27.5761 14.6563 12.4653
threshold=-0.47285948761090563 -0.72426743674845284 -0.86931009047900065 -1.1841508370682166 0.58385656233950101 -0.025535904971483555 0.6666699605406734
decision_type=2 2 2 2 2 2 2
left_child=1 3 6 -1 -3 -4 -2
right_child=2 4 5 -5 -6 -7 -8
leaf_value=-0.10572238924408223 0.0094065270436100058 0.043441947077053428 -0.05075385883957139 0.12526371579748333 -0.075003496054878702 -0.10287149237061746 0.15686673273340646
leaf_weight=7.823899805545806 27.50692144036293 101.95383458584547 69.85960391163826 188.76705551147461 24.350719437003136 237.04763630032539 7.2418961822986594
leaf_count=44 134 482 480 768 146 1871 34
internal_value=-0.00167804 0.0787288 -0.0776697 0.116071 0.0206064 -0.0910082 0.0401383
internal_weight=664.552 322.896 341.656 196.591 126.305 306.907 34.7488
internal_count=3959 1440 2519 812 628 2351 168
is_linear=0
shrinkage=0.1


Tree=7
num_leaves=8
num_cat=0
split_feature=4 4 13 14 11 4 14
split_gain=339.681 62.0709 47.6218 42.5946 19.5582 15.3292 9.36387
threshold=-0.47285948761090563 -0.98163804759230955 -0.86931009047900065 -0.44005156036806609 -0.25464995238878319 -0.13367378095663637 0.6666699605406734
decision_type=2 2 2 2 2 2 2
left_child=1 3 6 -1 -3 -4 -2
right_child=2 4 5 -5 -6 -7 -8
leaf_value=-0.05170293037234476 0.0084322959355612476 0.045253163867732975 -0.033894028036629345 0.11832246725808052 -0.037800259116475061 -0.097533092850268191 0.13358632287720199
leaf_weight=16.004607349634171 27.610665634274483 76.04644550383091 44.830346807837486 185.62294754385948 45.210802495479584 243.10621087253094 7.6301889121532431
leaf_count=95 134 334 332 758 253 2019 34
internal_value=-0.00171815 0.0708248 -0.0741954 0.104826 0.0142867 -0.0876248 0.0355301
internal_weight=646.062 322.885 323.177 201.628 121.257 287.937 35.2409
internal_count=3959 1440 2519 853 587 2351 168
is_linear=0
shrinkage=0.1


Tree=8
num_leaves=8
num_cat=0
split_feature=4 11 13 13 8 11 15
split_gain=287.325 64.8296 39.6425 25.4401 22.468 12.8025 7.92224
threshold=-0.30326663428377099 -0.95907617892828767 -0.86931009047900065 0.53698021870019474 -1.1841508370682166 -0.77122918518441974 -0.76617479995134052
decision_type=2 2 2 2 2 2 2
left_child=1 4 6 -3 -1 -4 -2
right_child=2 3 5 -5 -6 -7 -8
leaf_value=-0.094237577544007411 -0.095467110038514214 0.03488557923977053 0.0043873195633677238 -0.064454203649845374 0.11175420913746255 -0.096145328104805902 0.05180989306841717
leaf_weight=5.4796169102191916 4.2554646879434612 155.72778421640396 13.390164226293562 30.893475599586964 157.14791171252728 234.61851146817207 25.772775873541832
leaf_count=31 21 753 77 206 645 2106 120
internal_value=-0.00172602 0.0586602 -0.0775785 0.0184408 0.104813 -0.0907175 0.0309385
internal_weight=627.286 349.249 278.037 186.621 162.628 248.009 30.0282
internal_count=3959 1635 2324 959 676 2183 141
is_linear=0
shrinkage=0.1


Tree=9
num_leaves=8
num_cat=0
split_feature=11 4 8 4 10 12 12
split_gain=244.333 78.6744 26.8686 25.4371 22.7009 10.0465 4.26843
threshold=-0.031581647317940095 -0.98163804759230955 -1.1841508370682166 1.0000000180025095e-35 -1.3325493331735034 -1.3318886885860308 -0.16881337509801692
decision_type=2 2 2 2 2 2 2
left_child=1 2 -1 5 -3 -2 -5
right_child=3 4 -4 6 -6 -7 -8
leaf_value=-0.090934208041514766 0.15268087445485676 0.074701133785721227 0.1063643858017346 -0.052489875920874535 -0.012494295686849316 -0.041613985710523466 -0.10786853557379361
leaf_weight=7.1953610777854911 2.7461021840572348 37.397993296384811 169.49316738545895 15.422286927700041 148.08531944453716 86.164994716644287 142.71159178763628
leaf_count=41 12 161 701 139 871 613 1421
internal_value=-0.00172814 0.0505759 0.0983297 -0.0784068 0.00508645 -0.035613 -0.102468
internal_weight=609.217 362.172 176.689 247.045 185.483 88.9111 158.134
internal_count=3959 1774 742 2185 1032 625 1560
is_linear=0
shrinkage=0.1


Tree=10
num_leaves=8
num_cat=0
split_feature=4 4 13 4 14 12 4
split_gain=210.843 47.8792 33.9899 30.5814 16.903 13.7914 3.79479
threshold=-0.30326663428377099 -0.98163804759230955 -0.025535904971483555 -1.660009460900848 0.29776278690442687 -1.4772731027720327 0.37510477902476752
decision_type=2 2 2 2 2 2 2
left_child=1 3 5 -1 -3 -2 -4
right_child=2 4 6 -5 -6 -7 -8
leaf_value=-0.092663030051204881 0.07974525558065737 -0.00088764218984705801 -0.0736043376584926 0.090942126061188372 0.16170092466620639 -0.035746321331178069 -0.10678356616217058
leaf_weight=9.5408438593149167 12.187052533030508 141.67395307868719 48.339083328843117 184.48396533727646 6.6963748708367339 68.210942208766937 120.15490075200796
leaf_count=71 55 749 487 782 33 497 1285
internal_value=-0.00169906 0.0492131 -0.0717378 0.0819137 0.00645044 -0.0182396 -0.0972648
internal_weight=591.287 342.395 248.892 194.025 148.37 80.398 168.494
internal_count=3959 1635 2324 853 782 552 1772
is_linear=0
shrinkage=0.1


Tree=11
num_leaves=8
num_cat=0
split_feature=11 4 4 8 8 12 12
split_gain=182.733 53.0574 22.6397 22.3261 21.0941 7.52828 4.35603
threshold=-0.031581647317940095 -0.98163804759230955 1.0000000180025095e-35 -1.1841508370682166 -1.1841508370682166 -1.3318886885860308 -0.16881337509801692
decision_type=2 2 2 2 2 2 2
left_child=1 3 5 -1 -3 -2 -4
right_child=2 4 6 -5 -6 -7 -8
leaf_value=-0.090380803920958264 0.12868049106079646 -0.12767842745958505 -0.046253975829401245 0.090711880538402248 0.014231428256061286 -0.038194678851534762 -0.10460767777895855
leaf_weight=7.1045236513018599 2.7945958822965613 11.153927557170389 14.30364143103361 163.0327767431736 171.9671673476696 82.854410447180271 121.08312556892633
leaf_count=41 12 75 139 701 957 613 1421
internal_value=-0.00167631 0.0429434 -0.0729873 0.0831499 0.00558768 -0.0327498 -0.0984426
internal_weight=574.294 353.258 221.036 170.137 183.121 85.649 135.387
internal_count=3959 1774 2185 742 1032 625 1560
is_linear=0
shrinkage=0.1


Tree=12
num_leaves=8
num_cat=0
split_feature=13 8 4 4 13 8 5
split_gain=156.799 47.7197 39.0571 28.1244 9.49995 2.34104 1.25045
threshold=-0.025535904971483555 -1.1841508370682166 -0.98163804759230955 -0.13367378095663637 0.77136193689672727 2.4652045498758883 1.3404609704670343
decision_type=2 2 2 2 2 2 2
left_child=1 6 -3 4 -2 -5 -1
right_child=3 2 -4 5 -6 -7 -8
leaf_value=-0.12807276635156359 -0.00054652022890350823 0.084388351713939408 0.015252644439366525 -0.098675140024740357 -0.081202940231855952 -0.0092499094489520203 -0.056703171391892328
leaf_weight=15.485647425055506 57.510307088494301 158.46149645745754 168.71507878601551 132.38263508677483 19.573048524558544 2.9936506003141394 2.9174336567521086
leaf_count=102 367 698 947 1632 155 38 20
internal_value=-0.00163868 0.039924 0.0487372 -0.0692432 -0.0210268 -0.0966976 -0.116759
internal_weight=558.039 345.58 327.177 212.46 77.0834 135.376 18.4031
internal_count=3959 1767 1645 2192 522 1670 122
is_linear=0
shrinkage=0.1


Tree=13
num_leaves=8
num_cat=0
split_feature=11 4 4 3 8 13 8
split_gain=136.325 37.5183 21.2573 18.3293 15.0703 11.4695 2.24342
threshold=-0.031581647317940095 -0.98163804759230955 0.20551192569763288 3.5000000000000004 -1.1841508370682166 -1.1505681523148397 2.4652045498758883
decision_type=2 2 2 2 2 2 2
left_child=1 4 5 -3 -1 -2 -4
right_child=2 3 6 -5 -6 -7 -8
leaf_value=-0.079471573630224779 0.16926903402266938 -0.077586582078536345 -0.10048470726537216 0.017500012551948569 0.07770204225305366 -0.038538700144319787 -0.01517020665364369
leaf_weight=6.3495642393827429 2.7371920496225348 23.242205440998077 103.39035086333752 158.65937492996454 155.50734810531139 89.501107431948185 3.176936447620391
leaf_count=41 12 160 1397 872 701 736 40
internal_value=-0.00160606 0.0365137 -0.0675196 0.00535046 0.0715362 -0.032372 -0.0979413
internal_weight=542.564 343.758 198.806 181.902 161.857 92.2383 106.567
internal_count=3959 1774 2185 1032 742 748 1437
is_linear=0
shrinkage=0.1


Tree=14
num_leaves=8
num_cat=0
split_feature=4 11 13 13 14 8 2
split_gain=118.313 35.3761 21.7108 12.764 11.6678 11.337 2.61459
threshold=-0.13367378095663637 -0.95907617892828767 -0.025535904971483555 0.77136193689672727 2.8801130023581525 -1.1841508370682166 12.500000000000002
decision_type=2 2 2 2 2 2 2
left_child=1 5 4 -3 -2 -1 -4
right_child=2 3 6 -5 -6 -7 -8
leaf_value=-0.081925012276310771 -0.034169351966825162 0.012565842727209516 -0.069106920731938956 -0.076825311724269083 0.11167929189850707 0.074019696016172393 -0.10240594326373915
leaf_weight=4.8164757192134848 55.984202563762665 181.44535019248724 32.771868877112865 17.515309780836105 6.0808781236410132 145.1787364333868 84.067425198853016
leaf_count=33 425 980 459 152 33 666 1211
internal_value=-0.00155668 0.0323419 -0.0676764 0.00469638 -0.0198797 0.0690122 -0.093066
internal_weight=527.86 348.956 178.904 198.961 62.0651 149.995 116.839
internal_count=3959 1831 2128 1132 458 699 1670
is_linear=0
shrinkage=0.1


Tree=15
num_leaves=8
num_cat=0
split_feature=11 4 4 8 15 9 8
split_gain=100.759 29.6673 19.7017 18.1648 14.9559 9.89304 2.37494
threshold=-0.031581647317940095 -1.1512309009194441 0.20551192569763288 -1.1841508370682166 2.3070682762730637 0.70722602642798116 2.4652045498758883
decision_type=2 2 2 2 2 2 2
left_child=1 4 5 -3 -1 -2 -4
right_child=2 3 6 -5 -6 -7 -8
leaf_value=0.078275599636661308 -0.039933077876025264 -0.11396018151079201 -0.097514459508985421 0.015727392858566717 -0.10680086779955851 0.068038120775868571 -0.0057629231990227485
leaf_weight=113.76078414171934 79.044895872473717 11.400506787002085 88.188038185238838 205.12134125828743 4.5405327677726737 9.5068661794066411 2.9143850877881041
leaf_count=552 664 87 1397 1114 21 84 40
internal_value=-0.00151513 0.0309016 -0.0619305 0.00889896 0.0711722 -0.0283414 -0.0945793
internal_weight=514.477 334.823 179.654 216.522 118.301 88.5518 91.1024
internal_count=3959 1774 2185 1201 573 748 1437
is_linear=0
shrinkage=0.1


Tree=16
num_leaves=8
num_cat=0
split_feature=13 8 4 4 14 12 6
split_gain=88.8093 33.199 24.9405 17.8617 7.87079 3.29821 1.36419
threshold=0.068216782307129548 -1.1841508370682166 -0.98163804759230955 1.0000000180025095e-35 -0.44005156036806609 -0.16881337509801692 1.5770343521511865
decision_type=2 2 2 2 2 2 2
left_child=1 6 -3 4 -2 -5 -1
right_child=3 2 -4 5 -6 -7 -8
leaf_value=-0.12266957095370484 -0.11327816531834367 0.064884190006443465 0.0092419047639084925 0.00070502020182315768 -0.013044208743078899 -0.096495305907572049 -0.043245240824829799
leaf_weight=14.065116081386806 8.9497013911604864 147.23744459450245 177.87186228111386 3.6392792351543894 62.847287677228451 85.646910414099693 2.5554777830839148
leaf_count=111 82 710 1040 51 493 1453 19
internal_value=-0.00146013 0.0273941 0.0344415 -0.0626729 -0.0255387 -0.0925334 -0.110458
internal_weight=502.813 341.73 325.109 161.083 71.797 89.2862 16.6206
internal_count=3959 1880 1750 2079 575 1504 130
is_linear=0
shrinkage=0.1


Tree=17
num_leaves=8
num_cat=0
split_feature=4 11 13 7 5 2 2
split_gain=77.7289 24.4594 18.3569 10.9579 10.894 9.96308 3.0173
threshold=-0.13367378095663637 -0.95907617892828767 -0.025535904971483555 0.099536911401698777 0.61746149736290168 4.5000000000000009 12.500000000000002
decision_type=2 2 2 2 2 2 2
left_child=1 5 4 -3 -2 -1 -4
right_child=2 3 6 -5 -6 -7 -8
leaf_value=-0.05667819828164497 -0.041816973788610969 0.026450605980706733 -0.059647526215999225 -0.020938737898247288 0.055870373391144125 0.063529988584154123 -0.099106470525577195
leaf_weight=7.2699901759624472 44.977108720690012 97.168116688728333 27.271006487309933 98.010708868503571 15.299055613577364 133.6228763461113 66.96220650523901
leaf_count=34 341 541 459 591 117 665 1211
internal_value=-0.00141492 0.0255747 -0.0601198 0.00265364 -0.0170224 0.0573273 -0.0876871
internal_weight=490.581 336.072 154.509 195.179 60.2762 140.893 94.2332
internal_count=3959 1831 2128 1132 458 699 1670
is_linear=0
shrinkage=0.1


Tree=18
num_leaves=8
num_cat=0
split_feature=4 13 11 14 10 15 5
split_gain=66.3903 20.6709 18.28 9.46933 9.39225 8.93913 5.09506
threshold=-0.30326663428377099 -0.86931009047900065 -0.95907617892828767 1.0000000180025095e-35 -1.4056059277842872 0.58426030218602243 -0.67456349209049715
decision_type=2 2 2 2 2 2 2
left_child=2 6 5 -4 -3 -1 -2
right_child=1 4 3 -5 -6 -7 -8
leaf_value=0.066792731346194831 -0.04184822902021168 0.17178977920870978 -0.038063380038698649 0.017695582869725918 -0.06973845665220528 0.00039697423056197535 0.050120879058531256
leaf_weight=108.21220074594021 8.3564999699592608 1.6286693811416615 39.265584118664265 135.77038940042257 140.67793567106128 24.953437745571136 21.578314244747162
leaf_count=554 40 9 248 711 2174 122 101
internal_value=-0.00136 -0.0510856 0.0264296 0.00518725 -0.0669742 0.0543511 0.0244471
internal_weight=480.443 172.241 308.202 175.036 142.307 133.166 29.9348
internal_count=3959 2324 1635 959 2183 676 141
is_linear=0
shrinkage=0.1


Tree=19
num_leaves=7
num_cat=0
split_feature=13 8 4 7 4 5
split_gain=59.3195 27.4744 23.0705 12.5447 7.4087 3.38609
threshold=0.34947484414296848 -1.1841508370682166 -0.98163804759230955 2.6186798710033004 0.37510477902476752 1.7167398134900014
decision_type=2 2 2 2 2 2
left_child=1 5 -3 4 -2 -1
right_child=3 2 -4 -5 -6 -7
leaf_value=-0.11980252055060146 -0.046030797678081964 0.054849549369313855 0.0024246409715013208 0.19222965291950164 -0.099219874189764468 0.013757951150879378
leaf_weight=15.55459723994136 55.034330438822508 143.47126191854477 202.31038326025009 1.8373934403061856 49.961500652134418 2.162049923092126
leaf_count=141 596 736 1366 14 1089 17
internal_value=-0.00129933 0.0179537 0.0241767 -0.0668074 -0.0713404 -0.103503
internal_weight=470.332 363.498 345.782 106.833 104.996 17.7166
internal_count=3959 2260 2102 1699 1685 158
is_linear=0
shrinkage=0.1


Tree=20
num_leaves=8
num_cat=0
split_feature=11 3 3 4 1 9 8
split_gain=51.6804 27.785 20.9339 13.0795 5.27211 3.7233 3.23666
threshold=0.20322709486189477 3.5000000000000004 13.500000000000002 1.0000000180025095e-35 6.5000000000000009 0.28482392575522003 2.4652045498758883
decision_type=2 2 2 2 2 2 2
left_child=1 5 -3 4 -2 -1 -5
right_child=3 2 -4 6 -6 -7 -8
leaf_value=-0.091372323762183127 0.025684099012267009 0.03621972374296089 -0.048790875079497163 -0.094158893882999362 -0.04289768279254691 -0.015683605431085251 0.028923855786609304
leaf_weight=23.182888600975275 15.912125770002602 279.2500365935266 32.319605879485607 60.5288016051054 37.923621997237206 9.0311658680438978 2.214670803397893
leaf_count=194 136 1546 269 1356 344 74 40
internal_value=-0.00125091 0.0182601 0.0274014 -0.0587876 -0.0226271 -0.0701531 -0.0898144
internal_weight=460.363 343.784 311.57 116.579 53.8357 32.2141 62.7435
internal_count=3959 2083 1815 1876 480 268 1396
is_linear=0
shrinkage=0.1


Tree=21
num_leaves=7
num_cat=0
split_feature=4 11 14 14 10 2
split_gain=45.2061 18.8415 14.0463 11.9024 9.61726 8.01162
threshold=0.20551192569763288 -0.95907617892828767 4.5401952837212614 1.03557713417692 -1.4056059277842872 4.5000000000000009
decision_type=2 2 2 2 2 2
left_child=1 5 4 -3 -2 -1
right_child=2 3 -4 -5 -6 -7
leaf_value=-0.054712183716581368 0.059423086528036365 -0.0061479482387090025 0.2552767213703222 0.1574277077069732 -0.073964327258449467 0.050628577975706746
leaf_weight=7.6518305838108054 5.7485441565513602 214.5062414444983 1.3803373426198948 4.542544547468423 90.532483626157045 127.88429925590754
leaf_count=37 26 1470 6 30 1708 682
internal_value=-0.00121595 0.0153766 -0.0614594 -0.00275578 -0.0660003 0.0446815
internal_weight=452.246 354.585 97.6614 219.049 96.281 135.536
internal_count=3959 2219 1740 1500 1734 719
is_linear=0
shrinkage=0.1


Tree=22
num_leaves=7
num_cat=0
split_feature=13 8 4 7 4 9
split_gain=41.0304 24.4098 16.1483 8.333 5.09524 3.68881
threshold=0.43150844551175499 -1.1841508370682166 -0.98163804759230955 2.6186798710033004 1.0000000180025095e-35 2.4383674418779084
decision_type=2 2 2 2 2 2
left_child=1 5 -3 4 -2 -1
right_child=3 2 -4 -5 -6 -7
leaf_value=-0.11782833760868801 -0.042188919684361087 0.045662797762389684 0.0015045141183836924 0.15558244884482877 -0.092768070976572664 0.028987242370694874
leaf_weight=15.631325341761114 36.657712493091822 137.82868995517492 207.47157369926572 1.6766481101512898 43.612412724643946 1.9217654392123211
leaf_count=160 348 745 1511 12 1169 14
internal_value=-0.00115074 0.0132827 0.0191306 -0.0650609 -0.0696696 -0.101755
internal_weight=444.8 362.853 345.3 81.9468 80.2701 17.5531
internal_count=3959 2430 2256 1529 1517 174
is_linear=0
shrinkage=0.1


Tree=23
num_leaves=8
num_cat=0
split_feature=11 3 8 4 15 15 6
split_gain=35.3861 18.2923 17.1444 10.2399 5.87018 5.59389 4.41177
threshold=0.30889102884282055 3.5000000000000004 -1.1841508370682166 1.0000000180025095e-35 0.8981361136145255 1.6801711698500095 -1.4121151397188945
decision_type=2 2 2 2 2 2 2
left_child=1 5 -3 4 -2 -1 -5
right_child=3 2 -4 6 -6 -7 -8
leaf_value=-0.068427643107968991 -0.035540815999658928 -0.093677074886395789 0.026033302657233005 0.069273582359831151 0.071580581524368053 0.09385547681981686 -0.093762563623202733
leaf_weight=30.629432311281562 39.151021957397461 12.463682068511842 298.09878031164408 1.7214589212089766 5.8845283128321162 2.282336674630641 46.30922082811594
leaf_count=289 378 125 1775 42 52 16 1282
internal_value=-0.00110372 0.0137164 0.021229 -0.0557996 -0.0215439 -0.0571738 -0.0879192
internal_weight=436.54 343.474 310.562 93.0662 45.0356 32.9118 48.0307
internal_count=3959 2205 1900 1754 430 305 1324
is_linear=0
shrinkage=0.1


Tree=24
num_leaves=7
num_cat=0
split_feature=13 8 2 7 4 7
split_gain=31.572 18.7207 13.7566 6.76073 4.91002 3.91858
threshold=0.43150844551175499 -1.1841508370682166 21.500000000000004 2.6186798710033004 1.0000000180025095e-35 2.2443073184713325
decision_type=2 2 2 2 2 2
left_child=1 5 -3 4 -2 -1
right_child=3 2 -4 -5 -6 -7
leaf_value=-0.11475465366001812 -0.038263976308190367 -0.0041433672071742337 0.036079477165617324 0.13204075813637473 -0.090261781053873516 0.044080586702892811
leaf_weight=13.614229265600441 35.324506603181362 168.08271531015635 172.07988598197699 1.7841512486338604 37.372735181823373 1.7532507553696621
leaf_count=161 348 1155 1101 12 1169 13
internal_value=-0.00107507 0.0113271 0.0162044 -0.0602755 -0.0649954 -0.0966334
internal_weight=430.011 355.53 340.163 74.4814 72.6972 15.3675
internal_count=3959 2430 2256 1529 1517 174
is_linear=0
shrinkage=0.1


Tree=25
num_leaves=7
num_cat=0
split_feature=4 13 15 14 14 10
split_gain=28.6669 14.0472 11.5782 11.2688 11.1112 6.05233
threshold=0.37510477902476752 -1.2911971832327591 1.0945697466042537 1.03557713417692 4.5401952837212614 -0.16364381940096726
decision_type=2 2 2 2 2 2
left_child=1 2 -1 -3 5 -2
right_child=4 3 -4 -5 -6 -7
leaf_value=0.057906952243466453 -0.0261148696485419 -0.003858628449137438 -0.06782137442292703 0.12867549526299443 0.21865145342811787 -0.08693249075723733
leaf_weight=77.26990482956171 26.020260080695152 260.98773120343685 8.0914306044578534 6.577074645087122 1.415245622396468 44.088206600397825
leaf_count=438 223 1894 41 42 6 1315
internal_value=-0.0010315 0.0106678 0.0459891 -0.000600775 -0.0587605 -0.0643605
internal_weight=424.45 352.926 85.3613 267.565 71.5237 70.1085
internal_count=3959 2415 479 1936 1544 1538
is_linear=0
shrinkage=0.1


Tree=26
num_leaves=7
num_cat=0
split_feature=13 4 7 14 6 7
split_gain=26.1596 16.2318 12.5964 11.3317 4.12083 1.66712
threshold=0.77136193689672727 -0.98163804759230955 0.099536911401698777 -0.44005156036806609 2.1169946449717805 0.25408844778732248
decision_type=2 2 2 2 2 2
left_child=1 3 -3 -1 5 -2
right_child=4 2 -4 -5 -6 -7
leaf_value=-0.064859394268826351 -0.09292374641019302 0.021854993527682224 -0.026042947411245493 0.0418939941287177 0.15396567008277262 -0.034158911030513099
leaf_weight=10.760219138115643 32.093995038419962 85.450215222314 153.5974290240556 130.97670339792967 0.74146499112248321 5.6823693439364424
leaf_count=69 931 500 1628 753 14 64
internal_value=-0.000967363 0.0069767 -0.0089213 0.0337896 -0.0795018 -0.0840843
internal_weight=419.302 380.785 239.048 141.737 38.5178 37.7764
internal_count=3959 2950 2128 822 1009 995
is_linear=0
shrinkage=0.1


Tree=27
num_leaves=7
num_cat=0
split_feature=13 8 3 7 7 7
split_gain=22.7934 15.579 12.4798 8.47 3.71242 1.8242
threshold=0.77136193689672727 -1.1841508370682166 13.500000000000002 3.6961265490732127 2.481784641135456 0.25408844778732248
decision_type=2 2 2 2 2 2
left_child=1 3 -3 -1 5 -2
right_child=4 2 -4 -5 -6 -7
leaf_value=-0.11323314430615455 -0.091218497017403491 0.017258907523924335 -0.041544389998620486 0.1400917318865311 0.14228479742188621 -0.027418622243099627
leaf_weight=14.539430392906068 29.947060881182551 320.14868808910251 40.677215533331037 1.4516353234648693 0.75606241077184577 5.2702841088175765
leaf_count=206 942 2256 479 9 6 61
internal_value=-0.00091119 0.0063493 0.0106298 -0.0902368 -0.0769639 -0.0816708
internal_weight=412.79 376.817 360.826 15.9911 35.9734 35.2173
internal_count=3959 2950 2735 215 1009 1003
is_linear=0
shrinkage=0.1


Tree=28
num_leaves=7
num_cat=0
split_feature=4 8 7 13 14 11
split_gain=20.3325 10.5813 11.5964 11.2328 9.67668 6.26624
threshold=0.37510477902476752 -1.1841508370682166 3.6961265490732127 -1.4318262141506786 2.8801130023581525 -1.0999614242361886
decision_type=2 2 2 2 2 2
left_child=1 2 -1 -3 5 -2
right_child=4 3 -4 -5 -6 -7
leaf_value=-0.11283108499666752 0.030637700444498983 0.048435270816124198 0.1761883888629884 0.0028692192232237339 0.079576156473565307 -0.075434953805765162
leaf_weight=11.74556442350149 6.2300824746489516 68.092562094330788 1.5743249729275692 263.29628219269216 5.0877106655389062 52.508809277787805
leaf_count=152 30 397 9 1857 33 1481
internal_value=-0.000880253 0.00871939 -0.0786708 0.012232 -0.0527251 -0.0641845
internal_weight=408.535 344.709 13.3199 331.389 63.8266 58.7389
internal_count=3959 2415 161 2254 1544 1511
is_linear=0
shrinkage=0.1


Tree=29
num_leaves=7
num_cat=0
split_feature=13 8 4 7 7 8
split_gain=18.6267 12.22 10.7106 6.15861 3.42975 1.94466
threshold=0.77136193689672727 -1.1841508370682166 -0.98163804759230955 3.6961265490732127 2.6186798710033004 2.4652045498758883
decision_type=2 2 2 2 2 2
left_child=1 3 -3 -1 5 -2
right_child=4 2 -4 -5 -6 -7
leaf_value=-0.11077037980148566 -0.083591663082225792 0.031882796169858806 -0.0040736738050687234 0.094336428020840371 0.13885107105176181 0.039612728259260904
leaf_weight=12.280341466888784 30.419319303706292 130.81433117389679 225.90990169346333 1.6620725765824307 0.7436690479516973 1.3374542966485012
leaf_count=206 973 773 1962 9 5 31
internal_value=-0.000842387 0.00552232 0.00911192 -0.0863196 -0.0734317 -0.0784028
internal_weight=403.167 370.667 356.724 13.9424 32.5004 31.7568
internal_count=3959 2950 2735 215 1009 1004
is_linear=0
shrinkage=0.1


Tree=30
num_leaves=8
num_cat=0
split_feature=13 3 3 3 7 1 8
split_gain=16.1571 10.7153 18.8051 9.85873 3.40659 6.88837 3.15279
threshold=0.77136193689672727 9.5000000000000018 13.500000000000002 4.5000000000000009 0.25408844778732248 7.5000000000000009 2.4652045498758883
decision_type=2 2 2 2 2 2 2
left_child=1 3 -3 -1 6 -6 -2
right_child=4 2 -4 -5 5 -7 -8
leaf_value=0.0061719312796174493 -0.094436010189032249 0.038676521618287996 -0.038237151578904394 -0.041741530744648932 0.1640699565041458 -0.073631405830044114 0.082181121236588925
leaf_weight=111.40707871504128 23.667330123484142 145.40906168147922 40.682041997089982 69.88182432577014 1.7495879046618927 4.0210993494838476 1.0558031238615502
leaf_count=914 914 873 523 640 18 49 28
internal_value=-0.000800082 0.00500564 0.0218621 -0.0122974 -0.0707457 -0.00156383 -0.0868936
internal_weight=397.874 367.38 186.091 181.289 30.4938 5.77069 24.7231
internal_count=3959 2950 1396 1554 1009 67 942
is_linear=0
shrinkage=0.1


Tree=31
num_leaves=7
num_cat=0
split_feature=4 14 4 14 10 13
split_gain=14.8673 10.0458 9.6136 7.88628 5.11419 3.91026
threshold=0.37510477902476752 -0.44005156036806609 -1.3208237542465786 4.5401952837212614 -0.16364381940096726 -0.54117568500385504
decision_type=2 2 2 2 2 2
left_child=1 5 -3 4 -2 -1
right_child=3 2 -4 -5 -6 -7
leaf_value=-0.0086753076215520027 -0.018665593298828925 0.048461004160906027 0.0033991534311643362 0.18747043827197518 -0.079493526858271962 -0.097880209941695356
leaf_weight=8.3856419213116187 24.207615880295634 58.045509442687035 256.80632002092898 1.3928570449352253 32.217340694740415 11.869156725704668
leaf_count=49 223 384 1839 6 1315 143
internal_value=-0.000764615 0.00731518 0.0117067 -0.0475943 -0.0533969 -0.0609487
internal_weight=392.924 335.107 314.852 57.8178 56.425 20.2548
internal_count=3959 2415 2223 1544 1538 192
is_linear=0
shrinkage=0.1


Tree=32
num_leaves=8
num_cat=0
split_feature=13 8 3 7 7 1 8
split_gain=12.9572 10.5756 8.69733 5.40116 3.06462 5.27786 2.94921
threshold=0.77136193689672727 -1.1841508370682166 3.5000000000000004 3.6961265490732127 0.25408844778732248 7.5000000000000009 2.4652045498758883
decision_type=2 2 2 2 2 2 2
left_child=1 3 -3 -1 6 -6 -2
right_child=4 2 -4 -5 5 -7 -8
leaf_value=-0.1100240363666246 -0.092245669299738001 -0.036297984532814666 0.013324857486292399 0.079858682405836101 0.13220730019229196 -0.070204746761571485 0.077177796916281419
leaf_weight=11.172878530807791 20.76285152416677 39.896887039765716 307.89893749542534 1.7299602106213559 1.94480301439762 3.815583273768425 1.080933392047881
leaf_count=206 914 487 2248 9 18 49 28
internal_value=-0.000719062 0.00433437 0.00763245 -0.0845653 -0.0667513 -0.00186705 -0.0838618
internal_weight=388.303 360.699 347.796 12.9028 27.6042 5.76039 21.8438
internal_count=3959 2950 2735 215 1009 67 942
is_linear=0
shrinkage=0.1


Tree=33
num_leaves=7
num_cat=0
split_feature=4 14 14 14 11 0
split_gain=11.8722 9.01188 7.40595 6.88878 4.84254 3.96608
threshold=0.37510477902476752 1.03557713417692 -0.44005156036806609 2.8801130023581525 -1.0999614242361886 2018.5000000000002
decision_type=2 2 2 2 2 2
left_child=1 2 -1 4 -2 -3
right_child=3 5 -4 -5 -6 -7
leaf_value=-0.056582113401934635 0.026784459757279451 0.18541310416687812 0.007372254122595033 0.067057171899484611 -0.067496197559528653 0.05286601872945678
leaf_weight=19.262586580589414 6.2404887005686751 3.5498031936585885 301.7538797929883 5.0565409651026121 42.893311306834221 6.2008310668170452
leaf_count=192 30 20 2167 33 1481 36
internal_value=-0.000696774 0.0064114 0.00353467 -0.0440837 -0.0555216 0.101121
internal_weight=384.957 330.767 321.016 54.1903 49.1338 9.75063
internal_count=3959 2415 2359 1544 1511 56
is_linear=0
shrinkage=0.1


Tree=34
num_leaves=8
num_cat=0
split_feature=3 3 9 3 7 2 6
split_gain=11.359 17.4987 9.3915 9.33976 5.94406 6.98885 3.14037
threshold=13.500000000000002 9.5000000000000018 0.28482392575522003 4.5000000000000009 -0.027941621656662963 5.5000000000000009 1.2724499392969684
decision_type=2 2 2 2 2 2 2
left_child=1 3 -3 -1 5 -2 -6
right_child=4 2 -4 -5 6 -7 -8
leaf_value=0.0044735450984577495 -0.12242518803755383 0.047167441940731525 -0.012558186047902299 -0.040546976326451045 -0.079934994989583411 0.055228323348993705 -0.0054219257147690922
leaf_weight=113.48347015958279 2.8801376707851878 107.34813725017011 34.882985156029463 77.582976124249399 29.74308776948601 9.5802155779674631 6.9842340582981697
leaf_count=1074 30 675 207 1024 791 74 84
internal_value=-0.000658053 0.0059622 0.0325194 -0.0138071 -0.0455172 0.0141648 -0.0657653
internal_weight=382.485 333.298 142.231 191.066 49.1877 12.4604 36.7273
internal_count=3959 2980 882 2098 979 104 875
is_linear=0
shrinkage=0.1


Tree=35
num_leaves=8
num_cat=0
split_feature=13 8 3 7 7 1 8
split_gain=9.65078 9.23937 6.87973 4.90893 2.76257 4.11854 2.81596
threshold=0.77136193689672727 -1.1841508370682166 2.5000000000000004 3.6961265490732127 0.25408844778732248 7.5000000000000009 2.4652045498758883
decision_type=2 2 2 2 2 2 2
left_child=1 3 -3 -1 6 -6 -2
right_child=4 2 -4 -5 5 -7 -8
leaf_value=-0.10948753141369415 -0.08933134122609046 -0.042112046605342769 0.010723367885829102 0.070799420873626354 0.11174823509846954 -0.065635522835935475 0.07717627072450528
leaf_weight=10.197369589470325 17.732481288723655 26.734116557985544 315.30704758316278 1.7728512361645687 2.0808199979364863 3.528532006777823 1.0773933790624131
leaf_count=206 914 354 2381 9 18 49 28
internal_value=-0.000622648 0.00357152 0.00659372 -0.0827861 -0.0614264 0.000165958 -0.0797941
internal_weight=378.431 354.011 342.041 11.9702 24.4192 5.60935 18.8099
internal_count=3959 2950 2735 215 1009 67 942
is_linear=0
shrinkage=0.1


Tree=36
num_leaves=8
num_cat=0
split_feature=3 3 3 9 7 2 6
split_gain=9.39876 13.5155 8.08935 8.05045 5.1375 5.8384 2.79049
threshold=13.500000000000002 9.5000000000000018 4.5000000000000009 0.10385305144200974 -0.027941621656662963 5.5000000000000009 1.2724499392969684
decision_type=2 2 2 2 2 2 2
left_child=1 2 -1 -3 5 -2 -6
right_child=4 3 -4 -5 6 -7 -8
leaf_value=0.0048852956484719788 -0.11996990496144025 0.046656180680563132 -0.037419025008242915 -0.0032968708389789188 -0.076296402994712686 0.048322837681661561 -0.0054482111159066433
leaf_weight=112.18944214563817 2.6113663557916871 90.441273695789278 75.699597558006644 50.153052885085344 27.761880765669048 9.7880688672885281 6.9513414455577722
leaf_count=1074 30 585 1024 297 791 74 84
internal_value=-0.000603128 0.0053877 -0.0121589 0.0288368 -0.0423729 0.0128798 -0.062109
internal_weight=375.596 328.483 187.889 140.594 47.1127 12.3994 34.7132
internal_count=3959 2980 2098 882 979 104 875
is_linear=0
shrinkage=0.1


Tree=37
num_leaves=7
num_cat=0
split_feature=4 14 14 14 9 1
split_gain=8.29238 6.82088 6.23917 5.56748 5.70881 3.5174
threshold=0.37510477902476752 1.03557713417692 -1.1778659076405589 4.5401952837212614 -0.12794464211321219 19.500000000000004
decision_type=2 2 2 2 2 2
left_child=1 2 -1 4 -2 -3
right_child=3 5 -4 -5 -6 -7
leaf_value=-0.081516215281812007 -0.079963860337064527 0.14161926406505773 0.0050546918279207303 0.16407436854246449 -0.010774009371393931 0.020642484811057481
leaf_weight=8.5588877527043206 23.247975973412395 5.3935365974903089 304.61652876343578 1.3153937757015217 24.484343635849655 4.3350436985492706
leaf_count=102 749 34 2257 6 789 22
internal_value=-0.000568893 0.00525038 0.00268876 -0.0388799 -0.0444729 0.0877122
internal_weight=371.952 322.904 313.175 49.0477 47.7323 9.72858
internal_count=3959 2415 2359 1544 1538 56
is_linear=0
shrinkage=0.1


Tree=38
num_leaves=8
num_cat=0
split_feature=3 3 11 7 7 5 9
split_gain=7.72372 10.8383 7.7679 7.39046 4.27114 5.37041 2.60664
threshold=13.500000000000002 9.5000000000000018 -1.8983111476476269 1.7318035946152772 -0.027941621656662963 -0.22827835525799919 0.75671241354074048
decision_type=2 2 2 2 2 2 2
left_child=1 2 -1 -3 5 -2 -6
right_child=4 3 -4 -5 6 -7 -8
leaf_value=-0.21945177065494251 -0.019161611345487706 0.034092580580686392 -0.008943828852921552 -0.039364579282998746 -0.06897445579415272 0.15537955424621694 0.014859606038498155
leaf_weight=1.7698038667440403 10.290849342942236 123.74369516596198 183.95461810473353 15.400925084948538 28.602231184951961 2.1272307671606532 4.2614429555833331
leaf_count=13 89 795 2085 87 783 15 92
internal_value=-0.000533067 0.00485995 -0.0109498 0.0259621 -0.0392247 0.0107375 -0.0581037
internal_weight=370.151 324.869 185.724 139.145 45.2818 12.4181 32.8637
internal_count=3959 2980 2098 882 979 104 875
is_linear=0
shrinkage=0.1


Tree=39
num_leaves=6
num_cat=0
split_feature=8 15 3 7 12
split_gain=7.6015 8.36406 7.41354 6.28732 0.0083116
threshold=-1.1841508370682166 -0.85069742243906299 13.500000000000002 3.6961265490732127 -0.16881337509801692
decision_type=2 2 2 2 2
left_child=3 -2 -3 4 -1
right_child=1 2 -4 -5 -6
leaf_value=-0.11034086379459347 0.21619017447757491 0.0064698087312816399 -0.038023395116842801 0.083598071311697247 -0.10435323424536343
leaf_weight=7.0105784842744461 1.8174073211848725 311.01094331685454 42.575351926498115 2.0383200049400321 3.4637582739815107
leaf_count=108 14 2754 904 10 169
internal_value=-0.00048484 0.00221221 0.00111238 -0.0770906 -0.108361
internal_weight=367.916 355.404 353.586 12.5127 10.4743
internal_count=3959 3672 3658 287 277
is_linear=0
shrinkage=0.1


Tree=40
num_leaves=6
num_cat=0
split_feature=8 15 11 7 12
split_gain=6.69221 7.64012 7.00615 5.60574 0.00605059
threshold=-1.1841508370682166 -0.85069742243906299 0.38520387005126672 3.6961265490732127 -0.16881337509801692
decision_type=2 2 2 2 2
left_child=3 -2 -3 4 -1
right_child=1 2 -4 -5 -6
leaf_value=-0.10929861707649823 0.21781782559401433 0.0066828086079827919 -0.033947005795914829 0.07343555195348471 -0.10394266961115955
leaf_weight=6.4008280402049413 1.6327114766463626 303.35287576168776 49.345133692026138 2.0856251120567313 3.1458873883821061
leaf_count=108 14 2178 1480 10 169
internal_value=-0.000452699 0.00199747 0.000998389 -0.0750867 -0.107534
internal_weight=365.963 354.331 352.698 11.6323 9.54672
internal_count=3959 3672 3658 287 277
is_linear=0
shrinkage=0.1


Tree=41
num_leaves=5
num_cat=0
split_feature=8 4 15 0
split_gain=6.6688 7.13186 12.8682 10.5902
threshold=3.3775433966119142 -0.81204519426517485 0.42586100845559399 2023.5000000000002
decision_type=2 2 2 2
left_child=1 2 -1 -3
right_child=-2 3 -4 -5
leaf_value=0.031026010073868404 -0.16903005264565221 -0.0063918531596309607 -0.035987317659346672 -0.10497991383900313
leaf_weight=127.86048332601786 2.3308161646127692 185.02806604513898 36.931294541805983 11.577520267106591
leaf_count=830 26 2730 212 161
internal_value=-0.000423709 0.00066371 0.0160077 -0.0121974
internal_weight=363.728 361.397 164.792 196.606
internal_count=3959 3933 1042 2891
is_linear=0
shrinkage=0.1


Tree=42
num_leaves=8
num_cat=0
split_feature=13 8 15 7 7 6 8
split_gain=6.06245 6.40615 6.0484 3.57204 2.53188 3.69174 2.86749
threshold=0.77136193689672727 -1.1841508370682166 -0.7237306561857072 3.6961265490732127 0.25408844778732248 0.50064822574650569 2.4652045498758883
decision_type=2 2 2 2 2 2 2
left_child=1 3 -3 -1 6 -6 -2
right_child=4 2 -4 -5 5 -7 -8
leaf_value=-0.10741745002120349 -0.085021555742808452 0.04217107391323182 0.00020393992458383111 0.046294932602961331 0.1121226121922696 -0.060541272239000667 0.089457218418230844
leaf_weight=7.7734968094155175 14.342249190900477 38.908928743563592 292.5617302460596 1.8768240213394163 2.0379851441830388 3.1558371614664793 1.0081353038549412
leaf_count=206 914 350 2385 9 25 42 28
internal_value=-0.000385425 0.0027919 0.00513016 -0.077523 -0.0531425 0.00720968 -0.0735627
internal_weight=361.665 341.121 331.471 9.65032 20.5442 5.19382 15.3504
internal_count=3959 2950 2735 215 1009 67 942
is_linear=0
shrinkage=0.1


Tree=43
num_leaves=8
num_cat=0
split_feature=4 14 4 4 13 13 5
split_gain=5.61268 5.53403 6.22894 5.08857 7.97722 2.70252 1.67916
threshold=0.37510477902476752 -1.1778659076405589 -1.4904166075737133 0.71429048567903697 0.30259850050366216 -1.00993912139692 -0.85267067263725316
decision_type=2 2 2 2 2 2 2
left_child=1 5 -3 6 -5 -1 -2
right_child=3 2 -4 4 -6 -7 -8
leaf_value=0.028226950355038079 -0.024638784269182326 0.053335917322770682 0.0021566042981813979 0.023039014413872794 -0.082912314052132327 -0.10956914433137782 -0.10716557412906567
leaf_weight=1.8512084763497112 3.307002871297299 25.978695852681994 281.07408982794732 21.487609448377043 10.617587071843444 6.1574144670739752 9.6889731907285732
leaf_count=11 83 200 2113 285 870 91 306
internal_value=-0.000376846 0.00434631 0.00648671 -0.0333712 -0.0120004 -0.0777173 -0.0861655
internal_weight=360.163 315.061 307.053 45.1012 32.1052 8.00862 12.996
internal_count=3959 2415 2313 1544 1155 102 389
is_linear=0
shrinkage=0.1


Tree=44
num_leaves=5
num_cat=0
split_feature=8 4 5 5
split_gain=5.70024 5.66288 10.1525 9.35898
threshold=3.3775433966119142 -1.1512309009194441 -1.3978421925773459 -1.7753975036355862
decision_type=2 2 2 2
left_child=1 2 -1 -3
right_child=-2 3 -4 -5
leaf_value=-0.10578942058739207 -0.15999826020747926 0.13971825807515689 0.031689508897387385 -0.0089800902466465032
leaf_weight=5.7481435108929864 2.2229359708726397 4.3018143391236654 81.993262628093362 263.40246713720262
leaf_count=47 26 34 603 3249
internal_value=-0.000362817 0.000635533 0.0226829 -0.00659062
internal_weight=357.669 355.446 87.7414 267.704
internal_count=3959 3933 650 3283
is_linear=0
shrinkage=0.1


Tree=45
num_leaves=7
num_cat=0
split_feature=8 10 10 7 10 4
split_gain=5.23054 5.20972 5.23178 4.64668 0.523354 0.00364136
threshold=-1.1841508370682166 1.3705446674254873 1.2244314782039198 3.6961265490732127 1.7175634918267089 -0.13367378095663637
decision_type=2 2 2 2 2 2
left_child=3 2 -2 5 -3 -1
right_child=1 4 -4 -5 -6 -7
leaf_value=-0.10782299540033123 0.0020551127026403031 -0.11563314481084062 0.13341309904565732 0.059900120245906421 -0.034624561620354689 -0.10319084989861094
leaf_weight=5.5074839275330305 337.86659952299669 4.0107194338925174 3.0595069588161996 2.1298418790102005 0.99544262792915095 2.4529014131985587
leaf_count=101 3291 208 133 10 40 176
internal_value=-0.000323236 0.00174685 0.00323393 -0.071294 -0.0995251 -0.106396
internal_weight=356.022 345.932 340.926 10.0902 5.00616 7.96039
internal_count=3959 3672 3424 287 248 277
is_linear=0
shrinkage=0.1


Tree=46
num_leaves=5
num_cat=0
split_feature=8 14 4 5
split_gain=4.76391 4.87264 6.40721 3.22233
threshold=3.3775433966119142 1.0000000180025095e-35 -1.4904166075737133 2.3299231459345107
decision_type=2 2 2 2
left_child=1 3 -3 -1
right_child=-2 2 -4 -5
leaf_value=-0.029016705131860721 -0.14845637079294779 0.05676102602126664 0.001750696050122164 0.082233325938513485
leaf_weight=61.557034464087337 2.1575545044615856 23.004848908632994 265.88262034580112 2.7185563105158499
leaf_count=888 26 187 2816 42
internal_value=-0.000314281 0.000590753 0.00613131 -0.0243114
internal_weight=355.321 353.163 288.887 64.2756
internal_count=3959 3933 3003 930
is_linear=0
shrinkage=0.1


Tree=47
num_leaves=7
num_cat=0
split_feature=8 3 3 2 7 4
split_gain=4.6843 4.77745 6.24045 4.51306 4.09423 0.00267775
threshold=-1.1841508370682166 14.500000000000002 9.5000000000000018 36.500000000000007 3.6961265490732127 -0.13367378095663637
decision_type=2 2 2 2 2 2
left_child=4 2 -2 -3 5 -1
right_child=1 3 -4 -5 -6 -7
leaf_value=-0.10708330535965681 -0.0074473344938120111 -0.062523033103347572 0.020839162389867341 0.023973349439550436 0.050726344132650571 -0.1029207557667236
leaf_weight=5.034373763948679 174.47494215518236 20.562808042392138 141.04122978122905 8.5363755486905557 2.1701413244009018 2.2299910550937039
leaf_count=101 1933 605 1014 120 10 176
internal_value=-0.000281661 0.00162153 0.00519722 -0.0371489 -0.0697998 -0.105805
internal_weight=354.05 344.615 315.516 29.0992 9.43451 7.26436
internal_count=3959 3672 2947 725 287 277
is_linear=0
shrinkage=0.1


Tree=48
num_leaves=7
num_cat=0
split_feature=14 4 15 5 10 11
split_gain=4.35619 4.81292 9.13251 7.28403 2.37453 0.111024
threshold=-1.1778659076405589 -1.3208237542465786 0.9475967667363091 -1.7753975036355862 -0.47413434649679714 -0.34857344926071721
decision_type=2 2 2 2 2 2
left_child=4 2 -2 -3 -1 -6
right_child=1 3 -4 -5 5 -7
leaf_value=-0.0042447826099703424 0.046998321655130376 0.12044742368574252 -0.07733069129777613 -0.0054890770765013731 -0.14899181006100706 -0.11065829144102075
leaf_weight=2.964435551315546 43.295658845454454 4.6668096520006648 6.8416653499007216 289.22367881424725 0.94162030518054951 3.8232660647481671
leaf_count=20 346 37 46 3404 5 101
internal_value=-0.000271967 0.00139607 0.0300326 -0.00348928 -0.0745154 -0.118234
internal_weight=351.757 344.028 50.1373 293.89 7.72932 4.76489
internal_count=3959 3833 392 3441 126 106
is_linear=0
shrinkage=0.1


Tree=49
num_leaves=8
num_cat=0
split_feature=3 10 3 11 15 15 15
split_gain=4.15625 6.06753 6.19854 6.00009 8.54729 4.3407 4.17288
threshold=2.5000000000000004 0.4025447888326053 1.5000000000000002 0.43803583704172966 1.5770886802415467 -0.53821521632583325 0.40347223289587991
decision_type=2 2 2 2 2 2 2
left_child=1 6 -3 5 -5 -2 -1
right_child=3 2 -4 4 -6 -7 -8
leaf_value=-0.091833893148188128 0.024219601726183933 -0.01153115698967243 0.19509848819349868 -0.049811788694853247 0.1321126614113339 -0.0014314731155776056 0.0084366448865540716
leaf_weight=15.333989814855164 103.5213169506751 6.1103497445583326 1.9042276162654159 32.981605861801654 2.8019339949823907 181.86878218641505 5.6906712176278225
leaf_count=197 878 214 44 1175 85 1293 73
internal_value=-0.000242465 -0.0364719 0.0375631 0.00303326 -0.0355667 0.0078731 -0.064694
internal_weight=350.213 29.0392 8.01458 321.174 35.7835 285.39 21.0247
internal_count=3959 528 258 3431 1260 2171 270
is_linear=0
shrinkage=0.1


Tree=50
num_leaves=7
num_cat=0
split_feature=8 10 10 7 10 4
split_gain=4.13878 4.36609 4.34022 3.77243 0.584553 0.00207888
threshold=-1.1841508370682166 1.3705446674254873 1.2244314782039198 3.6961265490732127 1.7175634918267089 -0.13367378095663637
decision_type=2 2 2 2 2 2
left_child=3 2 -2 5 -3 -1
right_child=1 4 -4 -5 -6 -7
leaf_value=-0.10655034171745054 0.001689224603374431 -0.11554106277834697 0.11861780881539158 0.046719318222300188 -0.026791343167959749 -0.10269053293779427
leaf_weight=4.6346566332504153 332.29093592939898 3.5172264687716952 3.2050810582004479 2.1621299833059311 0.94062108732759941 1.9965055189095418
leaf_count=101 3291 208 133 10 40 176
internal_value=-0.000252114 0.00149994 0.00280627 -0.0679874 -0.0968146 -0.105388
internal_weight=348.747 339.954 335.496 8.79329 4.45785 6.63116
internal_count=3959 3672 3424 287 248 277
is_linear=0
shrinkage=0.1


Tree=51
num_leaves=8
num_cat=0
split_feature=4 14 9 9 14 14 0
split_gain=3.93595 5.63123 4.84467 15.3718 4.70704 3.85046 3.3063
threshold=0.37510477902476752 1.03557713417692 -0.12794464211321219 -0.074928952729841083 3.6179273496306457 -1.5467730812768055 2018.5000000000002
decision_type=2 2 2 2 2 2 2
left_child=1 5 4 -4 -2 -1 -3
right_child=2 6 3 -5 -6 -7 -8
leaf_value=-0.078583645495247212 -0.077654982479448256 0.16090111329027323 0.35102402956080064 -0.016416136687001284 0.10480091437273187 0.0029299213333439482 0.036164192336175745
leaf_weight=5.9128622584976247 18.836865517543632 3.2921872250735742 1.2048189621418739 20.698771146591753 1.5286922240629781 290.6952815707773 5.993557152338326
leaf_count=89 742 20 24 767 11 2270 36
internal_value=-0.00024676 0.00370563 -0.0288494 0.00379511 -0.0639594 0.00130495 0.0803887
internal_weight=348.163 305.894 42.2691 21.9036 20.3656 296.608 9.28574
internal_count=3959 2415 1544 791 753 2359 56
is_linear=0
shrinkage=0.1


Tree=52
num_leaves=5
num_cat=0
split_feature=8 8 3 6
split_gain=3.79733 3.7037 3.932 3.51407
threshold=3.3775433966119142 -1.1841508370682166 13.500000000000002 2.6877142857425267
decision_type=2 2 2 2
left_child=1 3 -3 -1
right_child=-2 2 -4 -5
leaf_value=-0.10552750626174151 -0.13380474671258438 0.0060829267246051777 -0.027795171290564344 0.042456731763842383
leaf_weight=5.9921851705294085 2.1158806020393959 297.93070915807039 38.71038470370695 2.1915087052620947
leaf_count=271 26 2746 900 16
internal_value=-0.000248117 0.0005714 0.00218728 -0.0658989
internal_weight=346.941 344.825 336.641 8.18369
internal_count=3959 3933 3646 287
is_linear=0
shrinkage=0.1


Tree=53
num_leaves=5
num_cat=0
split_feature=12 8 14 15
split_gain=3.54607 5.29358 4.08315 0.573092
threshold=-1.9861185524230389 3.3775433966119142 -1.5467730812768055 0.26912464883600157
decision_type=2 2 2 2
left_child=3 2 -2 -1
right_child=1 -3 -4 -5
leaf_value=0.051758485888884667 -0.086602660665207665 -0.17112027252878276 0.00080409776414773048 0.11737990170052788
leaf_weight=3.101200681179761 5.431626853067427 1.8303358536213625 333.09857895202003 2.3313454240560532
leaf_count=27 94 25 3799 14
internal_value=-0.000235952 -0.00151533 -0.00059832 0.0799195
internal_weight=345.793 340.361 338.53 5.43255
internal_count=3959 3918 3893 41
is_linear=0
shrinkage=0.1


Tree=54
num_leaves=5
num_cat=0
split_feature=10 8 4 12
split_gain=3.42185 3.72678 3.37263 1.37119
threshold=-2.0631152792813388 3.3775433966119142 0.37510477902476752 -1.7680419311440361
decision_type=2 2 2 2
left_child=3 2 -2 -1
right_child=1 -3 -4 -5
leaf_value=0.13546124474541818 0.0030268930832915682 -0.14467395802584673 -0.027715303084827184 0.03051164185478842
leaf_weight=2.4470246061682701 298.03604690544307 1.8063397556543339 40.540303603047505 2.5341041758656493
leaf_count=19 2362 25 1531 22
internal_value=-0.000214259 -0.00141839 -0.000654102 0.0820691
internal_weight=345.364 340.383 338.576 4.98113
internal_count=3959 3918 3893 41
is_linear=0
shrinkage=0.1


Tree=55
num_leaves=8
num_cat=0
split_feature=3 6 10 11 15 6 9
split_gain=3.34684 5.471 9.42272 4.41538 7.1418 4.21042 4.02401
threshold=2.5000000000000004 -0.20648243636839075 0.71303531592843516 0.43803583704172966 1.5770886802415467 2.6877142857425267 0.47833650777798359
decision_type=2 2 2 2 2 2 2
left_child=1 2 -1 5 -5 -2 -3
right_child=3 6 -4 4 -6 -7 -8
leaf_value=-0.023983614390553829 0.0053849908440585584 -0.11137967835238263 0.20330574489082662 -0.045476040612310704 0.11731651655008918 0.1091852135028577 0.0013902750891477429
leaf_weight=11.309040843974801 278.36469895532355 9.9854400944896025 2.1747204144485286 31.00296399439685 2.9514237395487717 3.9634063220582894 4.6321197017095974
leaf_count=143 2145 248 47 1175 85 26 90
internal_value=-0.00019379 -0.0332665 0.0126746 0.00274468 -0.0313256 0.00684217 -0.0756443
internal_weight=344.384 28.1013 13.4838 316.282 33.9544 282.328 14.6176
internal_count=3959 528 190 3431 1260 2171 338
is_linear=0
shrinkage=0.1


Tree=56
num_leaves=7
num_cat=0
split_feature=8 15 11 10 7 12
split_gain=3.29567 3.93067 5.32622 3.41554 2.9592 0.00118269
threshold=-1.1841508370682166 -0.7237306561857072 -0.54424740107724612 -2.0631152792813388 3.6961265490732127 -0.16881337509801692
decision_type=2 2 2 2 2 2
left_child=4 2 -2 -3 5 -1
right_child=1 3 -4 -5 -6 -7
leaf_value=-0.1055487520447836 0.068618881406006249 0.083886471225948958 -0.0053347022551383403 -0.003988948365297929 0.033589309218126834 -0.10232618690705204
leaf_weight=3.8250715741887689 19.209896467626095 4.4911106899380675 19.752445728285238 291.97720546112396 2.1662702262401581 1.6216875424142916
leaf_count=108 132 37 316 3187 10 169
internal_value=-0.000210059 0.00126658 0.0311272 -0.00265775 -0.0652709 -0.104589
internal_weight=343.044 335.431 38.9623 296.468 7.61303 5.44676
internal_count=3959 3672 448 3224 287 277
is_linear=0
shrinkage=0.1


Tree=57
num_leaves=8
num_cat=0
split_feature=13 12 10 12 0 2 7
split_gain=3.07369 6.11761 7.73799 7.23604 2.57031 5.24478 2.39349
threshold=0.77136193689672727 0.41272428164599023 -0.67503998167645185 1.0000000180025095e-35 2015.5000000000002 14.500000000000002 0.25408844778732248
decision_type=2 2 2 2 2 2 2
left_child=1 3 -3 -1 5 -2 -6
right_child=4 2 -4 -5 6 -7 -8
leaf_value=0.0030720731870767077 0.39078223009356017 -0.11924463404026198 0.05330323650254204 -0.044659571490076037 -0.079028029449749945 -0.029020571221527375 0.0087553404487546917
leaf_weight=251.53045215411112 0.40406543575227516 2.8124372484162441 34.24923350661993 36.350487396121025 10.982121004955841 1.1295086650643495 4.3309557288885108
leaf_count=1800 23 25 586 539 869 58 59
internal_value=-0.000191065 0.00196819 0.0402094 -0.00295496 -0.0418394 0.0815889 -0.0542005
internal_weight=341.789 324.943 37.0617 287.881 16.8467 1.53357 15.3131
internal_count=3959 2950 611 2339 1009 81 928
is_linear=0
shrinkage=0.1


Tree=58
num_leaves=5
num_cat=0
split_feature=12 8 14 15
split_gain=2.97032 4.01981 3.42965 0.524562
threshold=-1.9861185524230389 3.3775433966119142 -1.5467730812768055 0.26912464883600157
decision_type=2 2 2 2
left_child=3 2 -2 -1
right_child=1 -3 -4 -5
leaf_value=0.047551816314781559 -0.08181626339912651 -0.15361104611900739 0.00068970389671981652 0.11201583136564411
leaf_weight=2.9527058117091647 5.1165201880503437 1.7251980872824777 329.29537591082044 2.2049105390906334
leaf_count=27 94 25 3799 14
internal_value=-0.000202512 -0.0013581 -0.000572642 0.0751106
internal_weight=341.295 336.137 334.412 5.15762
internal_count=3959 3918 3893 41
is_linear=0
shrinkage=0.1


Tree=59
num_leaves=7
num_cat=0
split_feature=8 15 7 1 6 7
split_gain=2.88404 3.7095 3.37934 3.2858 2.73561 0.00197146
threshold=-1.1841508370682166 -0.79872979485342122 2.1356033246768757 6.5000000000000009 2.6877142857425267 2.2443073184713325
decision_type=2 2 2 2 2 2
left_child=4 3 -3 -2 5 -1
right_child=1 2 -4 -5 -6 -7
leaf_value=-0.10420543509024918 0.0027160372989167496 0.0016773715408342636 -0.045545905549475525 0.12062058873795001 0.029671971034764086 -0.11204027003830844
leaf_weight=4.5599951073527327 4.6314229683484864 308.41417684359476 15.936761695891617 4.8271550280041993 2.189434630330652 0.34549828339368094
leaf_count=264 60 3462 98 52 16 7
internal_value=-0.000183679 0.00115726 -0.000642912 0.0628882 -0.0632735 -0.104757
internal_weight=340.904 333.81 324.351 9.45858 7.09493 4.90549
internal_count=3959 3672 3560 112 287 271
is_linear=0
shrinkage=0.1


Tree=60
num_leaves=8
num_cat=0
split_feature=14 4 5 5 10 10 13
split_gain=2.74612 3.64145 5.59508 3.10412 2.23276 3.01786 2.23935
threshold=1.7733914814494127 0.37510477902476752 1.7648467025693717 -1.7753975036355862 -0.23670041401175071 0.12858255904216701 -0.86931009047900065
decision_type=2 2 2 2 2 2 2
left_child=1 3 -3 -1 6 -6 -2
right_child=4 2 -4 -5 5 -7 -8
leaf_value=0.077651068837781001 0.06703883411723234 -0.041502104114874663 0.17265108874467061 0.00031867577394865428 0.28235110732940455 0.039510620236801547 -0.035878271240711919
leaf_weight=5.2847921382635823 5.4475687816739073 31.803357497556135 1.2686591888777901 291.13609193195589 0.88380556460469906 1.2156417118385432 3.4551397999748579
leaf_count=38 28 1416 50 2350 9 40 28
internal_value=-0.000173026 -0.00181407 -0.0332871 0.00169741 0.048973 0.141739 0.0270967
internal_weight=340.495 329.493 33.072 296.421 11.0022 2.09945 8.90271
internal_count=3959 3854 1466 2388 105 49 56
is_linear=0
shrinkage=0.1


Tree=61
num_leaves=8
num_cat=0
split_feature=3 10 3 15 13 12 1
split_gain=2.69832 4.91709 4.29293 3.74694 3.31949 7.63866 3.58662
threshold=2.5000000000000004 0.4025447888326053 1.5000000000000002 0.40347223289587991 0.77136193689672727 0.41272428164599023 6.5000000000000009
decision_type=2 2 2 2 2 2 2
left_child=1 3 -3 -1 5 -2 -6
right_child=4 2 -4 -5 6 -7 -8
leaf_value=-0.085862661733934129 -0.00079472168340355008 -0.008664094202489557 0.1573612977076298 0.011499585409056948 0.03318679426322934 0.051665143859885736 -0.080253507460653503
leaf_weight=13.675832750508567 268.19614709005691 5.8141373088583341 2.1272330046631396 5.559607306495308 3.972595505649223 30.960601067170501 9.3394258839543891
leaf_count=197 2086 214 44 73 244 476 625
internal_value=-0.000168357 -0.0303914 0.0358087 -0.0577221 0.00246027 0.0046345 -0.0464005
internal_weight=339.646 27.1768 7.94137 19.2354 312.469 299.157 13.312
internal_count=3959 528 258 270 3431 2562 869
is_linear=0
shrinkage=0.1


Tree=62
num_leaves=7
num_cat=0
split_feature=3 9 3 11 7 4
split_gain=2.64525 6.0582 4.37708 7.53135 6.18283 3.34539
threshold=13.500000000000002 -1.4790561156830038 9.5000000000000018 -1.8983111476476269 1.7318035946152772 -0.30326663428377099
decision_type=2 2 2 2 2 2
left_child=2 -2 3 -1 -4 -3
right_child=1 5 4 -5 -6 -7
leaf_value=-0.21025068741510614 0.38504835074197241 -0.003562986782994701 0.024881239213386017 -0.0052912723630894947 -0.04354542790496474 -0.063774062106127766
leaf_weight=1.8118608519434918 0.35703489556908508 22.006148699205369 113.65950718289241 170.6191821990069 14.940746741369365 15.891356361331416
leaf_count=13 3 180 795 2085 87 796
internal_value=-0.000179016 -0.0249484 0.00296863 -0.00744493 0.0169314 -0.028811
internal_weight=339.286 38.2545 301.031 172.431 128.6 37.8975
internal_count=3959 979 2980 2098 882 976
is_linear=0
shrinkage=0.1


Tree=63
num_leaves=7
num_cat=0
split_feature=8 10 10 7 3 12
split_gain=2.47341 3.28262 4.25074 2.62408 0.621556 0.000676134
threshold=-1.1841508370682166 1.3705446674254873 1.2244314782039198 3.6961265490732127 12.500000000000002 -0.16881337509801692
decision_type=2 2 2 2 2 2
left_child=3 2 -2 5 -3 -1
right_child=1 4 -4 -5 -6 -7
leaf_value=-0.10467972961015298 0.00098347024515202971 -0.11730991225744017 0.11771922409966054 0.03075183484761539 -0.023840692037812954 -0.10197657337816118
leaf_weight=3.2006025579757988 324.43876911583357 2.7182084303349252 3.1495793457143 2.1330063194036484 0.96367353596724559 1.3016254871617992
leaf_count=108 3291 149 133 10 99 169
internal_value=-0.000160356 0.00105049 0.00210582 -0.0606127 -0.0928458 -0.103898
internal_weight=337.905 331.27 327.588 6.63523 3.68188 4.50223
internal_count=3959 3672 3424 287 248 277
is_linear=0
shrinkage=0.1


Tree=64
num_leaves=6
num_cat=0
split_feature=12 15 13 4 15
split_gain=2.44743 3.55518 8.58313 3.04117 0.424275
threshold=-1.9861185524230389 2.4818993367878837 -0.91618643411830714 -1.1512309009194441 0.26912464883600157
decision_type=2 2 2 2 2
left_child=4 3 -3 -2 -1
right_child=1 2 -4 -5 -6
leaf_value=0.044617517876203563 0.018290369302371781 -0.17992019345921936 0.013317955031568962 -0.0047230501379251708 0.10412618563451284
leaf_weight=2.8066520988941184 74.704258647281677 3.727890282869339 5.9951096298173052 248.21267231507227 2.0904299765825272
leaf_count=27 607 18 85 3208 14
internal_value=-0.000159799 -0.00119298 -0.0607714 0.000600921 0.0700201
internal_weight=337.537 332.64 9.723 322.917 4.89708
internal_count=3959 3918 103 3815 41
is_linear=0
shrinkage=0.1


Tree=65
num_leaves=7
num_cat=0
split_feature=14 10 4 1 15 13
split_gain=2.44418 4.90894 3.93925 4.18317 2.88776 1.65483
threshold=-0.44005156036806609 -1.0403229547303694 -1.4904166075737133 9.5000000000000018 -0.53821521632583325 -1.1974444959541459
decision_type=2 2 2 2 2 2
left_child=1 -1 3 -2 -4 -3
right_child=2 5 4 -5 -6 -7
leaf_value=0.04887688145822059 0.10057677302778026 0.063404496229354471 0.012003627493617223 0.0091255516296806383 -0.0085116390493192185 -0.078764781915992371
leaf_weight=4.8871480287052718 7.9934207201004055 0.87927922140806991 107.34598505764734 13.364516228437422 190.15615665074438 11.889659917913374
leaf_count=31 75 6 1354 120 2068 305
internal_value=-0.000136564 -0.0363539 0.00186888 0.0433521 -0.00110923 -0.0689749
internal_weight=336.516 17.6561 318.86 21.3579 297.502 12.7689
internal_count=3959 342 3617 195 3422 311
is_linear=0
shrinkage=0.1


Tree=66
num_leaves=5
num_cat=0
split_feature=10 8 8 12
split_gain=2.30505 2.45707 2.10446 1.35002
threshold=-2.0631152792813388 3.3775433966119142 -1.1841508370682166 -1.7680419311440361
decision_type=2 2 2 2
left_child=3 2 -2 -1
right_child=1 -3 -4 -5
leaf_value=0.1302457215905751 -0.058568755717864143 -0.12075247547595398 0.00065115728470105188 0.018371720544245167
leaf_weight=2.0882363766431808 6.114258298999629 1.706477039027958 323.22111874376424 2.2311065457761279
leaf_count=19 284 25 3609 22
internal_value=-0.000121436 -0.00106844 -0.000448287 0.0724585
internal_weight=335.361 331.042 329.335 4.31934
internal_count=3959 3918 3893 41
is_linear=0
shrinkage=0.1


Tree=67
num_leaves=8
num_cat=0
split_feature=14 5 5 10 4 15 15
split_gain=2.31421 3.86387 3.95101 3.95077 3.21454 11.7396 11.317
threshold=0.6666699605406734 0.38789669914418162 0.61746149736290168 -0.090587224790183593 -0.81204519426517485 0.29470097064793566 0.42586100845559399
decision_type=2 2 2 2 2 2 2
left_child=4 3 -3 -2 6 -6 -1
right_child=1 2 -4 -5 5 -7 -8
leaf_value=0.023974609855055864 -0.037702863726598139 0.21208848043507331 0.047894001328889761 0.089266172923411963 -0.028640183253220205 0.031084026240581621 -0.039828976942094863
leaf_weight=113.12809337326325 9.2054390357807261 1.856956539908422 6.9523285562172532 3.3398040605243322 117.9355902238749 45.651595168747008 36.856965878047049
leaf_count=821 64 18 87 89 1944 717 219
internal_value=-0.000109161 0.0317438 0.0825054 -0.00390107 -0.00227837 -0.0119732 0.00829567
internal_weight=334.927 21.3545 8.80929 12.5452 313.572 163.587 149.985
internal_count=3959 258 105 153 3701 2661 1040
is_linear=0
shrinkage=0.1


Tree=68
num_leaves=8
num_cat=0
split_feature=3 2 15 15 3 13 5
split_gain=2.12295 3.50106 6.94764 4.74227 2.78874 7.48215 5.64404
threshold=14.500000000000002 36.500000000000007 0.23313938418679234 1.5342534857209624 9.5000000000000018 -1.8537133069044371 1.8151076314582655
decision_type=2 2 2 2 2 2 2
left_child=4 3 -3 -2 5 -1 -6
right_child=1 2 -4 -5 6 -7 -8
leaf_value=-0.2118566911434821 -0.06911879691703908 0.097340842965130417 -0.092749743889551248 0.098321043358617216 0.016870036079349841 -0.0041688556443972942 -0.090100140808963877
leaf_weight=1.7526389975100745 16.322640977916315 5.181047479156403 3.0573061797767878 1.8870372045785178 131.7017959668301 168.71304016537033 5.1243926435708991
leaf_count=13 602 97 32 48 1056 2085 26
internal_value=-0.000109204 -0.0272951 0.026797 -0.0517673 0.00223064 -0.00630419 0.0128638
internal_weight=333.74 26.448 8.23835 18.2097 307.292 170.466 136.826
internal_count=3959 779 129 650 3180 2098 1082
is_linear=0
shrinkage=0.1


Tree=69
num_leaves=5
num_cat=0
split_feature=6 9 8 9
split_gain=2.22995 5.54398 4.17815 2.25107
threshold=2.6877142857425267 2.4383674418779084 -1.1841508370682166 0.89947261031600168
decision_type=2 2 2 2
left_child=1 2 -1 -2
right_child=3 -3 -4 -5
leaf_value=-0.10409498179406246 0.13390282034342679 -0.17942465813856506 0.0010616862672245661 0.00012866212349285088
leaf_weight=3.8232492008246473 2.4764671428129068 1.7345639707054932 322.27162544359453 2.556394481100142
leaf_count=262 20 30 3627 20
internal_value=-0.000105504 -0.00111965 -0.000171207 0.0659535
internal_weight=332.862 327.829 326.095 5.03286
internal_count=3959 3919 3889 40
is_linear=0
shrinkage=0.1


Tree=70
num_leaves=7
num_cat=0
split_feature=14 12 2 4 1 15
split_gain=2.08115 2.97524 2.93538 2.80522 4.19471 2.63022
threshold=-1.1778659076405589 -1.6953497240510353 6.5000000000000009 -1.4904166075737133 9.5000000000000018 -0.53821521632583325
decision_type=2 2 2 2 2 2
left_child=1 -1 -3 4 -2 -5
right_child=3 2 -4 5 -6 -7
leaf_value=0.11840707116416278 0.09749377318460492 0.086125170531711981 -0.11760825343225093 0.010966735370201035 0.0034615267106871046 -0.0083782513079454102
leaf_weight=0.82866318523883808 7.3138046115636852 0.84029183653183182 4.4648739052936435 109.59232472628355 13.502040592022238 195.95121524808928
leaf_count=4 75 11 111 1445 125 2188
internal_value=-0.000104323 -0.0578132 -0.0853387 0.000980298 0.0365005 -0.00143959
internal_weight=332.493 6.13383 5.30517 326.359 20.8158 305.544
internal_count=3959 126 122 3833 200 3633
is_linear=0
shrinkage=0.1


Tree=71
num_leaves=8
num_cat=0
split_feature=10 10 3 13 10 5 5
split_gain=1.99851 3.43129 7.08669 3.75707 1.55645 2.12882 0.120022
threshold=1.3705446674254873 1.2244314782039198 13.500000000000002 0.95886731145395332 1.7175634918267089 0.96641594650579521 3.1723521595889204
decision_type=2 2 2 2 2 2 2
left_child=1 3 -3 -1 6 -6 -2
right_child=4 2 -4 -5 5 -7 -8
leaf_value=0.0012189227253977422 -0.10645597146931836 0.20418574350778509 -0.10561471326109298 -0.076490817942168512 -0.11150500185059348 0.17267319406856413 -0.17963608979391013
leaf_weight=318.28907729510684 2.4398064899723977 2.2310914958361532 1.1036233215127138 6.345581541187129 0.52868125098757424 0.5257538934238255 0.24678726494312275
leaf_count=3120 227 65 74 426 36 10 1
internal_value=-9.23745e-05 0.000736621 0.101657 -0.000300057 -0.072769 0.0301896 -0.113178
internal_weight=331.71 327.969 3.33471 324.635 3.74103 1.05444 2.68659
internal_count=3959 3685 139 3546 274 46 228
is_linear=0
shrinkage=0.1


Tree=72
num_leaves=6
num_cat=0
split_feature=10 11 1 10 15
split_gain=1.94715 2.50596 6.37745 3.85547 0.562863
threshold=-2.0631152792813388 -1.8983111476476269 22.500000000000004 -1.4786625223950707 0.30323848866553066
decision_type=2 2 2 2 2
left_child=4 2 -2 -3 -1
right_child=1 3 -4 -5 -6
leaf_value=0.10351687414646067 -0.087823293802763033 0.030437306671957234 0.040491917274937506 -0.0031693703246807358 0.029124400947331888
leaf_weight=2.1625955887138835 10.183048941195013 39.042844954878092 6.2511935234069815 271.68164240266196 1.920037969946861
leaf_count=26 87 273 49 3509 15
internal_value=-0.000102951 -0.000959433 -0.0390153 0.00105334 0.0685305
internal_weight=331.241 327.159 16.4342 310.724 4.08263
internal_count=3959 3918 136 3782 41
is_linear=0
shrinkage=0.1


Tree=73
num_leaves=6
num_cat=0
split_feature=12 14 2 2 11
split_gain=1.89864 2.36687 2.20021 1.94192 0.376574
threshold=-1.9861185524230389 -1.5467730812768055 3.5000000000000004 12.500000000000002 -1.7574259023397261
decision_type=2 2 2 2 2
left_child=4 3 -3 -2 -1
right_child=1 2 -4 -5 -6
leaf_value=0.035537208784317764 0.047086161287369824 -0.050309775628920951 0.0013841016019958225 -0.10929593330052936 0.092823046090731817
leaf_weight=2.3274602144956589 1.0322292342316348 8.4557667883345839 313.27224070951343 3.4415769400075078 2.2634666115045539
leaf_count=23 16 180 3642 80 18
internal_value=-8.02329e-05 -0.000979007 2.54652e-05 -0.0732143 0.0637809
internal_weight=330.793 326.202 321.728 4.47381 4.59093
internal_count=3959 3918 3822 96 41
is_linear=0
shrinkage=0.1


Tree=74
num_leaves=8
num_cat=0
split_feature=4 4 13 14 0 12 5
split_gain=1.84769 4.90652 5.52406 3.49185 3.01169 2.92309 1.93307
threshold=0.37510477902476752 0.71429048567903697 0.30259850050366216 1.03557713417692 2018.5000000000002 0.41272428164599023 -0.85267067263725316
decision_type=2 2 2 2 2 2 2
left_child=3 6 -3 5 -5 -1 -2
right_child=1 2 -4 4 -6 -7 -8
leaf_value=-0.0035036007479258488 -0.0076840357551949366 0.028810900027293807 -0.073662614168034088 0.14171662662741577 0.021148602467100444 0.02545801578665062 -0.10491730390765946
leaf_weight=243.21442167041823 2.7849793101195246 19.792268937686462 7.164979455061256 3.1999437399208528 5.8765494860708714 40.678182072471827 7.6915148133411986
leaf_count=1782 83 285 870 20 36 577 306
internal_value=-7.47733e-05 -0.0209953 0.00157442 0.00259831 0.0636552 0.000646229 -0.0790697
internal_weight=330.403 37.4337 26.9572 292.969 9.07649 283.893 10.4765
internal_count=3959 1544 1155 2415 56 2359 389
is_linear=0
shrinkage=0.1


Tree=75
num_leaves=5
num_cat=0
split_feature=6 9 8 9
split_gain=1.84753 4.76905 3.84697 1.82932
threshold=2.6877142857425267 2.4383674418779084 -1.1841508370682166 0.89947261031600168
decision_type=2 2 2 2
left_child=1 2 -1 -2
right_child=3 -3 -4 -5
leaf_value=-0.10395613583320443 0.12030029497933839 -0.17223528067285326 0.00098778619593672761 -0.00035309200401832902
leaf_weight=3.5316032718401393 2.5176526969298711 1.6186452434631053 319.95552118611522 2.5089314272627234
leaf_count=262 20 30 3627 20
internal_value=-8.44616e-05 -0.00101466 -0.000157917 0.0600783
internal_weight=330.132 325.106 323.487 5.02658
internal_count=3959 3919 3889 40
is_linear=0
shrinkage=0.1


Tree=76
num_leaves=8
num_cat=0
split_feature=3 6 10 9 3 3 10
split_gain=1.72982 4.704 5.70107 3.86346 3.66108 11.4401 8.76941
threshold=2.5000000000000004 -0.20648243636839075 0.71303531592843516 0.47833650777798359 4.5000000000000009 8.5000000000000018 -0.82115317089801887
decision_type=2 2 2 2 2 2 2
left_child=1 2 -1 -3 6 -6 -2
right_child=4 3 -4 -5 5 -7 -8
leaf_value=-0.015100048750073642 -0.015340664632864702 -0.10777150709577021 0.15230148102184707 0.008046087897798088 -0.060807915578432764 0.0045735245584988459 0.052930688320438214
leaf_weight=10.485134175745772 35.249771340750158 8.3958203525980917 2.5241647926159194 4.3842830345965913 30.958470648096409 197.43324151169509 40.352816655533388
leaf_count=143 218 248 47 90 632 2253 328
internal_value=-8.44576e-05 -0.02495 0.0173805 -0.0680397 0.00202502 -0.00428892 0.0210991
internal_weight=329.784 25.7894 13.0093 12.7801 303.994 228.392 75.6026
internal_count=3959 528 190 338 3431 2885 546
is_linear=0
shrinkage=0.1


Tree=77
num_leaves=8
num_cat=0
split_feature=10 10 9 13 10 5 5
split_gain=1.70146 2.71547 5.97898 3.10539 1.3828 1.71942 0.0785983
threshold=1.3705446674254873 1.2244314782039198 -0.28558711964009903 0.95886731145395332 1.7175634918267089 0.96641594650579521 3.1723521595889204
decision_type=2 2 2 2 2 2 2
left_child=1 3 -3 -1 6 -6 -2
right_child=4 2 -4 -5 5 -7 -8
leaf_value=0.0010074309943603622 -0.1061875827947483 -0.10848921555892695 0.1764677887057674 -0.073052256990477987 -0.11000473964625682 0.15525965093893879 -0.16655999393824905
leaf_weight=315.80017772107385 2.1309093157178722 1.0635820208117368 2.3930326408008105 5.7651275262469417 0.4665110099595039 0.51313548081088811 0.23992300033569325
leaf_count=3120 227 50 89 426 36 10 1
internal_value=-0.000103509 0.000627334 0.088788 -0.000320335 -0.0710009 0.0289398 -0.112297
internal_weight=328.372 325.022 3.45661 321.565 3.35048 0.979646 2.37083
internal_count=3959 3685 139 3546 274 46 228
is_linear=0
shrinkage=0.1


Tree=78
num_leaves=8
num_cat=0
split_feature=12 0 11 12 1 6 7
split_gain=1.74711 5.8154 6.79002 5.18082 5.58502 4.80366 3.59571
threshold=0.41272428164599023 2018.5000000000002 0.20322709486189477 1.0000000180025095e-35 5.5000000000000009 -1.1840469930388111 2.514272245128168
decision_type=2 2 2 2 2 2 2
left_child=3 2 -2 6 -5 -3 -1
right_child=1 5 -4 4 -6 -7 -8
leaf_value=0.0040479045462087125 0.11375011783471423 0.072597598043196737 -0.0017610503435215243 -0.112958555732932 -0.017431030099429423 -0.030068946431158036 -0.067530308154292479
leaf_weight=235.86550179775804 10.589187703211794 5.6004825234413174 9.7971376671921444 7.963482934748753 26.441476374515332 24.468574293598067 7.2333821831271043
leaf_count=1760 134 100 552 124 442 806 41
internal_value=-0.000109928 0.0170072 0.0582385 -0.00322214 -0.0395421 -0.0109469 0.0019181
internal_weight=327.959 50.4554 20.3863 277.504 34.405 30.0691 243.099
internal_count=3959 1592 686 2367 566 906 1801
is_linear=0
shrinkage=0.1


Tree=79
num_leaves=8
num_cat=0
split_feature=10 11 12 4 11 1 3
split_gain=1.68634 6.01601 5.1616 4.9132 4.05393 5.11508 3.49668
threshold=0.34775234287451767 1.0000000180025095e-35 -0.16881337509801692 1.0534761923333062 0.38520387005126672 30.500000000000004 2.5000000000000004
decision_type=2 2 2 2 2 2 2
left_child=4 2 -2 -3 6 -6 -1
right_child=1 3 -4 -5 5 -7 -8
leaf_value=-0.047406083282764321 0.03083246326889251 0.011484242903943077 0.18344151343134396 -0.10265710600266201 -0.10827250447856292 0.11533299570027106 0.0016559251725172747
leaf_weight=15.417910580988972 5.8439695537090302 39.352556438243482 3.5702707399614138 4.1708905255654818 6.6687969523482016 1.2084021250484509 251.29980915109627
leaf_count=204 37 1031 36 568 169 34 1880
internal_value=-0.000117745 0.0162244 0.0887082 0.000545976 -0.00326826 -0.0739703 -0.00118016
internal_weight=327.533 52.9377 9.41424 43.5234 274.595 7.8772 266.718
internal_count=3959 1672 73 1599 2287 203 2084
is_linear=0
shrinkage=0.1


Tree=80
num_leaves=8
num_cat=0
split_feature=5 13 2 11 5 3 9
split_gain=1.67937 5.51457 9.1799 8.17801 5.24189 7.4493 4.26604
threshold=-0.82765987707111321 -1.103691808675533 12.500000000000002 -0.95907617892828767 -0.74608559169191591 4.5000000000000009 -0.76121564952330201
decision_type=2 2 2 2 2 2 2
left_child=1 2 -1 -3 5 -2 -6
right_child=4 3 -4 -5 6 -7 -8
leaf_value=-0.19491610530053638 0.17520326071334458 0.077756432964589811 -0.025316449843600781 -0.016344037171961746 0.12980206437098274 0.013547063910249325 -0.00095181360103177093
leaf_weight=3.8947901949286488 4.2000784780830136 11.736160951666532 17.672860369086266 43.346063401550055 2.5221079385373733 8.8717670412734133 234.42008976306533
leaf_count=22 41 79 128 652 31 104 2902
internal_value=-0.000129046 -0.0130784 -0.0559436 0.00370559 0.003841 0.0654884 0.000439983
internal_weight=326.664 76.6499 21.5677 55.0822 250.014 13.0718 236.942
internal_count=3959 881 150 731 3078 145 2933
is_linear=0
shrinkage=0.1


Tree=81
num_leaves=6
num_cat=0
split_feature=10 11 1 10 1
split_gain=1.64449 2.03482 4.91515 3.01585 0.796734
threshold=-2.0631152792813388 -1.8983111476476269 25.500000000000004 -1.4786625223950707 17.500000000000004
decision_type=2 2 2 2 2
left_child=4 2 -2 -3 -1
right_child=1 3 -4 -5 -6
leaf_value=0.10829136773049111 -0.066654539186070214 0.027242401034877912 0.057221580897943804 -0.0027803071289035134 0.017544493438132656
leaf_weight=2.0114725157618518 12.457490010187032 38.238644264638424 4.3116326108574858 267.66735124000115 1.8641211204230783
leaf_count=23 101 273 35 3509 18
internal_value=-0.000108971 -0.000886696 -0.0348038 0.00097257 0.064643
internal_weight=326.551 322.675 16.7691 305.906 3.87559
internal_count=3959 3918 136 3782 41
is_linear=0
shrinkage=0.1


Tree=82
num_leaves=6
num_cat=0
split_feature=6 8 15 15 12
split_gain=1.63209 3.48948 2.68096 1.58529 0.000507723
threshold=2.6877142857425267 -1.1841508370682166 -0.79188926712712682 0.24181855348467132 -0.38688999637701954
decision_type=2 2 2 2 2
left_child=1 4 -3 -2 -1
right_child=3 2 -4 -5 -6
leaf_value=-0.10451717085733535 0.10806940767667937 0.048435104996991683 -0.0016611520392520011 -0.0043593189167687391 -0.10188970558653294
leaf_weight=2.1637514478061353 2.7251397017389527 11.068170541664584 306.71664825675543 2.3234844459220767 1.1141419848427165
leaf_count=85 22 126 3522 18 186
internal_value=-8.80323e-05 -0.000975148 8.36573e-05 0.0563273 -0.103624
internal_weight=326.111 321.063 317.785 5.04862 3.27789
internal_count=3959 3919 3648 40 271
is_linear=0
shrinkage=0.1


Tree=83
num_leaves=6
num_cat=0
split_feature=12 15 13 15 11
split_gain=1.62781 2.17954 6.50314 2.65417 0.315678
threshold=-1.9861185524230389 2.4818993367878837 -0.91618643411830714 2.1788599731571612 -1.7574259023397261
decision_type=2 2 2 2 2
left_child=4 3 -3 -2 -1
right_child=1 2 -4 -5 -6
leaf_value=0.034375462300169767 -0.00051500286388430087 -0.14895082151365333 0.01852813747883018 0.08142251327593647 0.087806399022053838
leaf_weight=2.2942724321037531 307.73461275309091 3.8307201415300369 5.8730055177584273 4.0047791046090415 2.1345062069594851
leaf_count=23 3771 18 85 44 18
internal_value=-8.558e-05 -0.000915179 -0.0475872 0.000537612 0.0601272
internal_weight=325.872 321.443 9.70373 311.739 4.42878
internal_count=3959 3918 103 3815 41
is_linear=0
shrinkage=0.1


Tree=84
num_leaves=7
num_cat=0
split_feature=3 9 10 3 10 4
split_gain=1.639 4.4202 3.12727 6.22107 5.55785 2.56563
threshold=13.500000000000002 -1.4790561156830038 0.34775234287451767 12.500000000000002 0.18337500500025466 -0.30326663428377099
decision_type=2 2 2 2 2 2
left_child=2 -2 4 -4 -1 -3
right_child=1 5 3 -5 -6 -7
leaf_value=0.00087931032837016776 0.31791001411246772 -0.0023087716259982522 0.0094852357601419302 0.10906716595589983 -0.083697112712246113 -0.057358339839453133
leaf_weight=239.76295252225827 0.38248557038605113 21.622125318855979 34.481387807405554 7.6686066784895948 8.029997813748194 13.914275878109036
leaf_count=1810 3 180 977 47 146 796
internal_value=-7.43524e-05 -0.020224 0.00242184 0.0276028 -0.00186148 -0.0238634
internal_weight=325.862 35.9189 289.943 42.15 247.793 35.5364
internal_count=3959 979 2980 1024 1956 976
is_linear=0
shrinkage=0.1


Tree=85
num_leaves=8
num_cat=0
split_feature=5 10 7 13 3 9 1
split_gain=1.5888 4.4691 4.28865 5.72561 4.20725 3.02776 0.540586
threshold=-0.53283565054903614 -1.9900586846705555 -1.1006210969667756 -1.103691808675533 9.5000000000000018 -0.27892400921456156 16.500000000000004
decision_type=2 2 2 2 2 2 2
left_child=2 6 3 -1 -4 -3 -2
right_child=1 5 4 -5 -6 -7 -8
leaf_value=-0.036451858338929589 0.11764612116017106 0.027932259041942131 -0.061804427084365968 0.023192094087544444 0.0052690525890106742 -0.0032579986843255882 0.057345359178036008
leaf_weight=23.430867649614811 3.2641295567154875 38.289722372952383 24.472775517671835 51.406983532942832 15.135633298777973 166.28430376929464 2.7301722504198551
leaf_count=176 33 463 459 374 344 2085 25
internal_value=-8.0917e-05 0.0050736 -0.00956465 0.00451826 -0.0361735 0.00257982 0.0901815
internal_weight=325.015 210.568 114.446 74.8379 39.6084 204.574 5.9943
internal_count=3959 2606 1353 550 803 2548 58
is_linear=0
shrinkage=0.1


Tree=86
num_leaves=7
num_cat=0
split_feature=7 13 5 13 9 14
split_gain=1.56524 10.3828 3.65641 2.87963 6.52426 2.63579
threshold=-2.1179186241661223 -1.103691808675533 -1.7753975036355862 -1.4318262141506786 -0.77499354750562255 -1.915680254913052
decision_type=2 2 2 2 2 2
left_child=1 -1 -3 4 -2 -5
right_child=3 2 -4 5 -6 -7
leaf_value=-0.15506121838914194 0.12901082450365126 0.10949539496347314 -0.017267487459282131 -0.096165703673792957 0.011096878191189243 -0.0019348718070755621
leaf_weight=4.6848385967314234 5.175706557929515 3.3938310556113711 6.9052060004323712 3.0039167283684938 50.258355521131307 251.19281417829916
leaf_count=35 37 23 54 78 383 3349
internal_value=-7.24863e-05 -0.0316382 0.0245046 0.00145507 0.0221061 -0.00304842
internal_weight=324.615 14.9839 10.299 309.631 55.4341 254.197
internal_count=3959 112 77 3847 420 3427
is_linear=0
shrinkage=0.1


Tree=87
num_leaves=7
num_cat=0
split_feature=7 7 2 5 6 15
split_gain=1.53236 6.63861 5.20557 4.28641 3.59956 3.15357
threshold=2.1356033246768757 1.8903572271449296 11.500000000000002 2.523108605147935 1.6908534921592773 0.44784488420043073
decision_type=2 2 2 2 2 2
left_child=1 3 -2 -1 -3 -4
right_child=2 4 5 -5 -6 -7
leaf_value=-0.0017224100571164892 -0.1168556064416164 0.15451488447895195 0.035593261673977833 0.14300687848278157 0.014199472121567589 -0.073779883196663218
leaf_weight=296.8230579982046 4.8572912178933647 4.2877656570635727 9.2801749557256681 2.060558791505172 3.1873027216643095 3.682229444384574
leaf_count=3746 30 34 61 43 21 24
internal_value=-5.4784e-05 0.00160336 -0.0285619 -0.00072462 0.0946856 0.00452364
internal_weight=324.178 306.359 17.8197 298.884 7.47507 12.9624
internal_count=3959 3844 115 3789 55 85
is_linear=0
shrinkage=0.1


Tree=88
num_leaves=8
num_cat=0
split_feature=10 10 3 2 10 5 5
split_gain=1.54543 2.31239 4.76454 2.66098 1.14602 1.37934 0.0488202
threshold=1.3705446674254873 1.2244314782039198 13.500000000000002 48.500000000000007 1.7175634918267089 0.96641594650579521 3.1723521595889204
decision_type=2 2 2 2 2 2 2
left_child=1 3 -3 -1 6 -6 -2
right_child=4 2 -4 -5 5 -7 -8
leaf_value=0.00048335964077713593 -0.10623093888647772 0.15390708430511368 -0.10614921853167164 -0.11050098309229597 -0.10960468756208451 0.13783480924422539 -0.1551179298873038
leaf_weight=315.52691509353463 1.8870837388094512 2.5270673752529542 0.97683456086087961 2.1752096248092121 0.42070737568428729 0.48500173445791006 0.22907035052776326
leaf_count=3476 227 65 74 70 36 10 1
internal_value=-5.51077e-05 0.000614539 0.0814073 -0.000276516 -0.0712345 0.0228977 -0.111523
internal_weight=324.228 321.206 3.5039 317.702 3.02186 0.905709 2.11615
internal_count=3959 3685 139 3546 274 46 228
is_linear=0
shrinkage=0.1


Tree=89
num_leaves=7
num_cat=0
split_feature=12 10 13 12 2 2
split_gain=1.45969 5.00258 13.0809 4.2986 5.27068 3.11068
threshold=0.41272428164599023 -0.67503998167645185 -0.025535904971483555 1.0000000180025095e-35 7.5000000000000009 12.500000000000002
decision_type=2 2 2 2 2 2
left_child=3 -2 -3 5 -5 -1
right_child=1 2 -4 4 -6 -7
leaf_value=-0.014567505187999055 -0.10193508248907648 0.20389275855629962 0.008544211640579117 0.029233908160436889 -0.060714504760779053 0.0096485315369706573
leaf_weight=78.833155898144469 3.3702918814960858 3.7274362472817293 42.642049504444003 8.8956056295428407 24.33728272432927 162.16131019359455
leaf_count=579 33 28 1531 121 445 1222
internal_value=-6.34869e-05 0.0156975 0.0242474 -0.00292223 -0.0366376 0.00172708
internal_weight=323.967 49.7398 46.3695 274.227 33.2329 240.994
internal_count=3959 1592 1559 2367 566 1801
is_linear=0
shrinkage=0.1


Tree=90
num_leaves=8
num_cat=0
split_feature=10 10 9 13 10 5 5
split_gain=1.37354 1.77793 4.33992 2.54614 1.02229 1.18191 0.0342849
threshold=1.3705446674254873 1.2244314782039198 -0.28558711964009903 0.95886731145395332 1.7175634918267089 0.96641594650579521 3.1723521595889204
decision_type=2 2 2 2 2 2 2
left_child=1 3 -3 -1 6 -6 -2
right_child=4 2 -4 -5 5 -7 -8
leaf_value=0.0009095619231000193 -0.10559586239297165 -0.10931191172067785 0.13630200765405054 -0.069105319060039708 -0.10883892935465976 0.12763469847007186 -0.14765585588140437
leaf_weight=311.49364688887727 1.7096912282286205 0.98569921217858825 2.6629637118894598 5.2820744246710083 0.38472879672190163 0.46903132635634392 0.21858227252960194
leaf_count=3120 227 50 89 426 36 10 1
internal_value=-6.58963e-05 0.000541538 0.0699485 -0.000257901 -0.0700279 0.0210729 -0.110364
internal_weight=323.206 320.424 3.64866 316.776 2.78203 0.85376 1.92827
internal_count=3959 3685 139 3546 274 46 228
is_linear=0
shrinkage=0.1


Tree=91
num_leaves=8
num_cat=0
split_feature=14 13 6 4 1 10 6
split_gain=1.36743 3.88127 3.29628 2.35823 3.35597 2.26588 1.51959
threshold=-0.44005156036806609 -0.63492837228246801 0.085731369158048298 -1.4904166075737133 9.5000000000000018 0.34775234287451767 1.827933194980605
decision_type=2 2 2 2 2 2 2
left_child=1 2 -1 4 -2 -5 -3
right_child=3 6 -4 5 -6 -7 -8
leaf_value=-0.038490875607712312 0.093098628221769258 -0.085713592958790427 0.10153779197190867 -0.0048192254234655021 0.0049248193189810547 0.018958082040458353 0.037988041298633854
leaf_weight=3.4778952412307254 6.6050670556724098 8.1261751308338699 3.2539060520939529 239.65493363991845 12.458507408387957 48.126946240954567 1.1313099248800416
leaf_count=22 75 281 25 1954 120 1468 14
internal_value=-7.21675e-05 -0.0285829 0.0291939 0.00141349 0.0354749 -0.000842849 -0.0705966
internal_weight=322.835 15.9893 6.7318 306.845 19.0636 287.782 9.25749
internal_count=3959 342 47 3617 195 3422 295
is_linear=0
shrinkage=0.1


Tree=92
num_leaves=8
num_cat=0
split_feature=3 3 9 0 9 9 7
split_gain=1.38675 9.17365 8.33776 7.67037 11.3563 8.5129 3.6616
threshold=4.5000000000000009 8.5000000000000018 0.70722602642798116 2020.5000000000002 0.89947261031600168 0.27575543603117386 1.0937046770627565
decision_type=2 2 2 2 2 2 2
left_child=3 2 -2 4 -1 -5 -3
right_child=1 6 -4 5 -6 -7 -8
leaf_value=0.057373918386355784 -0.075709608288987415 0.0095656036092427246 0.091152667217103467 -0.037077465195128764 -0.15532069105942911 0.047926411615643733 -0.027427776423734243
leaf_weight=37.801204306539148 26.006648129172394 161.96887176251039 3.3842443969915612 42.218562386464328 2.6888476070016614 16.341824293835089 32.050686826463789
leaf_count=327 558 2026 74 526 21 200 227
internal_value=-6.57507e-05 -0.00443229 -0.0564961 0.00978307 0.0432494 -0.0133563 0.00345455
internal_weight=322.461 223.41 29.3909 99.0504 40.4901 58.5604 194.02
internal_count=3959 2885 632 1074 348 726 2253
is_linear=0
shrinkage=0.1


Tree=93
num_leaves=7
num_cat=0
split_feature=8 15 5 9 7 13
split_gain=1.34319 2.26822 4.40783 3.79678 2.19886 0.000383357
threshold=-1.1841508370682166 -0.72208306297553693 -0.48261461128624428 -0.47769907350044927 3.6961265490732127 -0.63492837228246801
decision_type=2 2 2 2 2 2
left_child=4 2 -2 -3 5 -1
right_child=1 3 -4 -5 -6 -7
leaf_value=-0.10411878398390922 0.01542993006616411 -0.023498992470791791 0.1632906785810328 0.0040911011634400338 0.031872016919709659 -0.10184102238041
leaf_weight=1.9179775221273301 35.103574802051298 65.082498417352326 2.1389837220776817 213.50215706240851 1.9619001150131223 1.2019542457419441
leaf_count=73 431 724 31 2486 10 204
internal_value=-7.65589e-05 0.000744102 0.0239221 -0.00235445 -0.0510792 -0.103241
internal_weight=320.909 315.827 37.2426 278.585 5.08183 3.11993
internal_count=3959 3672 462 3210 287 277
is_linear=0
shrinkage=0.1


Tree=94
num_leaves=7
num_cat=0
split_feature=2 12 10 12 1 7
split_gain=1.32587 1.66014 4.24054 3.7327 1.34143 0.00477857
threshold=48.500000000000007 0.41272428164599023 -0.67503998167645185 1.0000000180025095e-35 3.5000000000000004 -1.0787272768847298
decision_type=2 2 2 2 2 2
left_child=1 3 -3 -1 -2 -6
right_child=4 2 -4 -5 5 -7
leaf_value=0.001740563106378115 0.071668682370287937 -0.091660527669287839 0.025601359280618737 -0.034748515194054086 -0.11717737216379163 -0.10599346795089315
leaf_weight=238.05814675206784 0.51710104534868095 3.3107414096593848 45.019562684552511 31.776985715667251 0.51143969967961389 1.5100115378154435
leaf_count=1788 12 33 1500 543 6 77
internal_value=-7.38086e-05 0.000500525 0.0175686 -0.00255655 -0.072057 -0.108823
internal_weight=320.704 318.165 48.3303 269.835 2.53855 2.02145
internal_count=3959 3864 1533 2331 95 83
is_linear=0
shrinkage=0.1


Tree=95
num_leaves=7
num_cat=0
split_feature=3 9 2 2 15 10
split_gain=1.31393 3.35005 2.49448 2.29728 4.55391 2.69212
threshold=13.500000000000002 -1.4790561156830038 36.500000000000007 46.500000000000007 -0.70558266129642866 0.34775234287451767
decision_type=2 2 2 2 2 2
left_child=3 -2 -3 5 -5 -1
right_child=1 2 -4 4 -6 -7
leaf_value=0.00034847455429954841 0.27315603573798602 -0.036285856522746594 0.027303839566196253 0.071487453345944071 -0.056954335896152446 0.028778494199376545
leaf_weight=228.61594703886658 0.389919881708919 26.710311930626631 8.0214875223464315 3.409440052870198 14.500408523017539 38.987554159655701
leaf_count=1797 3 847 129 61 221 901
internal_value=-7.52855e-05 -0.0183271 -0.0215995 0.00216992 -0.0325033 0.00449049
internal_weight=320.635 35.1217 34.7318 285.513 17.9098 267.604
internal_count=3959 979 976 2980 282 2698
is_linear=0
shrinkage=0.1


Tree=96
num_leaves=8
num_cat=0
split_feature=10 9 8 4 10 5 5
split_gain=1.29302 1.56517 2.92409 2.23298 0.832025 0.96588 0.0244031
threshold=1.3705446674254873 2.4383674418779084 -1.1841508370682166 -0.81204519426517485 1.7175634918267089 0.96641594650579521 3.1723521595889204
decision_type=2 2 2 2 2 2 2
left_child=1 2 -1 -3 6 -6 -2
right_child=4 3 -4 -5 5 -7 -8
leaf_value=-0.10327677406360442 -0.10509481111719146 0.020351399583545853 0.0021088875419188252 -0.14303824688408026 -0.10777097543599608 0.1152802409721905 -0.14161483966026567
leaf_weight=2.6552564385347059 1.5474826156569172 1.5582349230535331 312.14207108877599 1.8057494642562222 0.35414188704453398 0.4296990999719128 0.20750603079795826
leaf_count=238 227 10 3407 30 36 10 1
internal_value=-7.2284e-05 0.000494929 0.00121998 -0.0673543 -0.0711543 0.014505 -0.109413
internal_weight=320.7 318.161 314.797 3.36398 2.53883 0.783841 1.75499
internal_count=3959 3685 3645 40 274 46 228
is_linear=0
shrinkage=0.1


Tree=97
num_leaves=6
num_cat=0
split_feature=14 6 6 1 12
split_gain=1.31998 1.77549 2.40726 1.5712 1.97506
threshold=1.7733914814494127 2.6877142857425267 1.6908534921592773 13.500000000000002 -1.3318886885860308
decision_type=2 2 2 2 2
left_child=1 2 -1 -2 -5
right_child=3 -3 -4 4 -6
leaf_value=-3.3975702297409686e-05 -0.016154075474209415 0.061719041138777575 -0.039058840112868094 -0.019905573644915756 0.098973863298490061
leaf_weight=288.45579165001982 3.8635794075671566 4.4123055222444227 16.72302731522359 1.9828691035509107 4.7343911759089679
leaf_count=3661 39 36 157 12 54
internal_value=-7.48379e-05 -0.00126186 -0.00217244 0.0346568 0.0638818
internal_weight=320.172 309.591 305.179 10.5808 6.71726
internal_count=3959 3854 3818 105 66
is_linear=0
shrinkage=0.1


Tree=98
num_leaves=6
num_cat=0
split_feature=12 13 0 13 9
split_gain=1.30118 1.98876 4.94062 2.76781 0.301999
threshold=-1.9861185524230389 -1.8537133069044371 2022.5000000000002 -1.4318262141506786 -1.0000000180025095e-35
decision_type=2 2 2 2 2
left_child=4 2 -2 -3 -1
right_child=1 3 -4 -5 -6
leaf_value=0.02946087509121309 -0.058674751430670795 0.027401767734094636 0.072269152594837682 -0.0023837187429562308 0.083116940394426034
leaf_weight=2.1862158216536045 14.627461164258422 35.407311243470758 3.5883059911429873 262.42785824084422 2.0165556259453288
leaf_count=24 123 261 24 3510 17
internal_value=-6.94835e-05 -0.000804523 -0.0328802 0.00115725 0.0552059
internal_weight=320.254 316.051 18.2158 297.835 4.20277
internal_count=3959 3918 147 3771 41
is_linear=0
shrinkage=0.1


Tree=99
num_leaves=8
num_cat=0
split_feature=4 2 10 4 2 14 6
split_gain=1.29939 4.52764 5.64649 4.11803 2.32899 2.17021 1.99487
threshold=0.37510477902476752 4.5000000000000009 -0.23670041401175071 0.54469763235190227 1.5000000000000002 -1.5467730812768055 0.026935162129109885
decision_type=2 2 2 2 2 2 2
left_child=4 2 -2 -3 6 -6 -1
right_child=1 3 -4 -5 5 -7 -8
leaf_value=-0.11665223641674807 0.1697586377741957 -0.11314527583254114 -0.10168543551005016 -0.014592754422593425 -0.071037302114934142 0.0045679580553654358 -0.0029351606958336498
leaf_weight=3.0204683942720285 2.5293299459153791 5.0539073369000134 1.099442078208084 26.323607375612482 3.8497733553522258 274.97704488935415 3.1529106860980392
leaf_count=24 28 178 125 1213 87 2280 24
internal_value=-5.42924e-05 -0.0182362 0.0875168 -0.0304664 0.00217897 0.00352407 -0.0585739
internal_weight=320.006 35.0063 3.62877 31.3775 285 278.827 6.17338
internal_count=3959 1544 153 1391 2415 2367 48
is_linear=0
shrinkage=0.1


Tree=100
num_leaves=7
num_cat=0
split_feature=7 13 2 4 15 15
split_gain=1.24406 7.83033 2.93246 2.24611 8.67958 3.55951
threshold=-2.1179186241661223 -1.103691808675533 21.500000000000004 -1.1512309009194441 0.98197197090597899 2.0932595228117283
decision_type=2 2 2 2 2 2
left_child=1 -1 -3 4 -2 -5
right_child=3 2 -4 5 -6 -7
leaf_value=-0.13074969317594454 0.03292832110659908 0.065367016110922063 -0.044929208543250221 -0.0063043533541737003 -0.060699381280512527 0.048596824398706634
leaf_weight=4.9797963015735141 58.260233620938379 6.1855428605340403 3.9497531410306692 221.61140204974799 11.928470458835362 12.474102429347111
leaf_count=35 544 43 34 3080 76 147
internal_value=-6.50916e-05 -0.028067 0.0223843 0.00132593 0.0170164 -0.00337874
internal_weight=319.389 15.1151 10.1353 304.274 70.1887 234.086
internal_count=3959 112 77 3847 620 3227
is_linear=0
shrinkage=0.1


Tree=101
num_leaves=5
num_cat=0
split_feature=15 14 2 4
split_gain=1.24405 1.32502 2.32342 1.52148
threshold=4.0445420977912381 -1.5467730812768055 10.500000000000002 -1.4904166075737133
decision_type=2 2 2 2
left_child=1 2 -1 -3
right_child=-2 3 -4 -5
leaf_value=0.089748793539029273 -0.088027628816875952 0.028796114743431217 -0.099619315313338688 -0.00064556547219751033
leaf_weight=0.82868557778419871 1.5991222350858141 18.664260026533157 2.970023064117413 294.70196541617042
leaf_count=14 30 200 80 3635
internal_value=-4.72334e-05 0.000396357 -0.0583088 0.001108
internal_weight=318.764 317.165 3.79871 313.366
internal_count=3959 3929 94 3835
is_linear=0
shrinkage=0.1


Tree=102
num_leaves=7
num_cat=0
split_feature=3 6 12 12 0 11
split_gain=1.17282 6.49523 1.99938 4.21486 3.92399 1.40731
threshold=1.0000000180025095e-35 -1.6089940717849263 0.26733986745998845 1.0000000180025095e-35 2022.5000000000002 -0.63034393987651893
decision_type=2 2 2 2 2 2
left_child=1 -1 3 -2 -4 -3
right_child=2 5 4 -5 -6 -7
leaf_value=0.30121756133313865 0.00092546861699089591 0.056324613204820274 0.029556511257472773 -0.044865270834349422 -0.044365972970237762 -0.1096169726010023
leaf_weight=0.4777128230780362 236.71043821971398 0.59105565957725037 46.231811992911389 21.966920951206703 8.5012810869375226 3.7763984525809056
leaf_count=9 1788 8 1371 330 262 191
internal_value=-4.38993e-05 -0.0488674 0.000710888 -0.00296309 0.0180747 -0.0871598
internal_weight=318.256 4.84517 313.41 258.677 54.7331 4.36745
internal_count=3959 208 3751 2118 1633 199
is_linear=0
shrinkage=0.1


Tree=103
num_leaves=8
num_cat=0
split_feature=10 9 8 1 4 6 5
split_gain=1.19739 1.42095 2.6649 0.729382 0.990495 0.708768 0.0164994
threshold=1.3705446674254873 2.4383674418779084 -1.1841508370682166 8.5000000000000018 -0.81204519426517485 2.8679717068044392 3.1723521595889204
decision_type=2 2 2 2 2 2 2
left_child=1 2 -1 4 -2 -3 -5
right_child=3 5 -4 6 -6 -7 -8
leaf_value=-0.10307651904968865 0.12781020252453354 -0.10993914528759291 0.0019683177843465515 -0.10615047344672089 -0.10185732744924836 -0.015990450151744561 -0.13706293156983465
leaf_weight=2.4340336372260927 0.364970539114438 1.7014131579780944 310.12024489976466 1.3834032053127883 0.38678919535595868 1.5207676310092209 0.19728758931159962
leaf_count=238 5 28 3407 180 88 12 1
internal_value=-5.8113e-05 0.000469173 0.00115028 -0.0714442 0.00964357 -0.0655983 -0.110009
internal_weight=318.109 315.776 312.554 2.33245 0.75176 3.22218 1.58069
internal_count=3959 3685 3645 274 93 40 181
is_linear=0
shrinkage=0.1


Tree=104
num_leaves=8
num_cat=0
split_feature=11 15 9 15 10 6 11
split_gain=1.14285 2.51569 4.93011 2.19362 2.08299 4.4574 2.75197
threshold=1.0602790038182921 0.93268351746318834 0.28482392575522003 -0.8430854908832629 0.4025447888326053 1.6466249887402713 0.38520387005126672
decision_type=2 2 2 2 2 2 2
left_child=4 3 -3 -2 6 -6 -1
right_child=1 2 -4 -5 5 -7 -8
leaf_value=-0.00027594631639298788 0.1380435245594111 0.21681537724682301 -0.11075280505786539 -0.081621441054028576 0.032526940480937482 -0.097581831926928986 -0.056420802586245038
leaf_weight=262.06116803613259 0.49119282831088629 1.002440341399051 0.84826629608869542 6.104222859721629 35.281888945726678 2.8454639643896362 9.03105211840011
leaf_count=2121 52 30 72 455 895 54 280
internal_value=-5.96242e-05 -0.0363519 0.0666754 -0.0652619 0.000931675 0.0228169 -0.00214633
internal_weight=317.666 8.44612 1.85071 6.59542 309.22 38.1274 271.092
internal_count=3959 609 102 507 3350 949 2401
is_linear=0
shrinkage=0.1


Tree=105
num_leaves=6
num_cat=0
split_feature=14 6 8 4 4
split_gain=1.15106 1.58176 2.13897 1.50775 2.45113
threshold=1.7733914814494127 2.6877142857425267 -1.1841508370682166 -0.13367378095663637 0.88388333900617144
decision_type=2 2 2 2 2
left_child=1 2 -1 -2 -5
right_child=3 -3 -4 4 -6
leaf_value=-0.10252991149337996 0.10170374813611094 0.058711531073285188 -0.0013502263756660941 -0.045275672166778039 0.064057901280394472
leaf_weight=2.1040200374554834 2.4167722892016164 4.3453034632839254 300.3463304155739 3.924312820658086 4.2943514304351993
leaf_count=257 15 36 3561 27 63
internal_value=-7.22521e-05 -0.00119344 -0.00205409 0.03227 0.0118524
internal_weight=317.431 306.796 302.45 10.6354 8.21866
internal_count=3959 3854 3818 105 90
is_linear=0
shrinkage=0.1


Tree=106
num_leaves=6
num_cat=0
split_feature=10 11 1 10 12
split_gain=1.12195 2.14761 3.91975 1.93608 1.43456
threshold=-2.0631152792813388 -1.8983111476476269 25.500000000000004 -1.4786625223950707 -1.7680419311440361
decision_type=2 2 2 2 2
left_child=4 2 -2 -3 -1
right_child=1 3 -4 -5 -6
leaf_value=0.1241854130561036 -0.063593088268657547 0.022784611382607452 0.05019713164932052 -0.0017690268907462733 -0.0053860728859020214
leaf_weight=1.6447790712118151 12.430667489767076 36.624999455176294 4.0018217787146559 260.71960727314581 1.7783249095082272
leaf_count=19 101 273 35 3509 22
internal_value=-6.83442e-05 -0.000689528 -0.0358816 0.00125533 0.0568722
internal_weight=317.2 313.777 16.4325 297.345 3.4231
internal_count=3959 3918 136 3782 41
is_linear=0
shrinkage=0.1


Tree=107
num_leaves=8
num_cat=0
split_feature=4 9 9 9 14 1 15
split_gain=1.07182 4.52662 9.70428 2.92738 2.12272 2.78631 1.93755
threshold=0.37510477902476752 -0.12794464211321219 -0.074928952729841083 -0.6571237003560968 1.03557713417692 19.500000000000004 -0.65366984236971482
decision_type=2 2 2 2 2 2 2
left_child=4 3 -3 -2 6 -6 -1
right_child=1 2 -4 -5 5 -7 -8
leaf_value=0.017148333786608953 -0.0061749293749853579 0.28109634750192958 -0.003027836330741471 -0.09321238925760994 0.10093078957661113 -0.012388507782496477 -0.0038087448694464395
leaf_weight=55.269190446648281 6.7425674720143425 1.2926286872243533 17.167900608619675 9.0522326532227435 4.8630449315533024 3.9179175812751055 218.60598201409448
leaf_count=622 279 24 767 474 34 22 1737
internal_value=-5.23477e-05 -0.0167578 0.0168669 -0.0560574 0.0019722 0.0503696 0.000420484
internal_weight=316.911 34.2553 18.4605 15.7948 282.656 8.78096 273.875
internal_count=3959 1544 791 753 2415 56 2359
is_linear=0
shrinkage=0.1


Tree=108
num_leaves=8
num_cat=0
split_feature=5 5 3 5 13 11 2
split_gain=1.09722 4.33879 5.97395 3.73608 3.33326 6.65232 5.81372
threshold=-0.82765987707111321 -0.74608559169191591 4.5000000000000009 -0.70057152830919533 -1.103691808675533 -0.95907617892828767 12.500000000000002
decision_type=2 2 2 2 2 2 2
left_child=4 2 -2 -3 6 -6 -1
right_child=1 3 -4 -5 5 -7 -8
leaf_value=-0.14922616804252017 0.15924956064779408 -0.07864248132487342 0.01260308405666568 0.0021437650669532782 0.072162673272934727 -0.015169280926450977 -0.018426651662375476
leaf_weight=4.1927864626050022 4.1117685222998253 5.8754591235192484 8.563206661900038 222.87906143566943 11.014567266218362 41.909597099816892 17.929666576907039
