tree
version=v4
num_class=1
num_tree_per_iteration=1
label_index=0
max_feature_idx=17
objective=binary sigmoid:1
feature_names=year circuit driver_name team_name grid q1 q2 q3 pit_stop_count avg_lap_time driver_form_last3 driver_form_last5 team_form_last3 team_form_last5 grid_vs_qual pit_lap_interaction track_type overtaking_difficulty
feature_infos=[2015:2024] [0:37] [0:50] [0:17] [-1.7448058875644155:1.9862368856325465] [-2.6239754369662576:4.3732143622443447] [-3.0916866579229572:3.8966784432844328] [-3.8255358439307683:4.4193319792456913] [-1.6403202604362297:4.7460516667159531] [-1.4973504442021135:26.293492969894753] [-2.0985048130394324:2.1410998956664651] [-2.249474814968615:2.214917090483679] [-2.0222948346256242:2.1944179269887765] [-2.1582373086592588:2.2019193630950324] [-7.6337414462748718:6.7536383255387404] [-1.4540532135795061:7.5953672805531438] none none
tree_sizes=3320 3357 3340 3368 3372 3368 3376 3371 3382 3386 3391 3391 3402 3389 3394 3382 3394 3382 3401 3403 3396 3408 3404 3379 3379 3376 3388 3393 3389 3385 3390 3387 3398 3410 3402 3388 3385 3390 3387 3395 3389 3420 3389 3396 3389 3386 3397 3385 3402 3405 3415 3390 3409 3414 3425 3425 3417 3410 3410 3410 3393 3395 3398 3404 3421 3401 3414 3436 3416 3430 3404 3438 3424 3421 3426 3389 3408 3398 3440 3439 3395 3427 3433 3418 3419 3424 3427 3422 3421 3413 3410 3424 3433 3440 3427 3410 3434 3433 3427 3435

Tree=0
num_leaves=31
num_cat=0
split_feature=4 11 11 8 14 4 13 2 4 2 11 6 11 3 15 2 11 10 4 4 0 0 10 1 1 7 11 15 5 11
split_gain=1105.71 155.715 117.098 80.1388 64.148 57.7501 22.9992 22.9133 20.7718 13.664 12.7991 12.5279 10.9653 14.6295 9.20038 8.46255 8.44084 8.24373 7.89175 7.71109 7.44438 7.41583 6.88274 7.02894 6.5651 6.4905 9.78661 5.45225 5.32046 4.79334
threshold=-0.64245234093804016 -0.95715084233768766 -0.62819564930436078 -1.1841508370682166 -0.44005156036806609 -0.98163804759230955 -0.86894366916202215 21.500000000000004 -0.98163804759230955 45.500000000000007 -1.6620548274091025 1.1009879645494764 0.12370193477181492 3.5000000000000004 2.0720423522425335 4.5000000000000009 0.20594073303014679 -1.4040868004065696 -0.13367378095663637 0.20551192569763288 2018.5000000000002 2019.5000000000002 -0.7462171042280682 9.5000000000000018 14.500000000000002 -1.1166666515029877 -0.62819564930436078 0.26560241847328914 -0.77756681835052388 -0.064272461247229004
decision_type=2 2 2 2 2 2 2 2 2 2 2 2 2 2 2 2 2 2 2 2 2 2 2 2 2 2 2 2 2 2
left_child=1 3 7 -1 29 11 24 17 14 -9 -10 16 13 -7 -5 -15 20 -2 -11 27 -6 -12 -17 -24 -4 -22 -27 -8 -19 -3
right_child=2 4 6 8 5 12 19 9 10 18 21 -13 -14 15 -16 22 -18 28 -20 -21 25 -23 23 -25 -26 26 -28 -29 -30 -31
leaf_value=-1.2048392116545015 -0.99682748922343933 -1.1103927126830448 -1.1587095532094953 -0.76083113888057108 -0.76038509884764749 -1.1679127609288191 -1.2179373961202484 -0.8961221236037572 -0.733316840849636 -0.949336577594877 -0.85091338392988525 -1.00973262825294 -1.1320400426680137 -1.1167838291547976 -0.90907254382283487 -0.85228993209303228 -0.98896149971974368 -1.0600626704679925 -1.1372354018644062 -1.2374312259470348 -0.96623753004240087 -1.001743732663249 -1.0855383708484512 -0.93933636005672272 -0.9953526161914964 -0.93783256794572223 -0.76012835385308564 -1.1663149818108811 -1.1705573608481652 -1.2446061585898516
leaf_weight=5.0293024331331244 4.8430319726467159 3.7254092097282419 4.6567615121602994 65.939743012189865 9.4997934848070198 5.21557289361954 86.243223205208778 10.617416247725489 3.9116796702146557 3.725409209728241 5.5881138145923597 5.9606547355651847 11.548768550157545 3.9116796702146557 4.4704910516738883 4.8430319726467159 3.9116796702146521 5.9606547355651918 5.5881138145923597 236.93602573871613 5.0293024331331315 7.823359340429306 5.0293024331331244 9.4997934848070127 5.2155728936195374 5.2155728936195418 7.6370888799428842 26.822946310043335 16.205530062317845 9.3135230243205989
leaf_count=27 26 20 25 354 51 28 463 57 21 20 30 32 62 21 24 26 21 32 30 1272 27 42 27 51 28 28 41 144 87 50
internal_value=-1.11171 -0.907639 -1.20356 -0.816632 -1.00108 -0.966477 -1.22293 -1.055 -0.794378 -0.973671 -0.892476 -0.876861 -1.04984 -1.01653 -0.770243 -0.982622 -0.851552 -1.11502 -1.06208 -1.22718 -0.831923 -0.938898 -0.955531 -0.989945 -1.07241 -0.869927 -0.83224 -1.20569 -1.14084 -1.20626
internal_weight=589.919 183.104 406.815 92.7627 90.3412 77.3022 359.875 46.9402 87.7334 19.9309 17.3232 37.2541 40.0481 28.4994 70.4102 23.2838 31.2934 27.0092 9.31352 350.002 27.3818 13.4115 19.3721 14.5291 9.87233 17.882 12.8527 113.066 22.1662 13.0389
internal_count=3167 983 2184 498 485 415 1932 252 471 107 93 200 215 153 378 125 168 145 50 1879 147 72 104 78 53 96 69 607 119 70
is_linear=0
shrinkage=1


Tree=1
num_leaves=31
num_cat=0
split_feature=4 11 11 8 4 14 13 8 2 11 14 2 3 12 2 10 15 15 12 4 3 12 4 14 4 13 15 0 10 7
split_gain=847.154 102.49 96.6781 82.8803 50.7104 21.6011 20.6152 17.9617 18.029 13.9075 12.9127 11.3035 9.79485 9.24196 8.86676 8.67207 8.14067 7.74449 9.25297 7.53939 6.31843 6.10261 7.93848 5.94332 5.91971 5.41646 5.09173 4.64979 4.61416 4.06432
threshold=-0.64245234093804016 -0.62819564930436078 0.16286326727578249 -1.1841508370682166 -0.98163804759230955 -0.44005156036806609 -0.86894366916202215 -1.1841508370682166 21.500000000000004 -1.6620548274091025 -0.44005156036806609 45.500000000000007 3.5000000000000004 0.12241251826445886 5.5000000000000009 -1.4040868004065696 0.87074461077830445 0.33592223925803361 -0.16839525839860336 0.20551192569763288 12.500000000000002 -0.53190497922743074 0.37510477902476752 1.0000000180025095e-35 -1.3208237542465786 -0.68141004887151502 0.26560241847328914 2018.5000000000002 1.0000000180025095e-35 -1.1983253512921863
decision_type=2 2 2 2 2 2 2 2 2 2 2 2 2 2 2 2 2 2 2 2 2 2 2 2 2 2 2 2 2 2
left_child=2 7 3 -1 5 -5 20 -2 15 -6 -4 -10 -11 -12 -14 -9 23 -7 24 26 -3 22 -17 -16 -19 -25 29 -13 -28 -8
right_child=1 6 10 4 9 17 19 8 11 12 13 27 14 -15 16 21 -18 18 -20 -21 -22 -23 -24 25 -26 -27 28 -29 -30 -31
leaf_value=-0.10977083061808182 -0.13498264420664896 -0.032334006129034108 -0.12880543547200768 0.047369073994609857 0.286472283645752 0.26595144502072937 -0.048497566563292953 0.14011625713010664 0.21164510361648145 -0.029425116067352586 0.11292453752766736 -0.017479457480112311 0.019467937190091395 -0.037389479012639525 0.06131654475451212 0.10795686127803501 0.030452853387771657 0.27622860090213425 0.06963743016484196 -0.1213456439480009 0.12845122423218469 -0.071545520555363937 -0.077408598805473169 0.14561029436650127 0.17210630480926337 0.24631630362513188 0.022228009182598783 0.12797377661201667 -0.074912201465257761 -0.11080823674745628
leaf_weight=8.6718736886978132 4.7665738463401786 5.8799572288990003 7.6393908262252834 5.4246872365474692 4.6029537320137015 87.448034718632698 12.332524210214613 4.331799894571307 10.497644260525705 4.9046377241611472 7.2618443667888668 4.2353277206420881 7.104498714208602 9.3659928590059263 4.5299352854490342 6.2477950155735034 5.3508605062961569 12.352435305714611 4.2834686934947959 221.72343671321869 4.1826832294464111 9.9137975424528104 3.6660025268793106 12.970861494541172 9.7860769629478455 9.0791294574737513 6.5197854638099697 4.5684444308280945 19.559356391429901 69.238314494490623
leaf_count=47 25 31 44 28 21 407 70 22 51 27 38 22 37 50 23 34 27 58 21 1272 22 54 20 64 46 45 36 24 108 393
internal_value=-0.000765485 -0.0871149 0.16596 0.191689 0.207265 0.242329 -0.106496 0.0492948 0.0695055 0.121096 -0.0211868 0.141564 0.103772 0.0282569 0.120508 0.0119366 0.142989 0.251616 0.204172 -0.110804 0.0344987 -0.0160673 0.039411 0.165643 0.230203 0.187076 -0.0890905 0.057999 -0.0506271 -0.101388
internal_weight=588.44 387.663 200.777 176.509 167.838 119.295 339.436 48.2274 43.4608 48.5429 24.2672 19.3014 43.9399 16.6278 39.0353 24.1594 31.9308 113.87 26.422 329.373 10.0626 19.8276 9.9138 26.5799 22.1385 22.05 107.65 8.80377 26.0791 81.5708
internal_count=3167 2184 983 851 804 560 1932 252 227 244 132 97 223 88 196 130 159 532 125 1879 53 108 54 132 104 109 607 46 144 463
is_linear=0
shrinkage=0.1


Tree=2
num_leaves=31
num_cat=0
split_feature=4 11 11 4 4 12 8 12 2 11 4 4 13 3 14 12 14 1 11 14 2 12 5 15 15 1 8 7 5 9
split_gain=672.732 89.9526 70.413 39.0206 29.8987 18.8271 14.7759 14.1913 10.1109 8.82343 8.40156 8.04127 7.07165 6.92714 6.70474 7.70823 6.66687 6.51644 5.54646 6.59693 5.46789 5.42853 5.29024 4.72518 5.62474 4.59405 4.59287 4.02089 5.41442 4.30325
threshold=-0.64245234093804016 -0.62819564930436078 -0.95715084233768766 -1.660009460900848 -0.98163804759230955 -1.3316263650508515 -1.1841508370682166 -0.31379914673013426 19.500000000000004 0.25880853191050285 -0.30326663428377099 -1.1512309009194441 0.49067507794415482 3.5000000000000004 0.6666699605406734 -0.24109720256436881 0.29776278690442687 26.500000000000004 0.12370193477181492 1.0000000180025095e-35 45.500000000000007 -0.16839525839860336 -1.4006419700697113 0.84668667207976966 -0.80378812296669899 17.500000000000004 1.5528657031398618 -1.1983253512921863 0.35808936407234965 -0.15172557085503738
decision_type=2 2 2 2 2 2 2 2 2 2 2 2 2 2 2 2 2 2 2 2 2 2 2 2 2 2 2 2 2 2
left_child=2 6 11 -4 17 -3 -2 8 10 14 -8 22 13 -6 -7 -16 20 23 19 -15 25 -21 -1 24 -5 -10 -24 -13 29 -29
right_child=1 5 3 4 12 9 7 -9 16 -11 -12 27 -14 18 15 -17 -18 -19 -20 21 -22 -23 26 -25 -26 -27 -28 28 -30 -31
leaf_value=0.1262527740093452 -0.13058538381372159 0.1113316078011353 -0.11669599856044599 0.103372010112025 -0.05013664683236755 -0.088846623134123615 0.13859325100500272 -0.033426538151961553 0.22349140306997461 -0.1164012462719904 -0.025393867432808033 0.21567815399964646 -0.044755457682282958 -0.010603915850773787 0.11075652546114495 -0.073560098356756795 0.24671234837936473 0.092254344623049905 -0.017832648700170536 0.087561120665409928 0.017461584155264508 0.20008827412777852 0.22951944590281445 0.092306658416474535 0.21598647363202292 0.085816133541761208 0.13694406357761554 0.13420048839356716 0.18368230842078345 0.019383321898711042
leaf_weight=6.3487314134836188 4.4506226330995551 4.0771337896585456 9.2251859009265882 5.4934397786855689 4.987659126520156 91.312345117330551 4.712446153163909 11.829956382513044 4.5735592693090457 214.67834427952766 9.269851401448248 8.936378672719 8.0227322429418546 4.7275240719318452 3.7587834894657135 5.7244889140129072 4.6040078252553931 11.980632439255713 5.1402997225522986 14.751074731349947 4.5234657973051062 6.043609455227851 63.041738033294678 5.403763696551322 23.023785084486011 5.1562461704015732 5.8570106774568549 10.075538814067839 13.952564656734465 4.8286048471927669
leaf_count=28 25 22 55 25 28 546 24 63 21 1307 50 40 44 24 22 35 22 55 27 71 23 28 273 25 103 24 26 45 63 23
internal_value=-0.00121417 -0.0828161 0.1408 0.0791316 0.0992996 -0.102182 0.0431714 0.0604836 0.0943133 -0.104942 0.0298746 0.194699 0.0400696 0.0591587 -0.080535 -0.000504485 0.142093 0.155654 0.076937 0.096024 0.1083 0.120265 0.213601 0.178046 0.194293 0.150531 0.22165 0.157065 0.138913 0.0970023
internal_weight=580.512 368.671 211.84 98.7997 89.5745 319.551 49.1202 44.6695 32.8396 315.474 13.9823 113.041 43.6729 35.6502 100.796 9.48327 18.8573 45.9016 30.6625 25.5222 14.2533 20.7947 75.2475 33.921 28.5172 9.72981 68.8987 37.7931 28.8567 14.9041
internal_count=3167 2184 983 485 430 1932 252 227 164 1910 74 498 222 178 603 57 90 208 150 123 68 99 327 153 128 45 299 171 131 68
is_linear=0
shrinkage=0.1


Tree=3
num_leaves=31
num_cat=0
split_feature=4 11 8 13 4 12 13 14 14 4 3 10 4 5 4 2 15 10 15 4 12 9 11 9 5 4 15 15 5 0
split_gain=544.503 80.3691 64.481 50.2956 20.8552 16.7631 14.0539 13.173 11.3965 9.75576 9.14336 7.34519 8.08939 7.11085 6.42302 5.67683 5.42829 7.5366 4.9541 5.01199 5.74357 4.93873 4.63745 4.25372 5.28171 4.70997 4.03775 4.11161 3.82837 3.2276
threshold=-0.64245234093804016 -0.39322765428055578 -1.1841508370682166 0.11560783736314033 -0.98163804759230955 -1.0408185883877894 -0.86894366916202215 -0.44005156036806609 -0.44005156036806609 -0.98163804759230955 8.5000000000000018 -1.4040868004065696 -0.30326663428377099 -0.77756681835052388 0.20551192569763288 19.500000000000004 0.26560241847328914 1.0000000180025095e-35 0.33592223925803361 -1.4904166075737133 -1.1135205325535549 0.23422418325346747 -0.86316364432816572 -0.092922573294753008 0.44393172812482623 -1.0000000180025095e-35 0.87074461077830445 0.26560241847328914 1.0000000180025095e-35 2020.5000000000002
decision_type=2 2 2 2 2 2 2 2 2 2 2 2 2 2 2 2 2 2 2 2 2 2 2 2 2 2 2 2 2 2
left_child=2 5 -1 4 8 23 -3 -5 -4 -9 21 -7 13 -13 16 -15 -8 -18 -10 -20 28 29 -14 25 -25 -2 27 -12 -21 -6
right_child=1 6 3 7 10 11 14 9 18 -11 26 12 22 15 -16 -17 17 -19 19 20 -22 -23 -24 24 -26 -27 -28 -29 -30 -31
leaf_value=-0.107310776824496 0.20840460655864002 0.039776126818544207 0.035559369266522388 -0.12542112647729703 0.057044256933933016 0.10514347607874697 -0.097227017242100311 0.13225119168418034 0.19159799601147143 -0.011942595317780538 0.12730470635532129 0.14081176422731975 -0.0031970481692318187 -0.09020233573392733 -0.11568271334752907 0.056356322238027168 0.077970290068432757 -0.069072860282901397 0.21490428184822347 0.11229645637397914 0.055800254039840083 0.1270454302098363 -0.092049155834948396 -0.029050572211044519 0.11384293845981959 0.067632163305725121 0.04095873027005819 0.2280281025869243 0.22087265707767501 -0.041016465357763543
leaf_weight=11.589204102754591 5.2814580947160721 6.8447108864784232 5.6497072726488105 5.9982045441865948 7.1995513737201708 4.7363292425870887 66.850292503833771 7.6442364901304289 96.910143539309502 12.149750128388401 22.113533139228828 4.2877934128046027 9.1074939817190153 4.9376437067985517 189.15695734322071 5.6868362128734589 4.3500416576862362 17.541883781552315 7.5070096552372005 7.166379868984226 8.4597987979650462 5.0762635916471472 16.545867696404461 4.4970000535249692 6.0894239991903305 4.3214984089136141 4.2534283548593512 4.9621898382902137 5.938513919711113 6.2881217151880264
leaf_count=63 24 36 29 38 33 22 427 34 399 65 100 22 49 28 1242 30 25 107 31 30 37 24 98 23 29 22 20 22 25 33
internal_value=-0.00148095 -0.0788094 0.122239 0.135071 0.153638 0.0210756 -0.101783 0.00440282 0.174506 0.0437436 0.0985825 -0.0126988 -0.0264578 0.0321127 -0.10527 -0.0117557 -0.0830737 -0.0398546 0.180737 0.144531 0.120033 0.04297 -0.0605048 0.0968603 0.0531433 0.145055 0.131535 0.145764 0.161498 0.0113271
internal_weight=569.141 350.235 218.906 207.317 181.525 65.4913 284.744 25.7922 131.632 19.794 49.8931 45.302 40.5656 14.9123 277.899 10.6245 88.7422 21.8919 125.982 29.0717 21.5647 18.5639 25.6534 20.1894 10.5864 9.60296 31.3292 27.0757 13.1049 13.4877
internal_count=3167 2184 983 920 783 347 1837 137 551 99 232 249 227 80 1801 58 559 132 522 123 92 90 147 98 52 46 142 122 55 66
is_linear=0
shrinkage=0.1


Tree=4
num_leaves=31
num_cat=0
split_feature=4 11 8 11 14 4 13 12 4 14 5 10 4 3 3 6 5 5 4 2 7 11 15 10 7 15 15 4 9 7
split_gain=447.046 71.8902 51.1046 39.6917 23.9296 16.022 13.426 13.1106 8.14061 9.13933 6.40169 5.83701 6.75487 5.801 13.3012 8.05103 6.29711 5.35884 4.87597 4.73613 4.56984 4.1329 4.08304 5.45552 4.06503 3.83963 3.42585 3.23788 3.41332 3.07524
threshold=-0.64245234093804016 -0.39322765428055578 -1.1841508370682166 -0.95715084233768766 -1.1778659076405589 -0.98163804759230955 -1.1502440995977827 -1.0408185883877894 0.20551192569763288 0.29776278690442687 1.2701245925555453 -1.4040868004065696 -0.30326663428377099 14.500000000000002 9.5000000000000018 -1.0131453230400831 -0.65721997246468555 -0.77756681835052388 -1.1512309009194441 19.500000000000004 0.16261355844582559 -0.86316364432816572 0.38447018202726641 1.0000000180025095e-35 0.5181629877234869 0.95078381391105127 0.34579704545047374 1.0000000180025095e-35 -0.27572919313245436 -2.1082788133167898
decision_type=2 2 2 2 2 2 2 2 2 2 2 2 2 2 2 2 2 2 2 2 2 2 2 2 2 2 2 2 2 2
left_child=2 7 -1 18 -5 10 -3 27 9 22 26 -9 17 14 15 -7 -16 -13 25 -19 -17 -14 -8 -24 -22 29 -6 28 -2 -4
right_child=1 6 3 4 5 13 8 11 -10 -11 -12 12 21 -15 16 20 -18 19 -20 -21 24 -23 23 -25 -26 -27 -28 -29 -30 -31
leaf_value=-0.10247047464092694 0.1840808998001299 0.12694028652449554 0.11031026174661479 -0.1085160194619411 0.15313347254894588 -0.087849176131832019 -0.093461107899226473 0.091191408036699728 -0.11269939818048168 0.091137593935557065 0.013614442917773004 0.11907140340444554 -0.0028820972295560132 -0.053128034614751476 0.054255253930914016 0.10862223441317048 0.20257259710121286 -0.085529057374416781 0.12960338141008115 0.049360297889212701 -0.069249755060530854 -0.087611238975326189 0.060223155069788453 -0.069396237117020532 0.053609391055834205 0.11815633678642162 0.085532761485052886 0.043603610798879595 0.070869126583024897 0.18873506309925922
leaf_weight=10.956029430031775 4.8986386209726334 2.6244947463273993 5.4515710920095435 6.8570754379034033 32.680390268564224 5.9717295467853537 65.468207165598869 4.9049906730651847 176.82231387495995 3.1757519841194144 4.6156798899173728 4.5480253398418418 9.0932612717151624 5.7182332724332801 4.8302122354507446 7.1066938787698808 7.0271571278572065 4.6992478370666486 38.713092550635338 5.8350758403539658 4.3723054677247983 15.690532118082048 4.1763436794281033 14.593731611967085 7.0121378898620605 10.89793214201927 9.7281896471977216 10.075708761811255 5.8357200920581835 60.367051973938942
leaf_count=63 21 13 22 46 135 31 440 22 1249 19 20 22 49 29 22 35 32 28 162 30 23 98 23 93 34 45 42 50 27 242
internal_value=-0.00166172 -0.07507 0.108115 0.119032 0.0714922 0.0853514 -0.0981229 0.0187357 -0.100358 -0.0753945 0.125454 -0.0117474 -0.0244126 0.0404925 0.0552321 0.0131002 0.142154 0.0283536 0.158536 -0.0108124 0.0457019 -0.0565238 -0.0816727 -0.0405559 0.00642415 0.173136 0.137626 0.0843176 0.122533 0.182239
internal_weight=554.748 332.442 222.305 211.349 95.9198 89.0627 266.861 65.5812 264.236 87.414 47.0243 44.7711 39.8661 42.0385 36.3202 24.4629 11.8574 15.0823 115.43 10.5343 18.4911 24.7838 84.2383 18.7701 11.3844 76.7166 42.4086 20.8101 10.7344 65.8186
internal_count=3167 2184 983 920 449 403 1837 347 1824 575 197 249 227 206 177 123 54 80 471 58 92 147 556 116 57 309 177 98 48 264
is_linear=0
shrinkage=0.1


Tree=5
num_leaves=31
num_cat=0
split_feature=4 11 8 13 11 13 8 12 14 4 7 4 5 7 11 9 7 15 15 10 0 4 12 1 4 1 10 2 8 10
split_gain=370.453 64.4221 41.1587 33.4552 17.5613 11.8247 11.4004 12.5145 8.43916 9.53234 8.33187 6.40841 6.34967 5.91172 5.84573 6.34223 5.50146 5.08593 4.82354 5.40282 4.40533 5.19759 5.60268 4.35275 4.22165 3.90794 3.5983 3.49143 3.45181 3.42115
threshold=-0.64245234093804016 -0.39322765428055578 -1.1841508370682166 0.53755848301678177 -0.95715084233768766 -0.86894366916202215 -1.1841508370682166 -1.0408185883877894 -0.44005156036806609 -0.81204519426517485 1.8362325583252439 0.20551192569763288 -0.67732431794909487 0.3234474928604672 -0.95715084233768766 -0.1229176061472521 0.25881826847987754 0.88344893466128449 0.26560241847328914 1.0000000180025095e-35 2022.5000000000002 -0.30326663428377099 -0.24109720256436881 8.5000000000000018 -1.1512309009194441 17.500000000000004 -0.7462171042280682 12.500000000000002 1.5528657031398618 -1.6233766991327365
decision_type=2 2 2 2 2 2 2 2 2 2 2 2 2 2 2 2 2 2 2 2 2 2 2 2 2 2 2 2 2 2
left_child=2 6 -1 4 24 -3 -2 27 -6 10 17 18 -11 -5 15 -9 -14 23 -7 -20 21 22 -16 -10 28 -25 -23 -8 -4 -29
right_child=1 5 3 13 8 11 7 14 9 12 -12 -13 16 -15 20 -17 -18 -19 19 -21 -22 26 -24 25 -26 -27 -28 29 -30 -31
leaf_value=-0.097973031214673212 -0.12760489351269441 0.033690391019712898 0.16230154401161492 -0.08519516160357378 -0.03910424088905258 -0.089756426681981694 0.02669747006746024 -0.0070578963874997156 0.1792658089389596 -0.066923140203198547 -0.016375892948110825 -0.10977008428387305 0.14184082644353632 0.057957800083388827 0.10982586898101401 0.13761174914518767 0.0070669900145228157 0.047876139525042036 0.061346007007467923 -0.061085276126322877 -0.13230269036538286 0.018404821582177211 -0.040934331943192917 0.058372245749326201 0.11513871134088767 0.1347702230039359 -0.08414238384648931 0.05478282340894778 0.089008771102343426 0.15833784432617221
leaf_weight=10.344998985528944 5.0490319877862921 6.9747576713562003 69.758795216679573 9.8795436918735486 5.4064745604991904 59.348312929272652 5.3679118603467968 7.05045385658741 14.143309980630873 5.2328943163156536 4.864181011915206 162.76034934818745 5.2747591435909253 4.0745307207107535 5.601017028093338 5.314506456255911 7.1131446063518524 8.2763441205024701 4.6374709606170681 16.18071337044239 3.4965173900127402 5.1840458661317816 4.4026662111282366 9.3835809528827649 38.957330524921417 23.37297759950161 10.065671980381014 4.9434115737676629 7.0777192413806906 8.9958760142326319
leaf_count=63 31 36 280 59 32 427 27 34 59 26 21 1242 23 22 29 26 34 37 25 107 20 29 25 40 160 98 66 21 29 39
internal_value=-0.00178363 -0.0715517 0.0968133 0.106282 0.116785 -0.0946854 0.0167492 0.0288118 0.081699 0.0901089 0.109089 -0.0983713 0.0254383 -0.0433951 -0.00237489 0.0551217 0.0644536 0.120149 -0.0752285 -0.0338124 -0.0271034 -0.0125378 0.0434756 0.132903 0.141954 0.112885 -0.0492821 0.0952241 0.15555 0.121613
internal_weight=538.533 315.373 223.161 212.816 198.862 249.902 65.4711 60.4221 83.0677 77.6612 60.0404 242.927 17.6208 13.9541 41.1149 12.365 12.3879 55.1762 80.1665 20.8182 28.7499 25.2534 10.0037 46.8999 115.794 32.7566 15.2497 19.3072 76.8365 13.9393
internal_count=3167 2184 983 920 839 1837 347 316 370 338 255 1801 83 81 229 60 57 234 559 132 169 149 54 197 469 138 95 87 309 60
is_linear=0
shrinkage=0.1


Tree=6
num_leaves=31
num_cat=0
split_feature=4 11 8 11 4 13 8 12 4 14 14 11 2 4 14 1 14 2 3 6 15 15 4 7 15 10 15 2 0 15
split_gain=308.937 57.67 33.507 27.3166 16.6258 10.7562 9.78816 10.3499 8.13169 9.33768 7.31752 7.21837 7.15472 6.68626 6.16506 5.5566 4.94154 3.84487 4.0166 3.79512 3.61254 4.44524 6.7585 4.78403 3.49666 3.87499 3.44379 3.13099 3.11758 3.58626
threshold=-0.64245234093804016 -0.39322765428055578 -1.1841508370682166 0.16286326727578249 -0.98163804759230955 -1.1502440995977827 -1.1841508370682166 -0.45920303506166532 0.20551192569763288 0.6666699605406734 -0.44005156036806609 -1.6620548274091025 19.500000000000004 -0.30326663428377099 -0.44005156036806609 8.5000000000000018 0.29776278690442687 4.5000000000000009 3.5000000000000004 1.7243733620237267 0.87074461077830445 0.38447018202726641 -0.81204519426517485 -0.17809420997224987 0.38447018202726641 1.0000000180025095e-35 -0.63043730696322031 5.5000000000000009 2021.5000000000002 0.088304162120056554
decision_type=2 2 2 2 2 2 2 2 2 2 2 2 2 2 2 2 2 2 2 2 2 2 2 2 2 2 2 2 2 2
left_child=2 6 -1 4 14 -3 -2 12 9 24 -5 -6 13 -8 -4 -12 -14 -13 -19 -16 21 22 23 -20 -7 -26 -17 -15 29 -9
right_child=1 5 3 10 11 8 7 28 -10 -11 15 17 16 27 19 26 -18 18 20 -21 -22 -23 -24 -25 25 -27 -28 -29 -30 -31
leaf_value=-0.093743510325318899 -0.12436851684334145 0.10347316951323067 0.024255723224464485 -0.1185189971954958 0.17294620377915229 -0.086410840417594947 0.097623776588834754 0.032327675976807711 -0.10731550948532252 0.10766619053720745 0.10585272290473824 -0.023040930704429464 0.068185078342836575 0.022815331686601707 0.13426013098591313 0.050709767299988863 0.17926115612584981 -0.026543048114484449 0.16642301016587249 0.051149607860826687 -0.0010214099256073924 0.17204272023299794 0.012736914015786614 0.056415006689454754 0.045159860371457541 -0.062494087118740639 -0.067038074044592444 -0.083430385353689324 -0.085209289430391841 -0.065703609193985144
leaf_weight=9.7611086219549161 4.6812703758478156 2.7985494732856742 5.6863808631896964 5.0327806919813165 5.2327851355075827 58.35838608443737 5.6867374181747463 10.126778677105909 151.8165619969368 2.9209079891443244 5.094282180070878 6.3744657933711997 15.553991287946703 5.0520665347576124 125.27820175886154 4.0513322502374649 5.3941755294799796 4.766355723142623 7.9355337172746614 5.7463298738002768 5.9461080580949774 4.8530487269163123 12.279045909643177 7.8773646354675302 4.4331881552934673 13.603599429130552 6.4199699610471708 6.1504177302122116 6.6560237854719153 5.9093627482652655
leaf_count=63 31 13 28 39 21 441 28 58 1249 17 25 30 70 27 508 20 23 27 33 24 27 20 53 33 23 94 32 35 40 35
internal_value=-0.00186006 -0.0682164 0.0874195 0.0957382 0.10748 -0.0913985 0.0149448 0.0257191 -0.093758 -0.0678079 -0.013699 0.0611949 0.0577421 0.00931326 0.126191 0.0201922 0.0967873 0.0495069 0.0600997 0.130615 0.0707183 0.0836663 0.0683988 0.111621 -0.074517 -0.0360343 -0.0214816 -0.035516 -0.0276768 -0.00379713
internal_weight=521.477 299.142 222.335 212.574 191.976 233.931 65.2108 60.5296 231.133 79.3161 20.5984 55.2647 37.8374 16.8892 136.711 15.5656 20.9482 50.0319 43.6575 131.025 38.8911 32.945 28.0919 15.8129 76.3952 18.0368 10.4713 11.2025 22.6922 16.0361
internal_count=3167 2184 983 920 804 1837 347 316 1824 575 116 244 183 90 560 77 93 223 193 532 166 139 119 66 558 117 52 62 133 93
is_linear=0
shrinkage=0.1


Tree=7
num_leaves=31
num_cat=0
split_feature=4 11 8 13 4 13 14 8 12 10 7 4 2 4 6 6 6 14 15 5 3 9 3 12 11 3 3 8 3 3
split_gain=258.86 51.7049 27.5127 23.5497 15.0409 10.0699 8.51133 8.44698 8.30628 6.33274 6.26926 5.85702 5.61372 5.28568 4.73433 4.61651 4.01775 3.84895 3.83245 3.90789 3.77187 4.75964 4.46093 3.52346 3.50908 3.49406 3.30996 2.97772 2.94496 7.73011
threshold=-0.64245234093804016 -0.39322765428055578 -1.1841508370682166 0.58444188808940833 -0.98163804759230955 -0.68141004887151502 -0.44005156036806609 -1.1841508370682166 -0.45920303506166532 -1.477183433315292 0.3234474928604672 -0.30326663428377099 19.500000000000004 -0.30326663428377099 1.7243733620237267 -0.31321809178801113 -1.691305970311588 0.29776278690442687 0.26560241847328914 -0.87453837365329889 8.5000000000000018 0.23422418325346747 14.500000000000002 -0.45920303506166532 0.12370193477181492 12.500000000000002 11.500000000000002 2.4652045498758883 9.5000000000000018 13.500000000000002
decision_type=2 2 2 2 2 2 2 2 2 2 2 2 2 2 2 2 2 2 2 2 2 2 2 2 2 2 2 2 2 2
left_child=2 7 -1 4 6 15 -4 -2 12 -6 -5 18 13 -9 16 -3 -8 -14 19 -7 21 -11 23 26 -20 -25 -22 -13 -10 -30
right_child=1 5 3 10 9 11 14 8 28 20 -12 27 17 -15 -16 -17 -18 -19 24 -21 22 -23 -24 25 -26 -27 -28 -29 29 -31
leaf_value=-0.089723857372301569 -0.12157565351420324 0.082851140352430519 0.0030534410742866069 -0.09548373825611145 0.12682177837054739 0.020483799061208827 0.060666042495131481 0.084753685728384306 -0.052720615974076152 -0.023627433307298634 0.056406847306733336 -0.10122854147361156 0.060341324731358142 -0.032690479221138151 0.033228355745888886 -0.050136188388228344 0.12796404003736736 0.15731079746650681 0.09176961145315661 -0.095864833714198183 0.088199174140310102 0.091507279514861026 -0.028347459230605238 0.06295741175731466 -0.048719785303242225 0.17938371321125335 -0.007392382967099851 -0.012932741096478179 0.11691455065222794 -0.07890263632604036
leaf_weight=9.2075483947992307 4.3280579373240462 4.5436066910624504 6.6858791559934607 8.4375406354665738 9.6876702755689603 3.6091372370719972 9.5990104526281339 5.8837655335664776 14.264507539570333 14.817791834473612 4.0083333402872077 179.10985238105059 15.803891718387606 10.98975223302841 6.1806084811687461 6.1347386464476568 116.98616449534893 5.5240373313426963 3.2002401053905478 14.424339838325976 8.2454915195703524 4.7388359308242789 4.7209101766347876 5.0453907847404498 4.000212237238884 5.2702163010835648 6.4603600651025763 3.902703881263732 4.196719214320181 3.8796151876449585
leaf_count=63 31 26 37 55 40 28 39 28 87 72 21 1546 70 62 26 38 481 23 20 118 34 21 22 22 27 22 28 34 22 24
internal_value=-0.00190727 -0.065027 0.0794818 0.0868696 0.0952386 -0.0882618 0.113144 0.013386 0.0230342 0.0529075 -0.0465657 -0.0931183 0.0513601 0.00826209 0.118688 0.00644956 0.122861 0.0854569 -0.0479538 -0.0725794 0.0383827 0.00427127 0.0608122 0.0776343 0.0137207 0.122439 0.0462053 -0.0993457 -0.0254014 0.0228502
internal_weight=503.887 283.795 220.092 210.884 198.438 218.925 139.452 64.8703 60.5423 58.9867 12.4459 208.246 38.2014 16.8735 132.766 10.6783 126.585 21.3279 25.2339 18.0335 49.299 19.5566 29.7424 25.0215 7.20045 10.3156 14.7059 183.013 22.3408 8.07633
internal_count=3167 2184 983 920 844 1837 583 347 316 261 76 1773 183 90 546 64 520 93 193 146 221 93 128 106 47 44 62 1580 133 46
is_linear=0
shrinkage=0.1


Tree=8
num_leaves=31
num_cat=0
split_feature=4 11 11 4 11 4 13 5 4 2 4 3 3 3 3 3 4 4 1 15 11 10 6 7 15 0 13 0 0 9
split_gain=217.497 46.615 23.3892 14.1857 11.4445 8.30969 7.76216 7.09144 5.85248 5.55781 4.76908 4.65461 7.30728 4.40233 9.22531 5.40108 5.36644 4.11694 4.06971 3.82157 3.39589 3.25378 3.96289 6.20383 5.25151 2.93978 2.91731 4.81415 4.74371 2.87983
threshold=-0.64245234093804016 -0.029027261993658193 -0.95715084233768766 -1.660009460900848 -0.95715084233768766 -0.98163804759230955 -1.4315445300335434 0.63248974618990983 -0.30326663428377099 20.500000000000004 0.20551192569763288 3.5000000000000004 4.5000000000000009 9.5000000000000018 13.500000000000002 12.500000000000002 -0.30326663428377099 -1.1512309009194441 26.500000000000004 -0.030920742597906174 -0.62819564930436078 -0.9655070029542353 -1.0131453230400831 -0.32160301836354993 -0.23265309121940581 2017.5000000000002 0.43207082160337135 2019.5000000000002 2021.5000000000002 -0.77921572605633427
decision_type=2 2 2 2 2 2 2 2 2 2 2 2 2 2 2 2 2 2 2 2 2 2 2 2 2 2 2 2 2 2
left_child=2 4 17 -4 7 18 -6 8 -2 -10 19 -8 -13 29 15 -15 -16 -1 -5 -3 -20 -7 24 -24 -23 -17 27 -21 -29 -14
right_child=1 10 3 5 6 21 11 -9 9 -11 -12 12 13 14 16 25 -18 -19 20 26 -22 22 23 -25 -26 -27 -28 28 -30 -31
leaf_value=0.11705465368046286 0.092042983232751896 -0.092009484167856134 -0.10349024105395369 0.093031357886673743 0.12409721465771154 0.086996488699100927 -0.08926260870446856 0.14340082274772278 -0.10982024462066786 0.02564750001624996 -0.10437826784562237 0.086050081711363094 0.017555314610661864 -0.019141864478815638 0.027640222741339468 0.045743099042910379 -0.10683719884359721 0.077538000127592363 -0.024908029844407098 -0.067684538729306284 0.077948706494555403 0.019750207981252672 0.094050017496961097 -0.0052055354435150258 -0.13465101289894552 0.17586085132820697 -0.07414827736237127 0.15015083394374817 -0.028055080802435246 -0.082733131829615766
leaf_weight=75.38344644010067 7.5172042399644914 29.586580343544483 6.6725841760635367 36.243372663855553 3.1928434967994681 5.722782000899314 12.980502605438231 6.0569679588079444 4.4383220747113219 9.5344766825437528 119.13668124377728 5.55616571009159 3.3721020966768291 5.4702681973576563 4.3605349510908082 3.3268460854887962 9.2887953147292155 40.543747611343861 6.2970018237829208 5.82003351300955 6.5473900288343412 4.6971726566553116 8.8330263644456846 21.935463160276417 4.1482425034046155 3.6320003271102905 11.238554388284681 2.9559108018875122 3.0197169035673141 18.976238004863262
leaf_count=327 33 255 55 153 15 25 101 28 25 42 1141 35 22 32 27 21 77 171 27 45 28 24 41 109 23 19 88 22 21 135
internal_value=-0.00192772 -0.0619342 0.0725773 0.0374231 -0.00678766 0.0473809 -0.0282337 0.047831 0.0208945 -0.0173825 -0.093304 -0.0354969 -0.0225687 -0.0350309 -0.00711956 0.0552087 -0.0638759 0.103234 0.0758903 -0.0682312 0.0275229 0.0165126 0.00633024 0.0232888 -0.0526595 0.113655 -0.0376888 -0.00295127 0.0600965 -0.0676008
internal_weight=486.485 269.461 217.024 101.097 97.7033 94.4245 70.1563 27.547 21.49 13.9728 171.757 66.9635 53.983 48.4268 26.0784 12.4291 13.6493 115.927 49.0878 52.6208 12.8444 45.3367 39.6139 30.7685 8.84542 6.95885 23.0342 11.7957 5.97563 22.3483
internal_count=3167 2184 983 485 612 430 484 128 100 67 1572 469 368 333 176 72 104 498 208 431 55 222 197 150 47 40 176 88 43 157
is_linear=0
shrinkage=0.1


Tree=9
num_leaves=31
num_cat=0
split_feature=4 11 8 11 14 11 3 13 5 4 1 10 0 2 4 2 5 9 3 3 13 3 3 4 15 2 7 15 12 15
split_gain=182.697 42.4871 22.1697 18.4195 12.933 9.39212 6.93522 6.23383 5.48241 5.16437 5.13043 5.5426 5.37374 4.89169 4.83019 4.67375 7.62817 4.55836 4.16106 5.85905 4.08955 3.78647 7.64507 4.84227 4.24854 4.8554 3.71305 3.60345 3.5626 3.36727
threshold=-0.64245234093804016 -0.029027261993658193 -1.1841508370682166 -0.91015724333292669 -1.1778659076405589 -0.95715084233768766 14.500000000000002 -1.4315445300335434 0.63248974618990983 0.20551192569763288 8.5000000000000018 -0.7462171042280682 2017.5000000000002 4.5000000000000009 0.20551192569763288 21.500000000000004 -0.79200684427384938 0.8082844014702063 3.5000000000000004 4.5000000000000009 -1.4315445300335434 9.5000000000000018 13.500000000000002 -0.30326663428377099 -0.68504018902268315 25.500000000000004 0.88867233810662871 -0.030920742597906174 -0.82271275589049286 -0.73281542380616094
decision_type=2 2 2 2 2 2 2 2 2 2 2 2 2 2 2 2 2 2 2 2 2 2 2 2 2 2 2 2 2 2
left_child=2 5 -1 13 -5 8 10 -7 9 -2 11 -6 -12 -4 27 28 -17 -15 -9 -20 -19 -21 24 -24 -23 -26 -8 -3 -14 -30
right_child=1 14 3 4 6 7 26 18 -10 -11 12 -13 15 17 -16 16 -18 20 19 21 -22 22 23 -25 25 -27 -28 -29 29 -31
leaf_value=-0.088087926044893267 0.055113371557366786 -0.088970133759507297 0.0073267414552979932 -0.11622346698806901 0.19065173888622142 0.10777832759598122 0.028893008682023064 -0.085676261449899205 0.12544722614822917 -0.047670944783418892 0.095184865890736978 0.071343994643398551 -0.071447286653668257 0.11050491485298149 -0.10226292836995368 -0.038320209462193999 0.1110661645844539 0.10733434633961035 0.073740717138874146 -0.063659869555599657 -0.017760683688339465 -0.048718533157503262 0.024498942596893739 -0.10423866434307293 0.011255959020437793 0.15532850575169843 -0.1059998006606095 -0.035037294958646346 0.086298261277589786 -0.010019033377177973
leaf_weight=8.9302176535129529 13.834934815764433 27.638953499495983 5.5083143413066855 5.0694241598248473 4.9505217820405987 3.3021954149007788 4.0290937125682813 12.211709149181841 6.2215949147939673 7.5593377277255049 13.454628601670263 18.242225468158722 6.1241949647664979 99.487155720591545 109.91572745144367 4.9771434366703025 10.913149073719977 4.9425065517425537 5.8198789954185477 21.421618044376373 5.545497313141821 3.3142830729484549 4.4240951165556863 8.6036717593669909 4.6949937045574206 4.6618131101131439 4.1345728188753128 22.451485000550747 5.0312843322753897 13.029430508613595
leaf_count=63 62 255 24 45 21 15 20 101 28 38 57 81 27 427 1141 22 48 21 35 157 23 20 27 77 29 23 20 176 23 61
internal_value=-0.00195408 -0.0589715 0.0661565 0.0728613 0.0389346 -0.00640397 0.0482007 -0.0262634 0.0428236 0.0187961 0.0575244 0.0968104 0.0405031 0.0992885 -0.0905339 0.0221446 0.0642755 0.103895 -0.0330572 -0.0209196 0.0411908 -0.0326112 -0.00673016 -0.0605207 0.0485745 0.0830368 -0.0394248 -0.0647964 -0.00553685 0.0168127
internal_weight=470.446 256.076 214.369 205.439 89.9557 96.0701 84.8862 68.4543 27.6159 21.3943 76.7226 23.1927 53.5298 115.483 160.006 40.0752 15.8903 109.975 65.1521 52.9404 10.488 47.1205 25.6989 13.0278 12.6711 9.35681 8.16367 50.0904 24.1849 18.0607
internal_count=3167 2184 983 920 425 612 380 484 128 100 340 102 238 495 1572 181 70 471 469 368 44 333 176 104 72 52 40 431 111 84
is_linear=0
shrinkage=0.1


Tree=10
num_leaves=31
num_cat=0
split_feature=11 4 8 4 8 13 14 3 3 3 10 15 11 13 3 4 8 6 7 4 1 15 4 14 12 2 15 0 9 15
split_gain=154.724 41.3917 17.6238 15.9625 10.362 9.69243 7.21591 6.4624 7.37278 8.04898 6.23717 5.48477 5.47596 5.21804 6.72537 4.97166 5.44173 5.07893 4.97001 4.90531 4.19406 5.28243 3.97651 3.96311 3.78941 5.41497 3.64805 3.57544 6.40109 3.41276
threshold=-0.029027261993658193 -0.81204519426517485 -1.1841508370682166 -0.64245234093804016 -1.1841508370682166 -1.4315445300335434 -0.44005156036806609 3.5000000000000004 13.500000000000002 12.500000000000002 -0.47210473082035936 -0.18010125552176459 -0.11126606025199004 -0.49387642858100783 4.5000000000000009 -1.3208237542465786 0.64052685640383566 1.1009879645494764 0.036962047184385942 0.20551192569763288 8.5000000000000018 -0.63043730696322031 0.20551192569763288 1.0000000180025095e-35 -0.67730886755896191 19.500000000000004 0.95078381391105127 2018.5000000000002 0.13430921412439531 -0.030920742597906174
decision_type=2 2 2 2 2 2 2 2 2 2 2 2 2 2 2 2 2 2 2 2 2 2 2 2 2 2 2 2 2 2
left_child=1 2 -1 6 -3 22 -2 -7 9 12 11 -11 13 24 -15 26 17 23 -10 29 -8 -22 -6 -17 -9 -26 -4 -18 -29 -5
right_child=3 4 15 19 5 7 20 8 18 10 -12 -13 -14 14 -16 16 27 -19 -20 -21 21 -23 -24 -25 25 -27 -28 28 -30 -31
leaf_value=-0.08776088303674838 -0.11550415129522813 -0.11793223009928587 0.11759080151421297 -0.085986269282085984 0.11705333659433106 -0.06595643642181899 0.067211878890896692 -0.0076698530354585934 0.034189848988150057 -0.037187239805025155 0.1757932935638207 0.11379925931167796 0.11507723491500842 0.064672094272893707 -0.080367027989878131 0.034821622736039941 0.073334030781773918 0.018194565232520842 -0.090809690517251615 -0.10023336889894974 0.047718393442531537 -0.07310607076424265 0.0093370855206823585 0.10586328680891131 -0.0036506380587126744 0.13804894985096916 0.047075968667001158 -0.087638025964975677 0.061353369387661762 -0.03233946221491512
leaf_weight=6.1118428483605376 5.0634123533964184 6.9554322585463515 51.966996841132641 25.83239521831274 10.340252459049223 14.302542470395563 9.5748126953840274 18.669786639511578 4.4544364511966696 4.7593936622142783 5.1147866547107688 4.8654718101024619 4.0112581923604074 4.1095303297042909 14.397954069077967 9.2939553558826429 8.6962270140647906 10.101700961589811 11.124939724802969 101.3674231171608 6.6556825488805798 7.9293828234076456 5.1262624263763419 50.631713896989822 5.4260329455137235 5.3617993295192719 8.5427423864603025 5.6484951823949796 5.8909018188714981 21.92079708725214
leaf_count=44 49 59 236 255 43 113 46 90 26 23 24 24 30 20 104 41 37 43 88 1141 31 42 23 219 31 24 36 24 25 176
internal_value=-0.00194996 0.0449727 0.0787089 -0.074541 0.000503632 0.00785451 -0.00695991 -0.00391327 0.00686954 0.0213335 0.0865586 0.039138 0.00283674 -0.00654978 -0.0481615 0.0854571 0.0705893 0.0837882 -0.05507 -0.0877849 0.0157887 -0.0179696 0.0813516 0.0948453 0.0195938 0.0667773 0.107636 0.0249131 -0.0115774 -0.06136
internal_weight=454.248 275.904 156.885 178.344 119.02 112.064 29.2233 96.5979 82.2954 66.716 14.7397 9.62487 51.9764 47.9651 18.5075 150.773 90.263 70.0274 15.5794 149.121 24.1599 14.5851 15.4665 59.9257 29.4576 10.7878 60.5097 20.2356 11.5394 47.7532
internal_count=3167 1427 705 1740 722 663 168 597 484 370 71 47 299 269 124 661 389 303 114 1572 119 73 66 260 145 55 272 86 49 431
is_linear=0
shrinkage=0.1


Tree=11
num_leaves=31
num_cat=0
split_feature=11 4 4 8 8 13 13 6 7 3 10 11 14 4 12 0 7 15 15 12 1 11 9 7 4 13 15 9 3 6
split_gain=131.951 35.6566 15.0022 12.0982 12.0591 9.02918 5.89792 5.72022 5.51867 5.30507 5.1452 4.76727 4.72363 6.27588 5.12943 5.16847 4.61816 4.44726 7.41468 6.31441 4.16948 4.08934 3.85506 3.83194 3.34392 4.24305 6.87054 4.19582 3.27093 3.95276
threshold=-0.029027261993658193 -0.98163804759230955 0.20551192569763288 -1.1841508370682166 -1.1841508370682166 -0.25945940321787386 0.43207082160337135 0.92063626871048287 -1.593669353312883 3.5000000000000004 0.13094249067660022 -1.6150612284043415 -0.44005156036806609 -0.81204519426517485 0.41322029492752094 2019.5000000000002 0.27164950515928005 -0.60004352683316042 -0.2231079020413845 -0.095693314232837723 28.500000000000004 -0.11126606025199004 0.10795355933786177 0.20022031663983711 -1.3208237542465786 -1.0564772894525292 0.043962570457129722 -0.29052724856109352 15.500000000000002 1.6319490977370077
decision_type=2 2 2 2 2 2 2 2 2 2 2 2 2 2 2 2 2 2 2 2 2 2 2 2 2 2 2 2 2 2
left_child=1 3 6 -1 -3 8 12 10 -6 -10 -7 -11 -2 -14 15 -15 -16 -5 -19 23 22 -12 -17 24 27 26 -26 -20 29 -13
right_child=2 4 -4 17 5 7 -8 -9 9 11 21 28 13 14 16 20 -18 18 19 -21 -22 -23 -24 -25 25 -27 -28 -29 -30 -31
leaf_value=-0.076450848177606265 -0.11443881740184235 -0.11637097492369715 -0.098264880323681386 0.11341025655329576 0.096192315708203524 -0.059780911083565848 -0.069956257692720861 0.059911391529488267 -0.064749656975132838 0.090862118824531463 -0.028457030245003581 0.018431629252899359 0.058049613009474116 -0.10144398303198639 0.15697807109451986 -0.098666033966630873 -0.03796123077851761 -0.016855722127546584 0.133758648991924 -0.015094786668860202 0.11019074853891296 0.14255135334421926 0.041463459796804193 0.11950549499426683 0.07384344395025455 0.10554363658707591 -0.085275620890520112 0.034029174529034305 -0.055123658944104641 0.10884327971961741
leaf_weight=4.7221352308988562 4.1509407609701148 7.4319365844130507 93.465306557714939 41.082452833652496 11.384933680295942 27.993294321000576 32.600971713662148 6.5644842982292166 6.4998508021235457 10.838682517409323 3.2868622243404388 58.867785632610321 11.890653416514395 10.366749241948133 2.5116447284817687 4.4854368939995748 2.3544834032654762 8.2529397904872877 12.333112895488737 5.9683385938405982 2.5214289799332619 2.4337825849652281 3.4913739338517189 28.870441481471062 5.9448738396167773 6.056530758738524 4.9924800097942352 6.4118083417415574 5.4081946462392798 5.2683826386928549
leaf_count=36 40 67 1141 188 53 201 292 44 48 46 28 287 54 90 22 39 19 37 57 26 19 18 24 131 27 26 21 29 31 26
internal_value=-0.00193684 0.0412665 -0.0715953 0.0805509 0.00772587 0.0143827 -0.0380797 -0.0254919 0.0307267 0.0221482 -0.0421209 0.0291749 -0.0132021 -0.00203234 -0.0297969 -0.0513589 0.0626564 0.0867336 0.072831 0.0833185 -0.00190105 0.0442965 -0.0373327 0.0924095 0.0705208 0.0383951 0.00121173 0.0996456 0.0195607 0.0258584
internal_weight=438.452 270.613 167.839 124.635 145.978 138.546 74.3737 40.2784 98.2678 86.8829 33.7139 80.383 41.7727 37.6218 25.7311 20.865 4.86613 119.913 78.8305 70.5776 10.4982 5.72064 7.97681 64.6092 35.7388 16.9939 10.9374 18.7449 69.5444 64.1362
internal_count=3167 1427 1740 578 849 782 599 291 491 438 247 390 307 267 213 172 41 542 354 317 82 46 63 291 160 74 48 86 344 313
is_linear=0
shrinkage=0.1


Tree=12
num_leaves=31
num_cat=0
split_feature=11 4 4 8 8 13 4 4 14 4 15 15 12 11 10 7 12 6 15 7 9 9 15 4 6 15 0 8 12 5
split_gain=112.614 30.4361 14.4547 10.5803 10.1427 7.58933 6.39986 7.30429 5.37122 8.50388 3.99819 6.30856 5.39643 3.75664 3.70144 3.60317 3.52854 4.34676 3.6647 3.3894 3.32924 9.206 4.75022 3.82599 3.32697 3.22762 4.19507 3.19368 3.11937 9.38992
threshold=-0.029027261993658193 -0.98163804759230955 0.20551192569763288 -1.1841508370682166 -1.1841508370682166 -1.4315445300335434 -0.30326663428377099 1.3926618989875756 -0.44005156036806609 -0.81204519426517485 -0.60004352683316042 -0.2231079020413845 -0.095693314232837723 0.44090872805395181 -1.4040868004065696 -1.2921057262854305 -0.96811664422202404 0.81696992258764556 -0.80932704776380626 0.20022031663983711 -0.32943402589607512 -0.13341785293020914 0.18852609928366243 -0.64245234093804016 1.5529674930075168 1.0266278544394114 2019.5000000000002 2.4652045498758883 -0.24109720256436881 0.60791776837563194
decision_type=2 2 2 2 2 2 2 2 2 2 2 2 2 2 2 2 2 2 2 2 2 2 2 2 2 2 2 2 2 2
left_child=1 4 8 -3 -1 -5 15 14 -2 13 -6 -12 19 -10 -8 -7 -16 18 -18 -13 -11 -22 23 -23 -17 26 -24 28 29 -4
right_child=2 3 27 5 10 6 7 -9 9 20 11 12 -14 -15 16 24 17 -19 -20 -21 21 22 25 -25 -26 -27 -28 -29 -30 -31
leaf_value=-0.072765051436350522 -0.11242500321623419 -0.11462275574394754 -0.11165125075690568 0.068888147179522866 0.10647687730015803 0.066831985757229151 0.05296398928690136 0.090100021353881662 0.07730399454858608 -0.082018625043396506 -0.015111382363058218 0.065173222860939461 -0.013584838550228627 -0.023149869649638638 0.011570082684252104 0.0023616609278011864 0.0057693446205975257 0.0081335296821774036 -0.099817852961626402 0.11198531611686594 0.11818943143786263 0.010596538830998984 -0.032245634680074138 -0.11202770475798407 0.082620181614725799 -0.054676986816670159 0.12999012037429875 0.019185566851474805 -0.10500081990252697 0.15684795324420886
leaf_weight=4.478068843483924 8.0848897546529752 6.82198492437601 4.3561551421880713 20.630323827266693 39.46654899418354 14.517628394067286 4.0329490005969992 4.945553518831729 9.5486803799867612 17.177943393588063 8.2833320051431638 34.888117149472237 5.9685285091400138 6.1016227751970282 7.9898690953850702 49.082842230796814 3.9221986979246166 6.7285950109362593 20.300980001688011 27.785078108310699 3.8216581866145125 3.2507377490401259 3.2274125739932042 11.710662677884111 5.7723870053887358 5.9169976115226746 3.148939773440361 2.3284659907221785 77.6358737424016 1.8580552414059637
leaf_count=36 89 67 52 88 188 67 17 32 43 163 37 160 26 31 44 245 32 53 177 131 37 17 26 126 27 44 23 29 1038 22
internal_value=-0.00190367 0.0378757 -0.0687061 0.00694253 0.0749193 0.0129554 0.00311757 -0.0249875 -0.0356303 -0.0259147 0.0806013 0.0673258 0.0772739 0.0381398 -0.0382319 0.0225315 -0.0476765 -0.0629704 -0.0827213 0.0859266 -0.0466894 -0.0271606 -0.0475416 -0.0853845 0.0108072 -0.00148556 0.0478739 -0.096336 -0.0995439 -0.0313697
internal_weight=423.783 265.615 158.168 144.745 120.87 137.923 117.293 47.9201 71.9895 63.9047 116.392 76.9251 68.6417 15.6503 42.9746 69.3729 38.9416 30.9518 24.2232 62.6732 48.2544 31.0764 27.2548 14.9614 54.8552 12.2933 6.37635 86.1786 83.8501 6.21421
internal_count=3167 1427 1740 849 578 782 694 355 599 510 542 354 317 74 323 339 306 262 209 291 436 273 236 143 272 93 49 1141 1112 74
is_linear=0
shrinkage=0.1


Tree=13
num_leaves=31
num_cat=0
split_feature=11 4 4 8 8 13 14 4 6 10 7 2 12 2 12 9 7 6 11 1 15 15 12 12 3 7 15 6 8 12
split_gain=96.2515 25.937 13.8397 9.30649 8.50158 6.45471 4.99821 7.15384 4.16009 4.31124 3.95735 4.35914 5.19769 5.91405 5.61077 5.02182 4.8296 4.53404 3.91364 3.68101 3.65141 5.35021 4.59676 3.50238 3.2066 3.08827 3.03285 5.02539 3.02935 3.08736
threshold=-0.029027261993658193 -0.98163804759230955 0.20551192569763288 -1.1841508370682166 -1.1841508370682166 -0.25945940321787386 -0.44005156036806609 -0.81204519426517485 0.92063626871048287 0.13094249067660022 -1.593669353312883 20.500000000000004 -1.4770302533823825 6.5000000000000009 -0.67730886755896191 0.36286785800064997 -0.56385913207560356 -0.22911775192462855 -1.0981316393519707 8.5000000000000018 -0.60004352683316042 -0.2231079020413845 -0.095693314232837723 0.049710574098693186 12.500000000000002 0.20022031663983711 0.043962570457129722 -0.62072490899041155 2.4652045498758883 -0.24109720256436881
decision_type=2 2 2 2 2 2 2 2 2 2 2 2 2 2 2 2 2 2 2 2 2 2 2 2 2 2 2 2 2 2
left_child=1 4 6 -3 -1 10 -2 19 9 -7 -5 12 -12 14 -14 -15 -13 -18 24 -8 -6 -22 25 -21 -19 26 -23 -28 29 -4
right_child=2 3 28 5 20 8 7 -9 -10 -11 11 16 13 15 -16 -17 17 18 -20 23 21 22 -24 -25 -26 -27 27 -29 -30 -31
leaf_value=-0.069169745999656904 -0.11114134919464486 -0.11308004364810789 -0.029510869428680891 0.080627176116230673 0.10021307671522402 -0.054574612772221066 0.09649165088718778 -0.043824708764720388 0.048483710928145525 0.040939160851612776 0.078285925770598674 0.10729793813240562 -0.021472293030680458 -0.087827978420937966 0.094065986975116922 0.030552234012708276 -0.048867812970270236 0.1284264386011644 0.0085730440784406066 0.057116844151176231 -0.01355440324636425 0.092379696265432992 -0.012226979964619607 -0.063004732104636516 0.024492387724334822 0.10524843053971827 0.071096655247468429 -0.037503806918438645 0.016981729667213952 -0.10375877850024216
leaf_weight=4.2517067939043036 7.395670920610427 6.2526753768324843 6.0796334594488135 11.453436091542242 37.826266095042229 26.592162251472473 5.9219277203083029 46.590225763618946 6.7929434701800337 5.7470638677477828 6.4702134579420081 8.6638074368238431 11.06821531057358 14.139731228351595 6.7764236554503432 4.7999216988682738 6.8774940893054 6.9998546838760358 15.516444534063341 4.8066777884960157 8.309861019253729 15.601339563727377 5.9682360962033263 4.9034269526600838 5.1541968435049057 26.665977597236633 12.023175746202464 6.5999330133199754 2.3654946386814109 71.04606344550848
leaf_count=36 89 67 74 53 188 201 27 436 44 46 28 37 54 88 35 28 35 29 82 21 37 77 26 26 22 131 53 30 29 1038
internal_value=-0.0019015 0.0347674 -0.0659762 0.00622873 0.0696488 0.0116719 -0.0334217 -0.024184 -0.0226573 -0.0376007 0.0253911 0.0180744 -0.00436759 -0.018906 0.0224029 -0.0578266 0.0405387 0.023797 0.0418579 0.0343538 0.0748721 0.0621201 0.0715257 -0.00354238 0.0843509 0.0797348 0.0598558 0.0326092 -0.0944872 -0.097906
internal_weight=409.66 260.551 149.109 143.305 117.246 137.052 69.6179 62.2223 39.1322 32.3392 97.9197 86.4663 43.2545 36.7843 17.8446 18.9397 43.2118 34.548 27.6705 15.632 112.995 75.1685 66.8587 9.7101 12.1541 60.8904 34.2244 18.6231 79.4912 77.1257
internal_count=3167 1427 1740 849 578 782 599 510 291 247 491 438 233 205 89 116 205 168 133 74 542 354 317 47 51 291 160 83 1141 1112
is_linear=0
shrinkage=0.1


Tree=14
num_leaves=31
num_cat=0
split_feature=11 4 4 8 8 12 3 3 0 3 3 10 6 14 4 7 2 13 0 11 13 6 15 9 9 15 4 1 12 8
split_gain=82.1428 22.2201 13.2762 8.75068 6.27119 5.55737 4.86346 5.46678 5.68173 6.66871 6.53653 10.1896 4.70598 4.66887 5.96481 4.41144 4.26897 4.02798 4.54566 3.47744 3.65585 3.24494 3.80306 3.11335 7.46296 4.44918 3.7866 2.9585 2.88429 2.87574
threshold=-0.029027261993658193 -0.81204519426517485 0.20551192569763288 -1.1841508370682166 -1.1841508370682166 0.92213390408787954 3.5000000000000004 13.500000000000002 2023.5000000000002 9.5000000000000018 4.5000000000000009 -0.81931373713679057 0.85371000280099951 -0.44005156036806609 -0.81204519426517485 0.036962047184385942 19.500000000000004 -1.0095938843799024 2020.5000000000002 -0.15825965925675087 -0.49387642858100783 -1.691305970311588 1.1966984426208929 -0.32943402589607512 -0.13341785293020914 0.18852609928366243 -0.64245234093804016 8.5000000000000018 0.049710574098693186 2.4652045498758883
decision_type=2 2 2 2 2 2 2 2 2 2 2 2 2 2 2 2 2 2 2 2 2 2 2 2 2 2 2 2 2 2
left_child=1 3 13 -1 -3 6 -6 8 9 10 11 -8 17 -2 27 -9 -5 -11 -19 20 -12 -18 -23 -16 -25 26 -26 -15 -29 -4
right_child=2 4 29 16 5 -7 7 15 -10 12 19 -13 -14 14 23 -17 21 18 -20 -21 -22 22 -24 24 25 -27 -28 28 -30 -31
leaf_value=-0.073587138948386102 -0.11000072948871153 -0.11146540525879067 -0.096269946600737552 0.037992394195864074 -0.050233115086804808 -0.11739145165366555 -0.025360084511936727 0.042155401859944208 -0.07339714403876979 0.0066174286584738291 -0.0020047144624219435 0.13732172533265621 0.13335878427189848 0.08654808356067667 -0.076796894391220144 -0.082177778590764597 0.010949170221076511 0.041596264893998022 0.16376426433121438 0.074295645059710688 -0.085850163342570437 0.089464084069068181 0.027599667404211509 0.10478915665973626 0.014093523826148783 0.0028708191636237033 -0.11031379924086954 0.051396844502213351 -0.058344583605406876 0.015060649621410779
leaf_weight=4.8511817604303351 6.7577147856354705 4.9144826903939238 70.925430998206139 45.342854276299477 12.529179826378821 3.643446557223796 7.7203842848539352 4.1544369757175437 5.3510869294404975 13.437331765890121 10.848669141530985 7.6803577318787557 7.8458795100450507 5.9408394247293463 15.656905591487879 9.1143554225563985 7.1723168492317191 8.7634533271193487 4.6679749488830575 2.9218640252947905 9.988129757344721 72.763569042086601 11.508573263883589 4.0317442789673796 3.2052112519741049 11.938759408891199 10.336638569831857 4.8073611706495267 4.7726050913333893 2.3986406400799742
leaf_count=44 89 59 1112 210 108 33 36 24 26 57 58 37 36 27 163 78 33 46 21 23 80 367 51 37 17 93 126 21 26 29
internal_value=-0.00184885 0.0319765 -0.0631743 0.0583993 -0.000973323 0.00402372 0.00823584 0.016156 0.0261053 0.0333128 0.00502411 0.0557694 0.0652235 -0.0311545 -0.0223752 -0.0432493 0.0630802 0.0453275 0.0840547 -0.0278698 -0.0421961 0.07552 0.0810156 -0.0407522 -0.0216297 -0.0416327 -0.0808679 0.0311064 -0.0032748 -0.092628
internal_weight=395.991 255.22 140.772 141.638 113.581 108.667 105.023 92.4939 79.2251 73.874 39.1594 15.4007 34.7146 67.4478 60.6901 13.2688 136.787 26.8688 13.4314 23.7587 20.8368 91.4445 84.2721 45.1693 29.5124 25.4806 13.5418 15.5208 9.57997 73.3241
internal_count=3167 1427 1740 705 722 663 630 522 420 394 234 73 160 599 510 102 661 124 67 161 138 451 418 436 273 236 143 74 47 1141
is_linear=0
shrinkage=0.1


Tree=15
num_leaves=31
num_cat=0
split_feature=11 4 4 8 8 6 15 11 14 2 15 13 13 5 10 4 10 12 5 1 4 4 11 1 1 2 0 15 9 7
split_gain=70.8654 25.1719 11.6153 7.92156 6.32254 6.04879 6.72512 6.05034 4.97935 4.50307 4.47933 4.27201 4.32062 7.48606 5.67924 4.26519 4.25906 4.74907 4.82833 4.95284 6.33961 3.75046 3.72576 3.67963 3.34616 3.14629 3.02334 4.11264 4.67106 3.47577
threshold=0.25880853191050285 -0.81204519426517485 -0.13367378095663637 -1.1841508370682166 -1.1841508370682166 1.2522537635528976 0.19917409591573856 -1.5210740303948194 1.7733914814494127 21.500000000000004 2.1123866443824499 0.16249124243576718 -1.0564772894525292 0.19613769211460932 -1.1847969016804025 0.88388333900617144 0.7157155539463792 -1.404328309216617 0.33622987731549209 16.500000000000004 -0.30326663428377099 -1.4904166075737133 -0.81617004532340476 11.500000000000002 22.500000000000004 5.5000000000000009 2017.5000000000002 0.12619109026087394 0.3770484814152863 -1.2921057262854305
decision_type=2 2 2 2 2 2 2 2 2 2 2 2 2 2 2 2 2 2 2 2 2 2 2 2 2 2 2 2 2 2
left_child=1 3 -2 -1 -3 7 -7 -6 16 11 -4 12 14 -14 -5 -12 17 22 19 20 -19 -11 -9 25 26 -22 -23 29 -29 -28
right_child=2 4 10 9 5 6 -8 8 -10 21 15 -13 13 -15 -16 -17 -18 18 -20 -21 23 24 -24 -25 -26 -27 27 28 -30 -31
leaf_value=-0.072996540417779407 -0.02212053161452731 -0.10966476345526888 -0.10167163443086556 0.054944665645556723 0.060272727710826236 0.17547412604339807 0.019928216832128684 -0.023834253952983272 0.071792118025368876 0.10871557944042785 0.089644526202057026 -0.05006107991856043 0.11327429895263019 0.016398989960943421 -0.054938941179595149 -0.10849563476374668 0.096179568456661341 0.058902762461952224 -0.077724746895531605 -0.045786032214132966 0.041232895048908674 0.081324422227834064 0.10077930697219668 0.078792137507996324 0.094213314376699317 -0.08550809513103147 -0.0087367567967441932 -0.094329423974218063 0.043843717744316821 0.081020157805394108
leaf_weight=4.8326597213745108 31.241060972213745 5.7465168684720984 66.919185645878315 10.672723397612573 10.90897089242935 3.6111087352037421 12.071404881775377 4.7238068282604218 5.8157770782709113 20.739884838461876 2.4672405198216429 5.3119734153151503 16.575713872909549 15.376376897096632 8.4097777456045133 1.941171873360872 2.885347004979848 13.667958348989488 19.96522643789649 36.210445892065763 2.4753162898123255 14.946098536252974 4.8757939562201482 2.314313117414712 19.621606156229973 9.3846093080937845 6.3410258293151864 5.0112460106611234 4.7806975841522217 13.498596817255024
leaf_count=46 286 79 1079 52 48 24 72 20 32 113 29 27 77 71 39 28 24 77 179 283 22 76 22 20 98 99 30 23 22 70
internal_value=-0.00183165 0.0241551 -0.0729685 0.0528986 -0.00703508 -0.00246009 0.0557447 -0.0105217 -0.0180696 0.0572048 -0.0952397 0.0352856 0.044169 0.0666548 0.00651827 0.00239677 -0.0234852 -0.0271733 -0.0347865 -0.0214027 0.0103093 0.0717455 0.039459 -0.0365484 0.0598021 -0.0590556 0.0446555 0.0261597 -0.0268695 0.0523326
internal_weight=383.344 280.775 102.569 146.118 134.657 128.91 15.6825 113.228 102.319 141.286 71.3276 56.3466 51.0346 31.9521 19.0825 4.40841 96.5028 93.6175 84.0179 64.0526 27.8422 84.9392 9.5996 14.1742 64.1993 11.8599 44.5777 29.6316 9.79194 19.8396
internal_count=3167 1745 1422 744 1001 922 96 826 778 698 1136 266 239 148 91 57 746 722 680 501 218 432 42 141 319 121 221 145 45 100
is_linear=0
shrinkage=0.1


Tree=16
num_leaves=31
num_cat=0
split_feature=11 4 4 8 8 11 5 6 15 15 0 10 13 5 6 9 2 10 4 11 2 15 14 13 4 4 14 12 10 10
split_gain=60.8541 21.1179 11.2843 6.63629 5.69671 5.31232 6.83287 4.56491 4.29634 4.147 4.13162 4.11286 4.19767 4.81907 4.26656 4.09576 3.96994 3.95965 4.14964 4.79098 5.76069 3.84986 4.21404 4.08536 3.5361 3.33835 3.05139 3.04569 3.95456 2.96999
threshold=0.25880853191050285 -0.81204519426517485 -0.13367378095663637 -1.1841508370682166 -1.1841508370682166 -0.95715084233768766 0.63248974618990983 1.8851590516032646 2.1123866443824499 0.95078381391105127 2023.5000000000002 0.49642565522021198 -0.58764323872626145 -0.52769852447286658 -1.6431802923237828 -0.7841737018339735 14.500000000000002 -0.60002383841062346 -1.3208237542465786 -1.7560420254186244 4.5000000000000009 0.13830978192642515 1.0000000180025095e-35 -0.72829345394414169 0.88388333900617144 -0.30326663428377099 -0.44005156036806609 -1.6224341417139134 -0.67312047131934583 -0.67312047131934583
decision_type=2 2 2 2 2 2 2 2 2 2 2 2 2 2 2 2 2 2 2 2 2 2 2 2 2 2 2 2 2 2
left_child=1 3 26 -1 -3 6 15 10 -4 17 11 12 13 29 -14 -6 -13 18 -5 -20 -21 22 -19 -24 -10 -17 -2 -11 -29 -7
right_child=2 4 8 9 5 7 -8 -9 24 27 -12 16 14 -15 -16 25 -18 21 19 20 -22 -23 23 -25 -26 -27 -28 28 -30 -31
leaf_value=-0.069644720438068047 -0.10761103052721349 -0.10868286735461515 -0.10039458370052501 0.10001355667556003 0.08599950369683429 0.013763276321033587 0.11172891744856171 0.099986251455270236 0.075012043820335814 0.08682933549722742 -0.11160052826685314 0.1661680033203129 0.082499263584495663 0.046815437862517253 -0.044268182102651599 0.025695376373891979 -0.00045036232122787736 -0.036258133255347033 -0.023266012740005611 -0.039508753106657427 0.079479825672408369 -0.025432886940989503 0.01452248381545823 0.10500745649627999 -0.1076271811088005 -0.052908811304477422 -0.0088687234532752023 -0.044732247688922144 0.051901391483493403 -0.086632307242613615
leaf_weight=4.5724363662302485 3.5350304730236557 5.2442359216511241 61.282307755202055 32.576694250106812 5.2415843755006781 5.7761760354042053 8.048282176256178 3.3357747867703429 2.6432355865836135 4.462799325585368 4.586666624993085 2.3759008869528762 2.8099955022335044 15.988596081733702 48.129268854856491 11.111115276813509 3.5918922312557697 4.5134261809289482 6.9005749970674506 4.5620652288198462 37.629520520567894 8.7401677444577199 8.1076489090919512 12.975027963519095 1.7698928229510782 10.517451301217081 27.288688607513905 10.477109119296077 7.1079339236021015 6.015192776918413
leaf_count=46 56 79 1079 191 23 31 36 21 29 21 37 23 21 85 472 48 38 25 37 21 186 40 39 60 28 51 230 46 32 36
internal_value=-0.00178349 0.0221634 -0.070111 0.0488811 -0.00653716 -0.0023367 0.0309017 -0.0148692 -0.093532 0.0528068 -0.0191609 -0.0141543 -0.0202221 0.0110476 -0.0372752 0.00669189 0.0658838 0.0603628 0.0723422 0.0539801 0.0666139 0.0318696 0.0514363 0.0702101 0.00176427 -0.0125279 -0.020193 0.0130511 -0.0056726 -0.037452
internal_weight=371.917 275.398 96.5192 142.625 132.772 127.528 34.9184 92.6095 65.6954 138.053 89.2737 84.687 78.7192 27.78 50.9393 26.8702 5.96779 116.005 81.6689 49.0922 42.1916 34.3363 25.5961 21.0827 4.41313 21.6286 30.8237 22.0478 17.585 11.7914
internal_count=3167 1745 1422 744 1001 922 158 764 1136 698 743 706 645 152 493 122 61 599 435 244 207 164 124 99 57 99 286 99 78 67
is_linear=0
shrinkage=0.1


Tree=17
num_leaves=31
num_cat=0
split_feature=11 4 4 8 3 3 10 9 9 8 5 3 7 15 5 10 7 4 10 7 5 11 9 15 5 6 7 5 2 15
split_gain=52.2881 17.7633 10.8724 6.5146 5.29445 9.46467 5.65971 6.79895 12.2156 4.52311 4.57474 4.4021 4.23834 4.12144 3.96529 3.8707 3.863 3.8098 4.3542 3.99528 3.80198 3.46735 5.16252 3.76939 3.36372 4.21132 3.33153 3.14534 4.44268 3.3002
threshold=0.25880853191050285 -0.98163804759230955 -0.13367378095663637 -1.1841508370682166 13.500000000000002 9.5000000000000018 0.7157155539463792 0.23422418325346747 0.29140188981716125 -1.1841508370682166 1.6069920481425197 3.5000000000000004 0.036962047184385942 2.1123866443824499 0.44393172812482623 -0.30763730677573403 0.84266910245420512 0.37510477902476752 -0.9655070029542353 0.27164950515928005 -0.4369098531980356 -1.0041444413424485 0.8082844014702063 1.9408753220079691 0.028202584000794565 0.38900539447739652 -0.48391520585185582 0.028202584000794565 18.500000000000004 -0.77792617299247246
decision_type=2 2 2 2 2 2 2 2 2 2 2 2 2 2 2 2 2 2 2 2 2 2 2 2 2 2 2 2 2 2
left_child=1 9 -2 -3 5 6 7 11 -9 -1 27 -5 -6 -4 17 20 -16 19 -19 -7 -13 -10 -23 -24 -22 -26 -17 29 -29 -11
right_child=2 3 13 4 12 14 -8 8 21 10 -12 15 -14 -15 16 26 -18 18 -20 -21 24 22 23 -25 25 -27 -28 28 -30 -31
leaf_value=-0.058057275388790013 -0.018503997739256647 -0.10816396703698394 -0.099142648519388976 -0.080875281592544535 0.025198525400878947 0.059027302663208076 0.12794048939340391 0.24492933349798776 0.078341925579497457 0.086040085474746869 -0.044272889644803332 -0.033660499751865046 -0.069899159204718744 0.0012647857350763748 0.16243104289110555 0.010034947667443625 0.052788232727139173 -0.12214395088096244 0.034202641774239942 -0.0407795127267623 0.092183781664641293 -0.066145805317081738 0.11250761578179849 -0.03807011128279162 -0.090316647329156813 0.056646370986217109 -0.11063868629934764 0.028509778916224443 0.097752475230440464 0.029322625998840141
leaf_weight=3.650791320949792 30.369535710662603 5.4638611711561671 56.115427546203136 15.067544549703596 6.6460330113768604 24.384171448647979 2.844747655093669 2.367163039743903 4.9607837200164822 13.627916287630795 4.4342499524354926 15.426226656883951 15.895789932459591 4.4092848300933829 4.7402558661997309 3.4344203174114227 9.9762367755174619 3.3418765813112259 3.8144451007246962 4.8003233447670928 6.3514249958097935 9.2098973020911234 3.9228746257722369 2.8851311467587948 3.3704605028033257 4.6261176243424416 6.8525818102061766 12.790514580905436 33.62773922085762 41.500275894999504
leaf_count=38 286 87 1079 153 42 114 20 16 22 79 20 84 167 57 24 24 47 14 28 23 36 70 26 23 21 25 71 64 192 215
internal_value=-0.00172529 0.0203587 -0.0673289 -0.000847215 0.00293777 0.0105664 -0.010621 -0.015644 0.0295875 0.0513814 0.0551513 -0.0347985 -0.0418614 -0.0918279 0.0443118 -0.0174685 0.0881047 0.0265776 -0.0388085 0.0426109 0.000802303 0.00528905 -0.0173356 0.048695 0.0378549 -0.00529676 -0.0703506 0.0594929 0.0786727 0.0433434
internal_weight=360.908 270.014 90.8942 160.382 154.919 132.377 81.3194 78.4746 23.3458 109.631 105.981 55.1288 22.5418 60.5247 51.0573 40.0612 14.7165 36.3408 7.15632 29.1845 29.7742 20.9787 16.0179 6.80801 14.348 7.99658 10.287 101.546 46.4183 55.1282
internal_count=3167 1745 1422 1137 1050 841 591 571 157 608 570 414 209 1136 250 261 71 179 42 137 166 141 119 49 82 46 95 550 256 294
is_linear=0
shrinkage=0.1


Tree=18
num_leaves=31
num_cat=0
split_feature=11 4 4 8 8 14 4 5 15 12 12 10 11 13 5 6 14 15 4 6 12 7 11 11 10 4 14 0 0 10
split_gain=44.7834 15.0952 10.4647 4.68168 4.61309 4.08861 5.13459 4.42163 3.98694 3.9249 3.74884 6.51466 5.67836 5.60813 4.16383 3.79662 3.66561 4.40907 5.12683 3.82507 3.27265 3.30718 3.02226 4.08363 3.82024 2.96852 2.86083 2.73659 2.61827 3.89266
threshold=0.25880853191050285 -0.81204519426517485 -0.13367378095663637 -1.1841508370682166 -1.1841508370682166 0.29776278690442687 -0.13367378095663637 0.43527569048570569 2.1123866443824499 0.84943195992211407 0.48592223909328636 0.13094249067660022 -0.39322765428055578 -1.1971275046704095 -1.7129773374167818 1.5350280007158406 -0.44005156036806609 0.12619109026087394 -1.4904166075737133 1.111847337216705 -1.5497321975481479 0.5454811045247977 -0.20525325826151189 -0.72218284731388283 -0.81931373713679057 0.88388333900617144 -0.44005156036806609 2017.5000000000002 2023.5000000000002 -0.23454067386701172
decision_type=2 2 2 2 2 2 2 2 2 2 2 2 2 2 2 2 2 2 2 2 2 2 2 2 2 2 2 2 2 2
left_child=1 3 26 -1 -3 9 -7 -8 -4 10 12 -12 14 -14 -6 -15 -5 19 -19 -18 21 -20 23 24 27 -10 -2 -22 29 -16
right_child=2 4 8 16 5 6 7 -9 25 -11 11 -13 13 15 28 -17 17 18 20 -21 22 -23 -24 -25 -26 -27 -28 -29 -30 -31
leaf_value=-0.06312094731890619 -0.10671564378806048 -0.10702110041527697 -0.097903227751743982 -0.022048344313913157 0.14044731723783199 0.12536670508042477 -0.047238981479086353 0.073878769302971978 0.06341275347084567 -0.083122678456507879 -0.0074792617569499663 0.15779314504597203 0.12117145148658426 -0.06705812733894248 -0.00020580603707307999 0.062422179217986408 0.070599333530677141 0.097347783574247115 0.013731673497756029 -0.012698832209786258 0.038067916602083467 0.12836534623194984 0.066743348748739745 -0.089477207180448604 0.07590716841624888 -0.10686164165560477 -0.0062515997995238248 -0.061646569553696684 -0.076490650057180712 0.10062621273398951
leaf_weight=4.1136001311242572 3.168890684843066 4.3554161749780169 51.385774046182632 7.6326506026089183 2.2558189481496802 5.2406793981790569 6.7303635701537114 5.4589248187839985 2.7994477748870841 6.8060262091457835 6.5790666006505472 3.7412953898310661 1.8969461321830738 27.03341123461724 48.013423763215542 2.4716396927833548 70.897121593356133 8.1658486872911435 6.6028666198253578 5.9775555878877631 4.2157889008522051 4.0667759031057358 4.5897556096315446 6.4966206997633007 5.1275088340044013 1.6142542138695715 26.858517408370972 7.9282698631286621 3.9617106914520255 4.160442389547824
leaf_count=46 56 79 1079 39 10 25 49 36 29 84 63 36 8 296 250 16 395 47 33 30 20 25 21 29 23 28 230 36 21 28
internal_value=-0.00168773 0.0186776 -0.0644541 0.0419326 -0.00586188 -0.00231872 0.0425916 0.00700313 -0.0900692 -0.00963996 -0.00464439 0.0524346 -0.0112047 -0.0454961 0.00723665 -0.0562116 0.0452139 0.0493519 0.025292 0.0641223 0.0102155 0.0574247 -0.00754686 -0.0218927 0.00352894 0.0011371 -0.0168539 -0.0270309 0.00188355 0.00783473
internal_weight=350.346 264.52 85.8269 135.814 128.705 124.35 17.43 12.1893 55.7995 106.92 100.114 10.3204 89.7934 31.402 58.3914 29.5051 131.701 124.068 47.1934 76.8747 39.0276 10.6696 28.3579 23.7682 17.2716 4.4137 30.0274 12.1441 56.1356 52.1739
internal_count=3167 1745 1422 744 1001 922 110 85 1136 812 728 99 629 320 309 312 698 659 234 425 187 58 129 108 79 57 286 56 299 278
is_linear=0
shrinkage=0.1


Tree=19
num_leaves=31
num_cat=0
split_feature=13 4 4 1 7 8 13 14 8 8 5 11 12 11 9 4 5 12 13 7 5 12 4 13 5 2 15 12 9 9
split_gain=38.6789 13.9416 10.0102 6.89962 7.55524 6.58356 4.85663 4.36057 4.18607 3.90101 3.63598 3.87944 5.60334 5.92413 3.87837 3.68632 5.17688 3.9163 4.63204 3.46855 3.29519 3.03974 2.97642 2.93907 2.80519 4.50964 3.65745 3.35132 2.62659 3.77575
threshold=0.35002486272627437 -0.98163804759230955 1.0000000180025095e-35 8.5000000000000018 1.9842943861834292 -1.1841508370682166 -1.4315445300335434 1.7733914814494127 -1.1841508370682166 2.4652045498758883 -1.7633179802765524 0.31167633079085905 0.48592223909328636 -0.11126606025199004 1.0013350044567373 -0.47285948761090563 1.6744453184086623 -0.53190497922743074 -0.25945940321787386 -0.92910590151650152 1.6069920481425197 -0.45920303506166532 0.20551192569763288 -0.72829345394414169 0.027484571662066203 27.500000000000004 -0.77041324202025518 -0.45920303506166532 0.16324296112926914 -0.27115837107491442
decision_type=2 2 2 2 2 2 2 2 2 2 2 2 2 2 2 2 2 2 2 2 2 2 2 2 2 2 2 2 2 2
left_child=1 8 3 4 28 -3 22 10 -1 -4 -8 12 15 -14 19 17 21 -12 23 -13 24 -17 -7 -19 25 -10 -27 -26 29 -2
right_child=2 5 9 -5 -6 6 7 -9 20 -11 11 14 13 -15 -16 16 -18 18 -20 -21 -22 -23 -24 -25 27 26 -28 -29 -30 -31
leaf_value=-0.059372938721008219 -0.036644581986573478 -0.108808111968592 -0.09869014113599904 -0.054802142836536775 0.21700148022512356 0.071219548460739329 0.10118607298120073 0.072511326293859785 0.05742496495771067 0.047645886017481182 -0.018716174141724325 0.026677372460989036 -0.004184537107189989 0.1918213595662337 0.066744141621368436 -0.014685270442261242 0.11566042350061978 0.015623218624061365 -0.013309430524563704 -0.10122674709561325 -0.043101696702173876 -0.067457497014818499 -0.016212823612350637 0.10793784379224486 0.086522726828721766 0.074155816615776263 -0.03399537620193685 0.01947604484191864 -0.074262043173392786 0.10608599200978647
leaf_weight=3.6539184600114814 3.6303807348012915 5.5272419638931742 44.136793736368418 22.329391784965992 1.9847794398665417 14.757146298885347 2.9247605986893168 6.9297835864126673 35.638841610401869 1.9001132175326336 27.385076031088829 2.6146106272935858 3.2929832004010677 2.8999876491725436 2.1704130172729483 24.014120195060961 2.2863576412200919 5.5864947736263266 11.00255984812974 11.212551504373549 3.6909357011318198 20.010178823024049 5.2890869826078406 9.0128757059574145 34.125188291072845 4.2164094187319305 12.101273588836191 9.5392530821263772 3.0310630314052105 3.7865011282265177
leaf_count=40 36 92 988 223 17 67 18 44 200 24 130 23 25 24 23 166 14 25 59 202 17 223 24 46 209 28 65 50 30 35
internal_value=-0.00163528 0.0171526 -0.0620647 -0.0215588 0.0381468 -0.00160945 0.0023044 -0.00469295 0.0457453 -0.0926503 -0.00899322 -0.0116457 -0.00468688 0.0875993 -0.0575335 -0.0104426 -0.0310522 0.0075703 0.0356876 -0.0770411 0.0496129 -0.0386716 0.048151 0.0726134 0.0531916 0.0374899 -0.00604964 0.0718752 0.00417001 0.0362229
internal_weight=340.681 259.882 80.799 34.7621 12.4327 156.916 151.389 131.343 102.966 46.0369 124.413 121.488 105.491 6.19297 15.9976 99.2977 46.3107 52.987 25.6019 13.8272 99.3119 44.0243 20.0462 14.5994 95.621 51.9565 16.3177 43.6644 10.4479 7.41688
internal_count=3167 1814 1353 341 118 1205 1113 1022 609 1012 978 960 712 49 248 663 403 260 130 225 569 389 91 71 552 293 93 259 101 71
is_linear=0
shrinkage=0.1


Tree=20
num_leaves=31
num_cat=0
split_feature=11 11 4 10 8 4 15 3 3 11 7 2 3 5 13 12 10 9 15 1 5 5 2 13 7 7 1 5 7 7
split_gain=33.3415 12.1362 9.51552 4.92314 4.89963 4.55175 5.77021 3.77542 6.41845 5.6746 4.20814 4.84466 4.40163 4.41323 6.19087 4.6477 5.63254 5.48257 3.67651 3.67399 3.55971 3.3731 3.95097 3.35038 3.28539 3.10192 3.04593 3.71777 3.39991 3.02075
threshold=0.25880853191050285 -0.95715084233768766 -0.13367378095663637 -0.67312047131934583 -1.1841508370682166 -1.1512309009194441 2.1123866443824499 3.5000000000000004 4.5000000000000009 -0.72218284731388283 1.2630251464812958 21.500000000000004 8.5000000000000018 -0.26969275742295046 0.35002486272627437 0.34051835076175546 -0.81931373713679057 -0.022350047056046964 2.1123866443824499 7.5000000000000009 0.11049477593400168 -1.4006419700697113 47.500000000000007 -0.25945940321787386 1.9842943861834292 -0.48391520585185582 27.500000000000004 0.60791776837563194 -0.36204802245899648 0.49119965165985563
decision_type=2 2 2 2 2 2 2 2 2 2 2 2 2 2 2 2 2 2 2 2 2 2 2 2 2 2 2 2 2 2
left_child=1 3 -2 5 -3 6 21 26 9 20 12 -12 25 -14 15 16 17 -15 -4 -11 -9 -1 -23 -18 -13 -10 27 28 -6 -30
right_child=2 4 18 -5 7 -7 -8 8 10 19 11 24 13 14 -16 -17 23 -19 -20 -21 -22 22 -24 -25 -26 -27 -28 -29 29 -31
leaf_value=-0.012774186247639825 -0.014230760573628388 -0.10718578356512515 -0.095575210573484171 0.10398134759383713 0.034457597572375702 0.013565447242210713 -0.069339568396119031 0.055234469240584907 0.018723428629563738 0.014245716311945275 -0.11782316098306703 -0.08207738856685394 -0.011061979096081921 0.022483305356724617 -0.058957632776906015 0.17384295898975605 0.039387067765849174 0.1901443013396521 0.00033715527673058908 0.11799127473114666 -0.068045118861282186 0.089171218204835145 -0.0081615712312915669 -0.058784384958895847 0.051987433947660401 -0.093326984655752857 -0.1080344180721729 0.09400431062834308 -0.096925379395521413 0.054343089660306793
leaf_weight=4.7262725085020056 29.115056127309799 4.377681963145732 43.411882393062115 11.183368749916552 4.4054159037768885 51.612854823470116 3.3565123081207267 4.3958123028278369 3.7577129267156124 4.8634106144309071 6.5971627011895162 3.0183660984039307 36.100892581045628 3.5757046416401863 5.3811795711517325 3.0889556407928458 12.363523717969658 4.2908486649394026 4.4017955586314192 11.449806187301872 5.0137384682893753 32.93041568249464 4.7752301022410384 4.8361702524125638 4.6346948146820068 7.2129601612687093 4.8702086284756652 2.5110863409936419 7.9422135911881924 1.5833092294633386
leaf_count=26 286 86 1079 59 35 263 15 21 24 27 38 21 249 20 70 23 72 23 57 57 23 230 33 48 21 79 50 20 100 12
internal_value=-0.00160202 0.0158145 -0.0593009 0.0411418 -0.00298728 0.0339268 0.0568781 0.000227451 0.00708513 0.0513903 -0.00492914 -0.0550232 0.0039267 0.0132017 0.0393208 0.0581043 0.0438417 0.113935 -0.0867454 0.0870619 -0.0104532 0.0668623 0.0768445 0.0117834 -0.000887712 -0.0549471 -0.0385721 -0.017997 -0.0381855 -0.0717819
internal_weight=331.784 254.856 76.9287 108.585 146.271 97.4013 45.7884 141.893 120.581 25.7228 94.8582 14.2502 80.6079 69.6373 33.5364 28.1552 25.0662 7.86655 47.8137 16.3132 9.40955 42.4319 37.7056 17.1997 7.65306 10.9707 21.3122 16.442 13.9309 9.52552
internal_count=3167 1745 1422 626 1119 567 304 1033 816 128 688 80 608 505 256 186 163 43 1136 84 44 289 263 120 42 103 217 167 147 112
is_linear=0
shrinkage=0.1


Tree=21
num_leaves=31
num_cat=0
split_feature=13 4 4 1 8 7 13 14 8 14 5 5 15 11 7 13 9 9 12 12 3 5 3 2 12 13 1 11 0 13
split_gain=28.5992 10.2998 9.2332 5.6616 5.51975 5.06881 3.84774 3.81949 3.59069 3.43941 2.90972 3.49018 7.99504 3.33687 2.80955 5.51737 5.03609 4.84442 4.2123 3.03836 4.44535 3.88243 3.74673 3.88774 3.57252 2.91307 3.60887 3.2422 2.70183 2.938
threshold=0.35002486272627437 -0.98163804759230955 1.0000000180025095e-35 8.5000000000000018 -1.1841508370682166 1.9842943861834292 -1.4315445300335434 -1.1778659076405589 2.4652045498758883 1.7733914814494127 -1.7633179802765524 -1.0027833552651544 -0.80932704776380626 -0.95715084233768766 -1.0362496842956668 -0.40010961843575416 -0.47813411025784691 -0.43269391522633865 -1.1135205325535549 0.55862418325905205 13.500000000000002 1.6744453184086623 12.500000000000002 45.500000000000007 0.049710574098693186 -0.11880918799999361 17.500000000000004 -0.25224685726627288 2022.5000000000002 0.95950912867042282
decision_type=2 2 2 2 2 2 2 2 2 2 2 2 2 2 2 2 2 2 2 2 2 2 2 2 2 2 2 2 2 2
left_child=1 7 3 5 -3 -2 -6 -1 -4 10 -8 13 -13 -12 15 -14 18 -18 -16 20 21 22 23 24 25 27 -27 -19 29 -5
right_child=2 4 8 28 6 -7 9 -9 -10 -11 11 12 14 -15 16 -17 17 19 -20 -21 -22 -23 -24 -25 -26 26 -28 -29 -30 -31
leaf_value=-0.067881522496311769 0.0055554053720231972 -0.10769835751073914 -0.096580985170453992 -0.010374466519391624 0.042799239952245459 0.17225495750628358 0.088715824881582611 0.043411462844341983 0.042220117740598306 0.063696344266487778 0.021791970198410022 0.14626830521895182 -0.033284423094570491 -0.071407129932929359 0.062215693246253957 0.12429156739428567 0.11766246581299655 0.0085994887477236718 -0.093378211071871747 0.073433251001190414 -0.071874400292518223 0.093798599369744717 0.043663833977399882 -0.10952284745473961 -0.096988404765600666 -0.0057347259695741011 0.18782106632501899 -0.071293423349972601 -0.1207040536688857 -0.11345966989151474
leaf_weight=3.1874236501753321 10.225276481360195 4.7635269630700341 37.292381960898638 13.357904057949787 19.714228823781013 2.2200876027345648 2.9989970922470084 94.747206173837185 1.9618125706911076 6.964710444211959 5.1021893918514278 3.4550278000533572 4.478227473795414 15.549286756664513 2.048266112804412 4.4104560464620572 3.1494020745158187 19.449053268879641 11.558777019381521 4.18250723555684 11.174624983221291 3.8808302953839293 10.287050198763607 4.6943548507988444 4.3760998472571364 2.1663911975920374 1.734580375254154 6.8751010037958613 4.2778720818459979 3.4863679297268382
leaf_count=28 101 92 988 137 91 17 18 581 24 44 23 27 21 146 10 26 20 105 118 39 120 24 51 44 65 33 22 66 44 42
internal_value=-0.00154417 0.014466 -0.0567163 -0.0182103 -0.00174183 0.0352924 0.00166273 0.0397893 -0.0896441 -0.00464659 -0.00856189 -0.0110223 -0.00314331 -0.0483812 -0.00860795 0.0449029 -0.014166 -0.0036179 -0.0699567 -0.00916799 -0.0145128 -0.00252344 -0.0100626 -0.0241274 -0.0125418 -0.000315317 0.0803305 -0.0122662 -0.0497345 -0.0317107
internal_weight=323.77 250.948 72.8217 33.5675 153.014 12.4454 148.25 97.9346 39.2542 128.536 121.571 118.572 97.9207 20.6515 94.4657 8.88868 85.577 71.97 13.607 68.8206 64.6381 53.4635 49.5826 39.2956 34.6012 30.2251 3.90097 26.3242 21.1221 16.8443
internal_count=3167 1814 1353 341 1205 118 1113 609 1012 1022 978 960 791 169 764 47 717 589 128 569 530 410 386 335 291 226 55 171 223 179
is_linear=0
shrinkage=0.1


Tree=22
num_leaves=31
num_cat=0
split_feature=4 11 13 8 13 1 13 4 1 6 15 8 15 13 13 15 7 2 11 5 7 10 7 6 4 5 3 1 10 14
split_gain=25.4527 10.6153 7.89259 4.6373 4.49596 9.06458 4.35847 3.58441 3.4307 3.69074 3.27624 2.91011 2.87473 3.64138 5.42032 4.16465 4.0158 2.76833 4.75724 5.35652 6.24983 4.69698 4.18739 4.13973 3.97628 3.72556 3.46231 3.40437 6.60744 3.91243
threshold=0.20551192569763288 -0.95715084233768766 -0.025042377854739957 -1.1841508370682166 -0.16569259307262021 22.500000000000004 0.77197550837991569 -1.4904166075737133 7.5000000000000009 0.26687333095565907 -0.85998682527949377 2.4652045498758883 -0.58303383454821989 -1.0095938843799024 -1.2908943148156631 -0.28228718856781992 0.24421312811207649 25.500000000000004 -0.58120205029959993 -0.79200684427384938 -1.4540040029131092 -0.52692720550190109 0.31859882277884888 1.6546724546397977 -0.98163804759230955 1.3044296265170372 12.500000000000002 8.5000000000000018 0.40505486408430913 1.0000000180025095e-35
decision_type=2 2 2 2 2 2 2 2 2 2 2 2 2 2 2 2 2 2 2 2 2 2 2 2 2 2 2 2 2 2
left_child=1 7 4 -3 -2 -6 10 -1 9 -8 -5 -4 -9 14 15 -14 -16 23 21 20 -20 -19 26 27 -24 -26 -21 29 -29 -12
right_child=2 3 11 6 5 -7 8 12 -10 -11 17 -13 13 -15 16 -17 -18 18 19 22 -22 -23 24 -25 25 -27 -28 28 -30 -31
leaf_value=0.082525895535807595 -0.028500039941175417 -0.092657833967022707 -0.089223411787283671 0.086316921002424551 -0.02917395996164826 0.32296450243997948 -0.07016574760270472 0.059171808623276305 -0.091413294262537539 0.11065703118869093 -0.055478365060415036 0.031353837255811132 -0.073024401949703818 0.054528807527835357 -0.11091451980253619 0.042430670332456975 0.0099672417173976551 0.023099379215279506 0.0084541837404992735 0.021368071668918832 -0.15975308370287211 0.13811113612876566 0.070896430076299408 -0.091349725663151943 -0.095814595362429145 0.050564368937578319 0.11971233753643738 -0.03555432958975633 0.056890277585149564 0.05014638889148966
leaf_weight=16.173176825046539 24.606571774929765 5.5519058760255566 39.068361509591341 4.8772971518337718 2.0229481924325223 1.1446217522025106 2.3665391057729712 24.663892701268196 8.6348900236189348 2.1581610403954983 4.3514142371714142 2.1096948869526377 3.6597643643617657 18.175480023026466 6.3052544668316823 21.353651899844408 4.8715102486312389 8.9962358176708204 5.0048788003623486 9.5832462050020712 3.9540316052734834 5.8663518652319899 3.4305318295955649 5.6776492185890666 6.400669049471615 2.3872302807867527 5.7145992144942275 39.372642867267132 9.6208600103855115 18.067863471806049
leaf_count=121 205 89 1111 31 34 17 33 154 113 20 32 26 18 93 31 130 27 48 33 89 35 30 18 37 65 14 37 271 80 125
internal_value=-0.00153547 0.0134489 -0.05526 -0.00294956 -0.0140646 0.0980735 0.000450923 0.0396334 -0.0544529 0.0160819 0.00587089 -0.0830458 0.0308556 0.0180095 -0.000331335 0.0255382 -0.0582269 0.00281581 0.020807 0.00137547 -0.0657844 0.0684952 0.0232418 -0.00916531 -0.0204082 -0.0560508 0.0581051 -0.00263126 -0.017401 0.0296454
internal_weight=316.172 247.22 68.9522 152.017 27.7741 3.16757 146.465 95.2027 13.1596 4.5247 133.306 41.1781 79.0296 54.3657 36.1902 25.0134 11.1768 128.428 51.3378 36.4752 8.95891 14.8626 27.5163 77.0904 12.2184 8.7879 15.2978 71.4128 48.9935 22.4193
internal_count=3167 1774 1393 1200 256 51 1111 574 166 53 945 1137 453 299 206 148 58 914 369 291 68 78 223 545 97 79 126 508 351 157
is_linear=0
shrinkage=0.1


Tree=23
num_leaves=31
num_cat=0
split_feature=11 4 11 10 8 9 9 3 2 12 10 15 2 15 1 0 4 4 1 6 3 3 11 7 2 3 5 13 12 10
split_gain=22.0207 8.24097 7.09195 4.20089 3.86829 3.72302 5.654 5.08088 4.27585 3.80938 3.55271 3.42872 3.30581 4.05751 3.5525 3.3443 3.7409 3.04203 2.92278 2.80184 2.64288 4.78079 4.54849 3.68639 3.7894 3.11175 3.47184 4.24768 3.4665 4.87439
threshold=0.25880853191050285 -0.13367378095663637 -0.95715084233768766 -0.67312047131934583 -1.1841508370682166 0.8082844014702063 0.29848629131855464 8.5000000000000018 4.5000000000000009 -1.5497321975481479 -1.5502800662240144 2.1123866443824499 33.000000000000007 -0.20622882424483527 16.500000000000004 2018.5000000000002 -1.1512309009194441 -0.98163804759230955 7.5000000000000009 0.46028497718299322 3.5000000000000004 4.5000000000000009 -0.72218284731388283 1.2630251464812958 21.500000000000004 8.5000000000000018 -0.26969275742295046 0.35002486272627437 0.26781640659598976 -0.81931373713679057
decision_type=2 2 2 2 2 2 2 2 2 2 2 2 2 2 2 2 2 2 2 2 2 2 2 2 2 2 2 2 2 2
left_child=2 -2 3 5 -4 6 7 8 -1 -10 -7 -3 15 14 -14 16 -9 -11 -17 -5 -6 22 -22 25 -25 -23 -27 28 29 -28
right_child=1 11 4 19 20 10 -8 12 9 17 -12 -13 13 -15 -16 18 -18 -19 -20 -21 21 23 -24 24 -26 26 27 -29 -30 -31
leaf_value=-0.13011851693470758 -0.010736436037230346 -0.092403831391317137 -0.1059141119331095 0.051493019946766284 -0.033217916084340333 0.033777883350324292 0.095327617666096542 0.063307425553279492 -0.096993028549631252 0.072705624018565951 -0.080546412774021442 0.001986057558190635 -0.027131485325288487 -0.064340542326586855 0.11771447120471173 0.011848293536782205 -0.033769671489916678 -0.034725178731876249 0.09597689223330895 0.15713933649924286 -0.010644087796387681 -0.048051390395952215 0.077300181770408316 -0.10963700969314936 -0.0038273845663050615 -0.010086552773968702 0.10132302461290915 -0.051515550145724655 0.13884026464696381 0.0047062787820877196
leaf_weight=3.1750289797782925 27.853727608919144 34.709140609949827 3.5044018141925326 6.5528736226260644 19.861009858548641 4.9427822418510914 12.325355164706705 8.2674606069922429 3.221788004040719 6.1864282190799713 6.0395856499671918 4.3283124268054953 3.292143102735281 6.249217960983513 3.4864204972982407 5.389669485390189 7.6358813196420661 4.5923501476645434 17.66364648193121 4.0692565590143204 9.3335345387458819 9.9925758838653547 15.898700714111326 6.2544139362871629 7.3768005594611168 34.993387781083584 7.751090131700038 4.7952021583914748 3.8225517719984046 16.00180549919606
leaf_count=16 286 1079 86 36 217 29 74 66 22 45 30 57 19 37 22 34 41 24 108 23 44 103 84 38 42 249 43 70 29 114
internal_value=-0.00148917 -0.0522896 0.0125135 0.0324057 -0.00217774 0.0255638 0.0329303 0.0218102 -0.0253443 -0.00158372 -0.029093 -0.0819383 0.0373899 -0.00621723 0.0473672 0.0519729 0.0166965 0.0269342 0.0763083 0.0919653 0.000493711 0.00625474 0.0447691 -0.00442586 -0.052376 0.00402357 0.0117482 0.0353521 0.0504578 0.0362344
internal_weight=309.567 66.8912 242.675 103.09 139.585 92.4678 81.4854 69.16 17.1756 14.0006 10.9824 39.0375 51.9844 13.0278 6.77856 38.9567 15.9033 10.7788 23.0533 10.6221 136.081 116.22 25.2322 90.9878 13.6312 77.3566 67.364 32.3706 27.5754 23.7529
internal_count=3167 1422 1745 626 1119 567 508 434 107 91 59 1136 327 78 41 249 107 69 142 59 1033 816 128 688 80 608 505 256 186 157
is_linear=0
shrinkage=0.1


Tree=24
num_leaves=31
num_cat=0
split_feature=4 11 14 11 6 15 8 15 13 4 14 1 8 5 4 13 13 13 15 13 13 3 1 4 2 1 12 3 2 9
split_gain=19.5067 7.26654 7.13634 4.84398 4.43672 7.69435 3.81722 3.72917 3.56979 3.11933 3.06385 2.70875 2.6699 2.58929 4.06192 2.44902 3.60242 3.20254 2.9179 3.51861 5.11584 6.48582 3.51701 3.08177 2.8826 2.79061 2.39487 2.32491 3.3838 3.37308
threshold=0.20551192569763288 -0.95715084233768766 4.5401952837212614 0.25880853191050285 0.78109093800429064 0.24883624360732473 -1.1841508370682166 0.9366417439836735 0.90090487232963923 -1.4904166075737133 0.29776278690442687 5.5000000000000009 2.4652045498758883 0.027484571662066203 1.3926618989875756 -2.0410287959776912 -1.8066117706145579 -1.9472619858324378 -0.20622882424483527 -1.4784279351061702 -1.0095938843799024 9.5000000000000018 27.500000000000004 -1.1512309009194441 33.000000000000007 17.500000000000004 -0.38650109089589985 14.500000000000002 19.500000000000004 0.27227217925783559
decision_type=2 2 2 2 2 2 2 2 2 2 2 2 2 2 2 2 2 2 2 2 2 2 2 2 2 2 2 2 2 2
left_child=1 9 3 4 7 -6 -3 13 10 -1 27 -10 -5 -2 -15 -11 17 -17 22 24 21 -21 23 -18 -20 -25 -22 -8 -29 -30
right_child=2 6 -4 12 5 -7 8 -9 11 15 -12 -13 -14 14 -16 16 18 -19 19 20 26 -23 -24 25 -26 -27 -28 28 29 -31
leaf_value=0.075466316146543394 -0.092256810945541196 -0.089040905886711194 0.17716553446783034 -0.0953880992659632 0.15330311204137603 -0.065781551549043513 0.0067068751492275862 0.039348194805106734 0.021243427123472977 0.10033311869669473 0.079335950715734571 -0.09614787478394643 0.01569309797415417 -0.066522268576669472 0.074801573736275759 0.042500267132106369 0.097717147929384768 -0.066517185253873845 0.12853763215983624 -0.13460225351128405 0.072662219571436648 0.0082359611886148286 0.13191944667539771 0.044074756486626052 0.0084445371636222288 -0.0573215033828035 -0.0048590006007555092 -0.08527765160169859 0.081046868493111809 -0.056220126132245751
leaf_weight=15.019054710865019 13.241787254810339 4.8774703163653603 1.3441220074892033 26.014284929260615 3.2366819661110631 3.176106121391058 114.46247646212578 4.1653649993240824 2.8577822186052781 4.1493043303489676 5.3306709229946128 6.2961390726268291 2.3600881099700919 6.7999241556972247 2.9015879333019257 4.1144100502133369 5.8609878644347235 7.8089716956019384 4.292179048061362 5.2330308333039239 8.4386905580758977 8.0984102860093099 5.1635007932782164 7.9159405939280987 3.7405196242034435 4.130621675401926 7.5510304793715664 7.0621379911899549 3.5732621625065804 3.5874494574964046
leaf_count=121 183 89 6 953 33 27 820 42 32 30 30 92 28 90 31 25 44 48 28 26 44 45 33 45 23 22 40 79 32 26
internal_value=-0.00139186 0.0116487 -0.0507918 -0.0557421 -0.0300042 0.0447955 -0.00204444 -0.0476987 0.00091933 0.0338002 0.0050462 -0.0594992 -0.0861487 -0.0635021 -0.0242543 0.0256197 0.0213348 -0.0288985 0.0312471 0.0139771 -0.00208709 -0.0478328 0.0592086 0.038243 0.0726149 0.0093072 0.0360534 0.00196882 -0.0361621 0.0122774
internal_weight=302.804 239.564 63.2399 61.8958 33.5215 6.41279 148.047 27.1087 143.17 91.5167 134.016 9.15392 28.3744 22.9433 9.70151 76.4976 72.3483 11.9234 60.4249 37.3539 29.3212 13.3314 23.0711 17.9076 8.0327 12.0466 15.9897 128.685 14.2228 7.16071
internal_count=3167 1774 1393 1387 406 60 1200 346 1111 574 987 124 981 304 121 453 423 73 350 206 155 71 144 111 51 67 84 957 137 58
is_linear=0
shrinkage=0.1


Tree=25
num_leaves=31
num_cat=0
split_feature=13 4 13 14 4 2 12 5 1 13 15 10 11 11 1 3 2 7 6 15 2 13 15 8 10 10 1 2 12 8
split_gain=16.7911 7.87863 5.30149 3.83639 3.95639 3.48474 6.37659 6.19986 4.87479 4.06618 4.01425 3.60931 3.18648 2.97971 2.81198 2.73594 2.71925 2.5726 2.63169 2.54735 4.96644 3.20933 4.48527 2.80985 2.35697 2.77955 2.24405 2.08506 1.94199 2.37
threshold=0.77197550837991569 -0.30326663428377099 -0.86894366916202215 -1.1778659076405589 -1.4904166075737133 12.500000000000002 0.41322029492752094 1.6744453184086623 8.5000000000000018 0.30314145765364769 -0.81862270826472228 -0.81931373713679057 0.5936379248194249 -0.49896325204126807 14.500000000000002 9.5000000000000018 4.5000000000000009 0.3234474928604672 0.54046254806526206 0.84668667207976966 9.5000000000000018 -1.7128449604693041 1.723178299752514 -1.1841508370682166 -0.47210473082035936 -1.0386036358629576 6.5000000000000009 12.500000000000002 -1.0408185883877894 2.4652045498758883
decision_type=2 2 2 2 2 2 2 2 2 2 2 2 2 2 2 2 2 2 2 2 2 2 2 2 2 2 2 2 2 2
left_child=1 3 13 -1 14 6 7 10 -8 -10 -4 -7 -11 27 -5 -16 24 -2 -19 23 -21 -22 26 -18 25 -6 -23 -3 -13 -30
right_child=17 2 5 4 16 11 8 -9 9 12 -12 28 -14 -15 15 -17 19 18 -20 20 21 22 -24 -25 -26 -27 -28 -29 29 -31
leaf_value=-0.073407470953753676 -0.086026344746333513 -0.048899209174746362 0.055331240884755578 0.10325616905110101 0.011210685369422766 0.034883786409994136 -0.057502427064698075 0.17870755081779474 0.23795185435891286 0.1301628002899696 -0.076185171136536139 0.043886968964124279 -0.10531887742052158 0.094342459198373169 -0.063535591796076318 0.058219811814003611 -0.059390759201318193 0.072095523739200348 -0.076195861879947868 0.092459975870558986 0.061895259850464339 -0.14912494102099214 0.014156953735203859 0.028035323407989473 0.026637075674637162 -0.097180294057478411 -0.053163385957445498 0.02691103579569111 -0.079004998316631062 0.072188234524569975
leaf_weight=4.50481311418116 24.650748390704397 5.2641626596450868 2.7980908360332313 9.1511016264557856 3.9210294857621184 3.8768753744661799 1.87504925392568 1.2335899136960495 2.0662092193961143 1.6701811607927086 13.60678834281862 1.4858718272298599 0.87605907768011082 4.5696270652115336 2.5298805199563486 6.8229797929525375 3.7937376871705046 2.2721177097409955 2.5285845547914505 4.0997113436460522 3.4290987178683308 3.5950319394469279 7.9656956791877738 118.66723578795791 5.6810006238520137 5.9649906381964675 7.5645781010389328 11.67221440002322 27.713576404377822 1.0770680084824551
leaf_count=44 742 34 39 71 20 29 42 13 20 33 219 12 26 28 20 56 51 23 30 20 18 19 40 733 38 30 40 59 606 12
internal_value=-0.00131911 0.00657177 -0.0197517 0.0177616 0.0200036 -0.0354105 -0.00631658 -0.0374954 0.0784537 0.133722 -0.0537531 -0.0559625 0.049143 0.0226824 0.0638459 0.0252859 0.0150774 -0.0729836 -0.00601124 0.0192292 -0.00878639 -0.0271899 -0.0431626 0.0253269 -0.024693 -0.0541899 -0.0840771 0.0033477 -0.0675953 -0.0733488
internal_weight=296.928 267.476 79.7854 187.691 183.186 58.2794 24.126 17.6385 6.4875 4.61245 16.4049 34.1534 2.54624 21.506 18.504 9.35286 164.682 29.4515 4.8007 149.115 26.6541 22.5544 19.1253 122.461 15.567 9.88602 11.1596 16.9364 30.2765 28.7906
internal_count=3167 2372 1172 1200 1156 1051 392 271 121 79 258 659 59 121 147 76 1009 795 53 921 137 117 99 784 88 50 59 93 630 618
is_linear=0
shrinkage=0.1


Tree=26
num_leaves=31
num_cat=0
split_feature=4 13 11 13 1 8 10 14 11 13 13 15 15 2 9 8 9 9 15 2 1 7 3 13 0 4 14 0 12 0
split_gain=14.7142 5.95479 5.46849 3.2529 6.47402 3.12118 2.7807 2.77312 2.88176 2.6121 5.58573 3.34712 4.93117 4.76081 3.68219 2.61187 2.59565 3.69356 3.14349 3.1381 2.8921 5.04007 4.06114 3.81045 3.39402 3.09409 4.83057 3.56265 2.79453 4.06969
threshold=0.20551192569763288 -0.025042377854739957 -0.95715084233768766 -0.16569259307262021 27.500000000000004 -1.1841508370682166 -0.7462171042280682 -0.44005156036806609 -0.62819564930436078 -1.9472619858324378 -1.8534951756871847 -0.80932704776380626 -0.73079161486224964 47.500000000000007 1.0013350044567373 2.4652045498758883 1.0963042748849918 2.0999439747459077 1.0960682881602286 3.5000000000000004 27.500000000000004 1.3300195757797482 11.500000000000002 -1.7597283655419309 2017.5000000000002 -0.98163804759230955 0.29776278690442687 2016.5000000000002 0.26781640659598976 2022.5000000000002
decision_type=2 2 2 2 2 2 2 2 2 2 2 2 2 2 2 2 2 2 2 2 2 2 2 2 2 2 2 2 2 2
left_child=2 3 6 -2 -5 -4 9 8 -7 -1 -11 -12 -13 14 -14 -3 18 -18 19 -9 23 22 24 -21 -22 27 28 -25 -27 -30
right_child=1 15 5 4 -6 7 -8 16 -10 10 11 12 13 -15 -16 -17 17 -19 -20 20 21 -23 -24 25 -26 26 -28 -29 29 -31
leaf_value=0.068559818445016352 -0.024515210882541511 -0.083486442069338737 -0.085421804170289564 -0.033303198446096145 0.25503920004727892 0.054585465543405522 0.076643189529312594 -0.082992217983045458 -0.089437310020230448 -0.08421267489915335 0.10690911909383755 -0.08505333195368435 0.043909299335775635 -0.090120003713519761 -0.039367588034360239 0.031931306516128043 0.11016036956473439 -0.016242516842754795 -0.057797124678916782 0.12675979464720175 0.063907344189393117 -0.12516319822161134 0.063021393959448294 0.13308870716254093 -0.052231016243432349 -0.020799365035373288 0.12001395579034368 0.026169349303436302 0.043347511038583614 -0.095869302171020132
leaf_weight=10.756647385656832 23.025981988757852 29.404369736090306 4.3533332552760831 1.9388703480362885 1.3012917488813398 1.7953011989593504 10.973609291017054 3.9572003856301299 6.1433526910841456 5.1855189725756636 4.4985295869410029 4.3467013016343037 43.010782442986972 3.3191272169351569 6.0573063790798178 2.1007549986243239 5.26597613096237 4.1205820664763451 8.7095422893762571 3.034150004386901 3.1152593120932677 3.9580967351794234 6.6268522273749104 3.8488720729947046 13.087753050029276 38.579650346189744 3.2495397850871077 16.376866482198238 16.768667707219723 2.400381337851285
leaf_count=83 205 1111 89 38 13 9 69 35 96 33 36 31 272 20 30 26 34 26 56 15 23 29 52 23 98 294 19 91 180 31
internal_value=-0.0012886 -0.0464758 0.00988946 -0.0113141 0.0824989 -0.00202546 0.0295419 0.000548686 -0.056867 0.0228445 0.0154407 0.0238799 0.0172964 0.0257886 0.033629 -0.0757904 0.00397322 0.0546711 0.000126583 0.00451332 0.00763164 -0.0209898 -0.00292885 0.0167312 -0.0299018 0.012621 0.00138225 0.0465156 -0.00529319 0.0259145
internal_weight=291.311 57.7713 233.54 26.2661 3.24016 145.391 88.1482 141.038 7.93865 77.1746 66.418 61.2324 56.7339 52.3872 49.0681 31.5051 133.099 9.38656 123.713 115.003 111.046 26.788 22.8299 84.2581 16.203 81.224 60.9982 20.2257 57.7487 19.169
internal_count=3167 1393 1774 256 51 1200 574 1111 105 505 422 389 353 322 302 1137 1006 60 946 890 855 202 173 653 121 638 524 114 505 211
is_linear=0
shrinkage=0.1


Tree=27
num_leaves=31
num_cat=0
split_feature=13 4 8 0 14 11 13 10 12 3 12 12 0 5 12 6 5 7 3 12 11 3 3 7 13 15 15 9 7 13
split_gain=13.4805 5.87792 3.78111 3.90568 3.08708 2.73078 6.75188 3.91325 4.28766 3.21056 3.16666 6.10559 7.98391 8.28801 4.50604 6.10542 7.66599 4.30733 3.26578 3.45728 4.0969 2.86819 2.83363 3.9589 2.8125 2.55809 6.07626 2.69675 2.69897 2.45235
threshold=0.77197550837991569 -0.81204519426517485 -1.1841508370682166 2023.5000000000002 -1.1778659076405589 -0.029027261993658193 -1.1502440995977827 0.13094249067660022 -0.16839525839860336 13.500000000000002 -0.45920303506166532 -0.24109720256436881 2018.5000000000002 0.16969090430476172 0.41322029492752094 -0.99415338053396163 -1.1791351635718461 1.9157625736883654 8.5000000000000018 0.92213390408787954 0.22943753253252722 9.5000000000000018 2.5000000000000004 -0.12712404399231594 -0.49387642858100783 -0.078485157807284142 -0.33306599971846323 -0.68628693486637427 0.55511931456508667 -1.1502440995977827
decision_type=2 2 2 2 2 2 2 2 2 2 2 2 2 2 2 2 2 2 2 2 2 2 2 2 2 2 2 2 2 2
left_child=1 4 -3 5 -1 7 -7 9 -9 21 -8 12 -12 -14 22 16 -16 18 -17 20 -20 25 23 -13 -23 26 27 -4 -29 -5
right_child=-2 2 3 29 -6 6 10 8 -10 -11 11 14 13 -15 15 17 -18 -19 19 -21 -22 24 -24 -25 -26 -27 -28 28 -30 -31
leaf_value=-0.064904650638464331 -0.069237106960628111 -0.10454249449035749 0.057706486291974717 0.0021380412021825535 0.024789370495364671 0.19389448215750762 -0.1022284107245731 0.0012126078469852776 0.15603537892270444 -0.054153457216648576 -0.11421360037763623 0.15539185738535036 0.0060179597446723236 0.32050895385131178 -0.0420164346541868 -0.10940863283512346 0.28907933973749556 0.12463666109507668 0.086982885165243107 0.15878722973835246 -0.10748030920053649 0.018503024611030393 -0.10757564201336661 -0.070561751463546235 0.098970772406428084 0.015520319982950032 -0.1374286806987787 -0.062456395307746632 0.052937205415855407 -0.1258115889236025
leaf_weight=3.9676115438342086 26.446833929046988 3.9670771528035393 4.8176606930792323 2.3129550665616989 116.79347125440836 1.3839428573846806 5.3635732345283023 3.5549386404454708 3.6003662124276152 9.0546730775386077 1.4114153143018437 1.088512256741524 1.6145044453442099 1.7422808241099117 1.3189498391002419 5.1902661733329243 1.4884708635509021 1.5836724936962134 1.6902140472084282 1.1063774060457943 3.0175319537520409 24.662851706147197 9.7126396093517524 2.6958397701382699 5.2721137516200534 22.113400615751747 4.4114768095314494 7.8273681551218015 2.7351951859891415 4.2513160705566397
leaf_count=41 795 124 36 11 749 7 73 30 28 86 27 11 24 16 20 134 24 13 19 22 80 117 243 75 30 153 34 68 20 57
internal_value=-0.00122109 0.00570405 -0.00831782 -0.00549065 0.0218425 -0.001646 -0.0231685 0.00823116 0.0791155 0.0019613 -0.0308663 -0.0194953 0.0853424 0.169249 -0.036797 0.000179622 0.133528 -0.02956 -0.0517509 -0.000279831 -0.0376625 0.00903397 -0.0789747 -0.00556958 0.0326749 -0.00785398 -0.0339702 -0.00429547 -0.032575 -0.0807279
internal_weight=286.198 259.751 138.99 135.023 120.761 128.458 40.4082 88.05 7.1553 80.8947 39.0242 33.6607 4.7682 3.35679 28.8925 15.3955 2.80742 12.5881 11.0044 5.81412 4.70775 71.8401 13.497 3.78435 29.935 41.9051 19.7917 15.3802 10.5626 6.56427
internal_count=3167 2372 1582 1458 790 1390 788 602 58 544 781 708 67 40 641 312 44 268 255 121 99 458 329 86 147 311 158 124 88 68
is_linear=0
shrinkage=0.1


Tree=28
num_leaves=31
num_cat=0
split_feature=4 13 2 8 6 5 15 11 2 11 6 15 4 1 6 15 4 7 14 13 5 6 14 11 11 2 1 5 6 7
split_gain=11.6282 5.94332 4.94842 4.57016 7.68536 4.14927 5.01569 4.05275 3.51808 3.08217 2.96374 5.51438 2.92305 2.91351 4.52648 3.76334 3.11542 3.0302 2.79672 2.56647 2.75968 3.1527 2.5136 2.50399 2.39986 2.39383 2.30871 2.11376 3.61696 2.02855
threshold=0.37510477902476752 0.30314145765364769 4.5000000000000009 -1.1841508370682166 1.7243733620237267 0.48737147461792513 -0.1732677013703518 -0.95715084233768766 19.500000000000004 -0.67518924830912186 -1.1660376360112836 0.2745002347829964 -1.4904166075737133 18.500000000000004 0.50577952963468664 -0.77792617299247246 -1.3208237542465786 0.9159904549079384 1.0000000180025095e-35 -1.0095938843799024 0.19613769211460932 -0.31321809178801113 -0.44005156036806609 -0.62819564930436078 -1.7560420254186244 3.5000000000000004 6.5000000000000009 -0.74557537970271393 -0.28193161723132582 0.17940651336264798
decision_type=2 2 2 2 2 2 2 2 2 2 2 2 2 2 2 2 2 2 2 2 2 2 2 2 2 2 2 2 2 2
left_child=3 2 -2 4 -1 -4 -7 12 -8 -10 11 -3 -5 14 15 -14 -15 18 -18 20 21 -17 23 -9 -16 -24 -21 -20 -29 -27
right_child=1 10 5 7 -6 6 8 22 9 -11 -12 -13 13 16 24 19 17 -19 27 26 -22 -23 25 -25 -26 29 -28 28 -30 -31
leaf_value=-0.10922097161976614 0.1003447967798879 -0.10249245283637776 -0.062920925123491858 0.072983357694725692 0.19180006152758711 0.14334572925456571 -0.12503317296614921 0.047643377999857517 0.13024935602467286 -0.056362758068231655 -0.097755417269812822 0.34708024113613567 0.066811291722925728 0.119915960339878 -0.014055161687512375 -0.043943731349953004 -0.029428561602582493 -0.043153775567453909 0.11912295107620396 -0.050184880235815611 0.026936792857259684 -0.15052754686458938 -0.063593719303375998 -0.086489837541624884 0.084529729664403142 0.016035482948979062 0.051635596145387666 -0.051872819252094998 0.078842896382423783 -0.0094241169636743501
leaf_weight=6.4284981675446025 3.2149474490433958 0.72451055794954544 15.213886409997942 12.232490457594393 0.9770536646246909 2.5015496332198381 2.2169629689306003 1.8157678842544553 1.7450819164514544 1.795920670032501 18.781737841665745 0.43763546645641327 4.6347839385271064 4.6437571495771435 3.4773416221141806 9.987083628773691 3.7665651142597261 4.5356053933501235 5.1276014521718087 3.6799627169966751 3.4051110967993727 3.8431871011853209 5.1478107683360568 5.9597715064883223 8.5174708217382413 78.831672703847289 5.6397247165441513 2.9982530027627998 7.2007260993122912 51.899133879691362
leaf_count=124 35 33 214 112 16 30 27 9 9 37 839 12 32 39 25 55 21 26 31 20 22 22 50 110 53 691 30 18 41 384
internal_value=-0.00125779 -0.0468685 -0.0160071 0.00780263 -0.0695057 -0.0319428 0.0251183 0.0103209 -0.0262456 0.0356037 -0.0881663 0.0668055 0.0278136 0.0200811 0.003743 -0.0163343 0.0450367 0.0303207 0.0477747 -0.0308461 -0.0537065 -0.0735615 0.000130046 -0.0551666 0.0559496 0.00329435 0.0114309 0.0667477 0.0404156 0.00592822
internal_weight=281.382 46.6322 26.6883 234.749 7.40555 23.4734 8.25952 227.344 5.75797 3.541 19.9439 1.16215 83.6897 71.4572 43.1847 31.1899 28.2725 23.6288 19.0931 26.5551 17.2354 13.8303 143.654 7.77554 11.9948 135.879 9.31969 15.3266 10.199 130.731
internal_count=3167 1236 352 1931 140 317 103 1791 73 46 884 45 547 435 259 181 176 137 111 149 99 77 1244 119 78 1125 50 90 59 1075
is_linear=0
shrinkage=0.1


Tree=29
num_leaves=31
num_cat=0
split_feature=13 4 14 1 10 9 9 4 12 13 15 2 6 9 8 4 14 4 15 14 12 1 10 9 13 5 7 15 4 3
split_gain=10.368 4.51249 3.95486 3.38331 3.97807 3.80063 7.19936 4.35183 5.26995 2.94185 2.87179 2.77675 2.70565 3.09327 2.63526 2.90076 2.45375 4.94845 3.90347 3.80664 3.65519 3.76731 4.3896 3.42529 5.53928 3.1688 5.5125 2.97739 2.71489 4.22261
